digraph Tree {
node [shape=box] ;
0 [label="X[3] <= 3.5\ngini = 0.6839\nsamples = 467\nvalue = [5, 14, 48, 50, 280, 293, 44, 2]"] ;
1 [label="X[2] <= 6.5\ngini = 0.3879\nsamples = 24\nvalue = [0, 0, 1, 5, 2, 30, 1, 0]"] ;
0 -> 1 [labeldistance=2.5, labelangle=45, headlabel="True"] ;
2 [label="X[3] <= 2.5\ngini = 0.1626\nsamples = 15\nvalue = [0, 0, 1, 0, 1, 21, 0, 0]"] ;
1 -> 2 ;
3 [label="X[1] <= 5.5\ngini = 0.1653\nsamples = 7\nvalue = [0, 0, 1, 0, 0, 10, 0, 0]"] ;
2 -> 3 ;
4 [label="gini = 0.0\nsamples = 5\nvalue = [0, 0, 0, 0, 0, 9, 0, 0]"] ;
3 -> 4 ;
5 [label="X[4] <= 1.5\ngini = 0.5\nsamples = 2\nvalue = [0, 0, 1, 0, 0, 1, 0, 0]"] ;
3 -> 5 ;
6 [label="gini = 0.0\nsamples = 1\nvalue = [0, 0, 1, 0, 0, 0, 0, 0]"] ;
5 -> 6 ;
7 [label="gini = 0.0\nsamples = 1\nvalue = [0, 0, 0, 0, 0, 1, 0, 0]"] ;
5 -> 7 ;
8 [label="X[1] <= 0.5\ngini = 0.1528\nsamples = 8\nvalue = [0, 0, 0, 0, 1, 11, 0, 0]"] ;
2 -> 8 ;
9 [label="X[4] <= 2.5\ngini = 0.375\nsamples = 3\nvalue = [0, 0, 0, 0, 1, 3, 0, 0]"] ;
8 -> 9 ;
10 [label="gini = 0.5\nsamples = 2\nvalue = [0, 0, 0, 0, 1, 1, 0, 0]"] ;
9 -> 10 ;
11 [label="gini = 0.0\nsamples = 1\nvalue = [0, 0, 0, 0, 0, 2, 0, 0]"] ;
9 -> 11 ;
12 [label="gini = 0.0\nsamples = 5\nvalue = [0, 0, 0, 0, 0, 8, 0, 0]"] ;
8 -> 12 ;
13 [label="X[2] <= 7.5\ngini = 0.5781\nsamples = 9\nvalue = [0, 0, 0, 5, 1, 9, 1, 0]"] ;
1 -> 13 ;
14 [label="X[0] <= 0.5\ngini = 0.5455\nsamples = 7\nvalue = [0, 0, 0, 2, 1, 7, 1, 0]"] ;
13 -> 14 ;
15 [label="X[4] <= 2.5\ngini = 0.58\nsamples = 6\nvalue = [0, 0, 0, 2, 1, 6, 1, 0]"] ;
14 -> 15 ;
16 [label="X[1] <= 4.0\ngini = 0.4444\nsamples = 2\nvalue = [0, 0, 0, 2, 0, 1, 0, 0]"] ;
15 -> 16 ;
17 [label="gini = 0.0\nsamples = 1\nvalue = [0, 0, 0, 0, 0, 1, 0, 0]"] ;
16 -> 17 ;
18 [label="gini = 0.0\nsamples = 1\nvalue = [0, 0, 0, 2, 0, 0, 0, 0]"] ;
16 -> 18 ;
19 [label="X[4] <= 4.0\ngini = 0.449\nsamples = 4\nvalue = [0, 0, 0, 0, 1, 5, 1, 0]"] ;
15 -> 19 ;
20 [label="X[1] <= 3.5\ngini = 0.56\nsamples = 3\nvalue = [0, 0, 0, 0, 1, 3, 1, 0]"] ;
19 -> 20 ;
21 [label="gini = 0.0\nsamples = 1\nvalue = [0, 0, 0, 0, 0, 3, 0, 0]"] ;
20 -> 21 ;
22 [label="gini = 0.5\nsamples = 2\nvalue = [0, 0, 0, 0, 1, 0, 1, 0]"] ;
20 -> 22 ;
23 [label="gini = 0.0\nsamples = 1\nvalue = [0, 0, 0, 0, 0, 2, 0, 0]"] ;
19 -> 23 ;
24 [label="gini = 0.0\nsamples = 1\nvalue = [0, 0, 0, 0, 0, 1, 0, 0]"] ;
14 -> 24 ;
25 [label="X[1] <= 4.0\ngini = 0.48\nsamples = 2\nvalue = [0, 0, 0, 3, 0, 2, 0, 0]"] ;
13 -> 25 ;
26 [label="gini = 0.0\nsamples = 1\nvalue = [0, 0, 0, 0, 0, 2, 0, 0]"] ;
25 -> 26 ;
27 [label="gini = 0.0\nsamples = 1\nvalue = [0, 0, 0, 3, 0, 0, 0, 0]"] ;
25 -> 27 ;
28 [label="X[4] <= 6.5\ngini = 0.6856\nsamples = 443\nvalue = [5, 14, 47, 45, 278, 263, 43, 2]"] ;
0 -> 28 [labeldistance=2.5, labelangle=-45, headlabel="False"] ;
29 [label="X[3] <= 5.5\ngini = 0.6863\nsamples = 410\nvalue = [5, 13, 43, 40, 267, 230, 43, 2]"] ;
28 -> 29 ;
30 [label="X[4] <= 0.5\ngini = 0.6512\nsamples = 134\nvalue = [2, 2, 17, 11, 100, 70, 8, 0]"] ;
29 -> 30 ;
31 [label="X[2] <= 4.5\ngini = 0.6784\nsamples = 16\nvalue = [0, 0, 0, 4, 9, 10, 2, 0]"] ;
30 -> 31 ;
32 [label="X[3] <= 4.5\ngini = 0.6044\nsamples = 9\nvalue = [0, 0, 0, 0, 6, 7, 2, 0]"] ;
31 -> 32 ;
33 [label="X[2] <= 3.5\ngini = 0.6531\nsamples = 3\nvalue = [0, 0, 0, 0, 3, 2, 2, 0]"] ;
32 -> 33 ;
34 [label="X[1] <= 4.5\ngini = 0.48\nsamples = 2\nvalue = [0, 0, 0, 0, 3, 2, 0, 0]"] ;
33 -> 34 ;
35 [label="gini = 0.0\nsamples = 1\nvalue = [0, 0, 0, 0, 3, 0, 0, 0]"] ;
34 -> 35 ;
36 [label="gini = 0.0\nsamples = 1\nvalue = [0, 0, 0, 0, 0, 2, 0, 0]"] ;
34 -> 36 ;
37 [label="gini = 0.0\nsamples = 1\nvalue = [0, 0, 0, 0, 0, 0, 2, 0]"] ;
33 -> 37 ;
38 [label="X[1] <= 4.0\ngini = 0.4688\nsamples = 6\nvalue = [0, 0, 0, 0, 3, 5, 0, 0]"] ;
32 -> 38 ;
39 [label="gini = 0.0\nsamples = 4\nvalue = [0, 0, 0, 0, 0, 5, 0, 0]"] ;
38 -> 39 ;
40 [label="gini = 0.0\nsamples = 2\nvalue = [0, 0, 0, 0, 3, 0, 0, 0]"] ;
38 -> 40 ;
41 [label="X[2] <= 5.5\ngini = 0.66\nsamples = 7\nvalue = [0, 0, 0, 4, 3, 3, 0, 0]"] ;
31 -> 41 ;
42 [label="X[1] <= 4.5\ngini = 0.4444\nsamples = 2\nvalue = [0, 0, 0, 2, 0, 1, 0, 0]"] ;
41 -> 42 ;
43 [label="gini = 0.0\nsamples = 1\nvalue = [0, 0, 0, 0, 0, 1, 0, 0]"] ;
42 -> 43 ;
44 [label="gini = 0.0\nsamples = 1\nvalue = [0, 0, 0, 2, 0, 0, 0, 0]"] ;
42 -> 44 ;
45 [label="X[1] <= 5.5\ngini = 0.6531\nsamples = 5\nvalue = [0, 0, 0, 2, 3, 2, 0, 0]"] ;
41 -> 45 ;
46 [label="X[1] <= 4.5\ngini = 0.48\nsamples = 4\nvalue = [0, 0, 0, 0, 3, 2, 0, 0]"] ;
45 -> 46 ;
47 [label="X[2] <= 6.5\ngini = 0.4444\nsamples = 3\nvalue = [0, 0, 0, 0, 1, 2, 0, 0]"] ;
46 -> 47 ;
48 [label="X[3] <= 4.5\ngini = 0.5\nsamples = 2\nvalue = [0, 0, 0, 0, 1, 1, 0, 0]"] ;
47 -> 48 ;
49 [label="gini = 0.0\nsamples = 1\nvalue = [0, 0, 0, 0, 0, 1, 0, 0]"] ;
48 -> 49 ;
50 [label="gini = 0.0\nsamples = 1\nvalue = [0, 0, 0, 0, 1, 0, 0, 0]"] ;
48 -> 50 ;
51 [label="gini = 0.0\nsamples = 1\nvalue = [0, 0, 0, 0, 0, 1, 0, 0]"] ;
47 -> 51 ;
52 [label="gini = 0.0\nsamples = 1\nvalue = [0, 0, 0, 0, 2, 0, 0, 0]"] ;
46 -> 52 ;
53 [label="gini = 0.0\nsamples = 1\nvalue = [0, 0, 0, 2, 0, 0, 0, 0]"] ;
45 -> 53 ;
54 [label="X[2] <= 4.5\ngini = 0.6417\nsamples = 118\nvalue = [2, 2, 17, 7, 91, 60, 6, 0]"] ;
30 -> 54 ;
55 [label="X[3] <= 4.5\ngini = 0.4706\nsamples = 10\nvalue = [0, 0, 2, 0, 12, 1, 2, 0]"] ;
54 -> 55 ;
56 [label="X[2] <= 3.5\ngini = 0.2188\nsamples = 5\nvalue = [0, 0, 0, 0, 7, 1, 0, 0]"] ;
55 -> 56 ;
57 [label="X[1] <= 2.5\ngini = 0.375\nsamples = 3\nvalue = [0, 0, 0, 0, 3, 1, 0, 0]"] ;
56 -> 57 ;
58 [label="gini = 0.0\nsamples = 1\nvalue = [0, 0, 0, 0, 2, 0, 0, 0]"] ;
57 -> 58 ;
59 [label="X[1] <= 4.5\ngini = 0.5\nsamples = 2\nvalue = [0, 0, 0, 0, 1, 1, 0, 0]"] ;
57 -> 59 ;
60 [label="gini = 0.0\nsamples = 1\nvalue = [0, 0, 0, 0, 0, 1, 0, 0]"] ;
59 -> 60 ;
61 [label="gini = 0.0\nsamples = 1\nvalue = [0, 0, 0, 0, 1, 0, 0, 0]"] ;
59 -> 61 ;
62 [label="gini = 0.0\nsamples = 2\nvalue = [0, 0, 0, 0, 4, 0, 0, 0]"] ;
56 -> 62 ;
63 [label="X[4] <= 1.5\ngini = 0.5926\nsamples = 5\nvalue = [0, 0, 2, 0, 5, 0, 2, 0]"] ;
55 -> 63 ;
64 [label="X[1] <= 1.0\ngini = 0.6531\nsamples = 3\nvalue = [0, 0, 2, 0, 3, 0, 2, 0]"] ;
63 -> 64 ;
65 [label="gini = 0.0\nsamples = 1\nvalue = [0, 0, 0, 0, 3, 0, 0, 0]"] ;
64 -> 65 ;
66 [label="X[1] <= 4.0\ngini = 0.5\nsamples = 2\nvalue = [0, 0, 2, 0, 0, 0, 2, 0]"] ;
64 -> 66 ;
67 [label="gini = 0.0\nsamples = 1\nvalue = [0, 0, 0, 0, 0, 0, 2, 0]"] ;
66 -> 67 ;
68 [label="gini = 0.0\nsamples = 1\nvalue = [0, 0, 2, 0, 0, 0, 0, 0]"] ;
66 -> 68 ;
69 [label="gini = 0.0\nsamples = 2\nvalue = [0, 0, 0, 0, 2, 0, 0, 0]"] ;
63 -> 69 ;
70 [label="X[3] <= 4.5\ngini = 0.645\nsamples = 108\nvalue = [2, 2, 15, 7, 79, 59, 4, 0]"] ;
54 -> 70 ;
71 [label="X[2] <= 5.5\ngini = 0.5866\nsamples = 39\nvalue = [0, 0, 1, 1, 22, 29, 4, 0]"] ;
70 -> 71 ;
72 [label="X[4] <= 1.5\ngini = 0.18\nsamples = 8\nvalue = [0, 0, 0, 0, 0, 9, 1, 0]"] ;
71 -> 72 ;
73 [label="X[1] <= 2.5\ngini = 0.4444\nsamples = 2\nvalue = [0, 0, 0, 0, 0, 2, 1, 0]"] ;
72 -> 73 ;
74 [label="gini = 0.0\nsamples = 1\nvalue = [0, 0, 0, 0, 0, 2, 0, 0]"] ;
73 -> 74 ;
75 [label="gini = 0.0\nsamples = 1\nvalue = [0, 0, 0, 0, 0, 0, 1, 0]"] ;
73 -> 75 ;
76 [label="gini = 0.0\nsamples = 6\nvalue = [0, 0, 0, 0, 0, 7, 0, 0]"] ;
72 -> 76 ;
77 [label="X[1] <= 1.5\ngini = 0.5948\nsamples = 31\nvalue = [0, 0, 1, 1, 22, 20, 3, 0]"] ;
71 -> 77 ;
78 [label="X[0] <= 0.5\ngini = 0.2076\nsamples = 10\nvalue = [0, 0, 0, 0, 15, 2, 0, 0]"] ;
77 -> 78 ;
79 [label="X[2] <= 7.5\ngini = 0.2311\nsamples = 8\nvalue = [0, 0, 0, 0, 13, 2, 0, 0]"] ;
78 -> 79 ;
80 [label="gini = 0.0\nsamples = 6\nvalue = [0, 0, 0, 0, 13, 0, 0, 0]"] ;
79 -> 80 ;
81 [label="gini = 0.0\nsamples = 2\nvalue = [0, 0, 0, 0, 0, 2, 0, 0]"] ;
79 -> 81 ;
82 [label="gini = 0.0\nsamples = 2\nvalue = [0, 0, 0, 0, 2, 0, 0, 0]"] ;
78 -> 82 ;
83 [label="X[2] <= 8.5\ngini = 0.5733\nsamples = 21\nvalue = [0, 0, 1, 1, 7, 18, 3, 0]"] ;
77 -> 83 ;
84 [label="X[4] <= 2.5\ngini = 0.6042\nsamples = 17\nvalue = [0, 0, 1, 0, 7, 13, 3, 0]"] ;
83 -> 84 ;
85 [label="X[0] <= 0.5\ngini = 0.449\nsamples = 5\nvalue = [0, 0, 1, 0, 5, 1, 0, 0]"] ;
84 -> 85 ;
86 [label="X[1] <= 4.5\ngini = 0.56\nsamples = 4\nvalue = [0, 0, 1, 0, 3, 1, 0, 0]"] ;
85 -> 86 ;
87 [label="gini = 0.0\nsamples = 2\nvalue = [0, 0, 0, 0, 3, 0, 0, 0]"] ;
86 -> 87 ;
88 [label="X[1] <= 5.5\ngini = 0.5\nsamples = 2\nvalue = [0, 0, 1, 0, 0, 1, 0, 0]"] ;
86 -> 88 ;
89 [label="gini = 0.0\nsamples = 1\nvalue = [0, 0, 0, 0, 0, 1, 0, 0]"] ;
88 -> 89 ;
90 [label="gini = 0.0\nsamples = 1\nvalue = [0, 0, 1, 0, 0, 0, 0, 0]"] ;
88 -> 90 ;
91 [label="gini = 0.0\nsamples = 1\nvalue = [0, 0, 0, 0, 2, 0, 0, 0]"] ;
85 -> 91 ;
92 [label="X[1] <= 4.5\ngini = 0.4567\nsamples = 12\nvalue = [0, 0, 0, 0, 2, 12, 3, 0]"] ;
84 -> 92 ;
93 [label="X[2] <= 7.5\ngini = 0.142\nsamples = 10\nvalue = [0, 0, 0, 0, 1, 12, 0, 0]"] ;
92 -> 93 ;
94 [label="X[0] <= 0.5\ngini = 0.18\nsamples = 7\nvalue = [0, 0, 0, 0, 1, 9, 0, 0]"] ;
93 -> 94 ;
95 [label="gini = 0.0\nsamples = 3\nvalue = [0, 0, 0, 0, 0, 5, 0, 0]"] ;
94 -> 95 ;
96 [label="X[1] <= 2.5\ngini = 0.32\nsamples = 4\nvalue = [0, 0, 0, 0, 1, 4, 0, 0]"] ;
94 -> 96 ;
97 [label="gini = 0.5\nsamples = 2\nvalue = [0, 0, 0, 0, 1, 1, 0, 0]"] ;
96 -> 97 ;
98 [label="gini = 0.0\nsamples = 2\nvalue = [0, 0, 0, 0, 0, 3, 0, 0]"] ;
96 -> 98 ;
99 [label="gini = 0.0\nsamples = 3\nvalue = [0, 0, 0, 0, 0, 3, 0, 0]"] ;
93 -> 99 ;
100 [label="X[4] <= 4.5\ngini = 0.375\nsamples = 2\nvalue = [0, 0, 0, 0, 1, 0, 3, 0]"] ;
92 -> 100 ;
101 [label="gini = 0.0\nsamples = 1\nvalue = [0, 0, 0, 0, 1, 0, 0, 0]"] ;
100 -> 101 ;
102 [label="gini = 0.0\nsamples = 1\nvalue = [0, 0, 0, 0, 0, 0, 3, 0]"] ;
100 -> 102 ;
103 [label="X[0] <= 0.5\ngini = 0.2778\nsamples = 4\nvalue = [0, 0, 0, 1, 0, 5, 0, 0]"] ;
83 -> 103 ;
104 [label="gini = 0.0\nsamples = 1\nvalue = [0, 0, 0, 0, 0, 1, 0, 0]"] ;
103 -> 104 ;
105 [label="X[4] <= 5.5\ngini = 0.32\nsamples = 3\nvalue = [0, 0, 0, 1, 0, 4, 0, 0]"] ;
103 -> 105 ;
106 [label="gini = 0.0\nsamples = 2\nvalue = [0, 0, 0, 0, 0, 4, 0, 0]"] ;
105 -> 106 ;
107 [label="gini = 0.0\nsamples = 1\nvalue = [0, 0, 0, 1, 0, 0, 0, 0]"] ;
105 -> 107 ;
108 [label="X[1] <= 3.5\ngini = 0.6438\nsamples = 69\nvalue = [2, 2, 14, 6, 57, 30, 0, 0]"] ;
70 -> 108 ;
109 [label="X[1] <= 2.5\ngini = 0.5503\nsamples = 39\nvalue = [0, 0, 4, 4, 39, 17, 0, 0]"] ;
108 -> 109 ;
110 [label="X[2] <= 6.5\ngini = 0.5921\nsamples = 31\nvalue = [0, 0, 2, 4, 25, 16, 0, 0]"] ;
109 -> 110 ;
111 [label="X[1] <= 0.5\ngini = 0.5293\nsamples = 15\nvalue = [0, 0, 0, 2, 7, 14, 0, 0]"] ;
110 -> 111 ;
112 [label="X[4] <= 3.0\ngini = 0.2778\nsamples = 4\nvalue = [0, 0, 0, 0, 1, 5, 0, 0]"] ;
111 -> 112 ;
113 [label="gini = 0.0\nsamples = 2\nvalue = [0, 0, 0, 0, 0, 4, 0, 0]"] ;
112 -> 113 ;
114 [label="gini = 0.5\nsamples = 2\nvalue = [0, 0, 0, 0, 1, 1, 0, 0]"] ;
112 -> 114 ;
115 [label="X[4] <= 2.5\ngini = 0.5813\nsamples = 11\nvalue = [0, 0, 0, 2, 6, 9, 0, 0]"] ;
111 -> 115 ;
116 [label="X[4] <= 1.5\ngini = 0.4444\nsamples = 2\nvalue = [0, 0, 0, 0, 2, 1, 0, 0]"] ;
115 -> 116 ;
117 [label="gini = 0.0\nsamples = 1\nvalue = [0, 0, 0, 0, 0, 1, 0, 0]"] ;
116 -> 117 ;
118 [label="gini = 0.0\nsamples = 1\nvalue = [0, 0, 0, 0, 2, 0, 0, 0]"] ;
116 -> 118 ;
119 [label="X[4] <= 5.5\ngini = 0.5714\nsamples = 9\nvalue = [0, 0, 0, 2, 4, 8, 0, 0]"] ;
115 -> 119 ;
120 [label="X[1] <= 1.5\ngini = 0.56\nsamples = 7\nvalue = [0, 0, 0, 2, 2, 6, 0, 0]"] ;
119 -> 120 ;
121 [label="X[2] <= 5.5\ngini = 0.5\nsamples = 4\nvalue = [0, 0, 0, 1, 1, 4, 0, 0]"] ;
120 -> 121 ;
122 [label="gini = 0.5\nsamples = 2\nvalue = [0, 0, 0, 1, 1, 0, 0, 0]"] ;
121 -> 122 ;
123 [label="gini = 0.0\nsamples = 2\nvalue = [0, 0, 0, 0, 0, 4, 0, 0]"] ;
121 -> 123 ;
124 [label="gini = 0.625\nsamples = 3\nvalue = [0, 0, 0, 1, 1, 2, 0, 0]"] ;
120 -> 124 ;
125 [label="gini = 0.5\nsamples = 2\nvalue = [0, 0, 0, 0, 2, 2, 0, 0]"] ;
119 -> 125 ;
126 [label="X[2] <= 7.5\ngini = 0.4167\nsamples = 16\nvalue = [0, 0, 2, 2, 18, 2, 0, 0]"] ;
110 -> 126 ;
127 [label="X[4] <= 2.5\ngini = 0.6667\nsamples = 8\nvalue = [0, 0, 2, 2, 6, 2, 0, 0]"] ;
126 -> 127 ;
128 [label="gini = 0.0\nsamples = 1\nvalue = [0, 0, 0, 0, 3, 0, 0, 0]"] ;
127 -> 128 ;
129 [label="X[1] <= 0.5\ngini = 0.7407\nsamples = 7\nvalue = [0, 0, 2, 2, 3, 2, 0, 0]"] ;
127 -> 129 ;
130 [label="X[4] <= 5.5\ngini = 0.5\nsamples = 3\nvalue = [0, 0, 0, 2, 2, 0, 0, 0]"] ;
129 -> 130 ;
131 [label="X[0] <= 0.5\ngini = 0.4444\nsamples = 2\nvalue = [0, 0, 0, 2, 1, 0, 0, 0]"] ;
130 -> 131 ;
132 [label="gini = 0.0\nsamples = 1\nvalue = [0, 0, 0, 2, 0, 0, 0, 0]"] ;
131 -> 132 ;
133 [label="gini = 0.0\nsamples = 1\nvalue = [0, 0, 0, 0, 1, 0, 0, 0]"] ;
131 -> 133 ;
134 [label="gini = 0.0\nsamples = 1\nvalue = [0, 0, 0, 0, 1, 0, 0, 0]"] ;
130 -> 134 ;
135 [label="X[0] <= 0.5\ngini = 0.64\nsamples = 4\nvalue = [0, 0, 2, 0, 1, 2, 0, 0]"] ;
129 -> 135 ;
136 [label="X[4] <= 3.5\ngini = 0.625\nsamples = 3\nvalue = [0, 0, 2, 0, 1, 1, 0, 0]"] ;
135 -> 136 ;
137 [label="gini = 0.0\nsamples = 1\nvalue = [0, 0, 0, 0, 0, 1, 0, 0]"] ;
136 -> 137 ;
138 [label="gini = 0.4444\nsamples = 2\nvalue = [0, 0, 2, 0, 1, 0, 0, 0]"] ;
136 -> 138 ;
139 [label="gini = 0.0\nsamples = 1\nvalue = [0, 0, 0, 0, 0, 1, 0, 0]"] ;
135 -> 139 ;
140 [label="gini = 0.0\nsamples = 8\nvalue = [0, 0, 0, 0, 12, 0, 0, 0]"] ;
126 -> 140 ;
141 [label="X[2] <= 7.5\ngini = 0.3045\nsamples = 8\nvalue = [0, 0, 2, 0, 14, 1, 0, 0]"] ;
109 -> 141 ;
142 [label="X[0] <= 0.5\ngini = 0.1244\nsamples = 7\nvalue = [0, 0, 0, 0, 14, 1, 0, 0]"] ;
141 -> 142 ;
143 [label="gini = 0.0\nsamples = 4\nvalue = [0, 0, 0, 0, 5, 0, 0, 0]"] ;
142 -> 143 ;
144 [label="X[4] <= 5.5\ngini = 0.18\nsamples = 3\nvalue = [0, 0, 0, 0, 9, 1, 0, 0]"] ;
142 -> 144 ;
145 [label="gini = 0.0\nsamples = 1\nvalue = [0, 0, 0, 0, 5, 0, 0, 0]"] ;
144 -> 145 ;
146 [label="gini = 0.32\nsamples = 2\nvalue = [0, 0, 0, 0, 4, 1, 0, 0]"] ;
144 -> 146 ;
147 [label="gini = 0.0\nsamples = 1\nvalue = [0, 0, 2, 0, 0, 0, 0, 0]"] ;
141 -> 147 ;
148 [label="X[4] <= 1.5\ngini = 0.7261\nsamples = 30\nvalue = [2, 2, 10, 2, 18, 13, 0, 0]"] ;
108 -> 148 ;
149 [label="X[1] <= 4.5\ngini = 0.32\nsamples = 4\nvalue = [0, 0, 4, 0, 0, 1, 0, 0]"] ;
148 -> 149 ;
150 [label="gini = 0.0\nsamples = 1\nvalue = [0, 0, 1, 0, 0, 0, 0, 0]"] ;
149 -> 150 ;
151 [label="X[2] <= 6.5\ngini = 0.375\nsamples = 3\nvalue = [0, 0, 3, 0, 0, 1, 0, 0]"] ;
149 -> 151 ;
152 [label="X[1] <= 5.5\ngini = 0.5\nsamples = 2\nvalue = [0, 0, 1, 0, 0, 1, 0, 0]"] ;
151 -> 152 ;
153 [label="gini = 0.0\nsamples = 1\nvalue = [0, 0, 0, 0, 0, 1, 0, 0]"] ;
152 -> 153 ;
154 [label="gini = 0.0\nsamples = 1\nvalue = [0, 0, 1, 0, 0, 0, 0, 0]"] ;
152 -> 154 ;
155 [label="gini = 0.0\nsamples = 1\nvalue = [0, 0, 2, 0, 0, 0, 0, 0]"] ;
151 -> 155 ;
156 [label="X[4] <= 2.5\ngini = 0.7075\nsamples = 26\nvalue = [2, 2, 6, 2, 18, 12, 0, 0]"] ;
148 -> 156 ;
157 [label="X[2] <= 5.5\ngini = 0.5289\nsamples = 6\nvalue = [2, 0, 2, 0, 7, 0, 0, 0]"] ;
156 -> 157 ;
158 [label="gini = 0.0\nsamples = 2\nvalue = [0, 0, 0, 0, 5, 0, 0, 0]"] ;
157 -> 158 ;
159 [label="X[1] <= 5.5\ngini = 0.6667\nsamples = 4\nvalue = [2, 0, 2, 0, 2, 0, 0, 0]"] ;
157 -> 159 ;
160 [label="gini = 0.4444\nsamples = 2\nvalue = [0, 0, 2, 0, 1, 0, 0, 0]"] ;
159 -> 160 ;
161 [label="gini = 0.4444\nsamples = 2\nvalue = [2, 0, 0, 0, 1, 0, 0, 0]"] ;
159 -> 161 ;
162 [label="X[2] <= 6.5\ngini = 0.6993\nsamples = 20\nvalue = [0, 2, 4, 2, 11, 12, 0, 0]"] ;
156 -> 162 ;
163 [label="X[4] <= 5.5\ngini = 0.5124\nsamples = 8\nvalue = [0, 1, 3, 0, 0, 7, 0, 0]"] ;
162 -> 163 ;
164 [label="X[4] <= 4.5\ngini = 0.46\nsamples = 7\nvalue = [0, 1, 2, 0, 0, 7, 0, 0]"] ;
163 -> 164 ;
165 [label="X[0] <= 0.5\ngini = 0.5714\nsamples = 5\nvalue = [0, 1, 2, 0, 0, 4, 0, 0]"] ;
164 -> 165 ;
166 [label="X[1] <= 5.5\ngini = 0.5\nsamples = 4\nvalue = [0, 1, 1, 0, 0, 4, 0, 0]"] ;
165 -> 166 ;
167 [label="gini = 0.0\nsamples = 1\nvalue = [0, 0, 0, 0, 0, 2, 0, 0]"] ;
166 -> 167 ;
168 [label="X[4] <= 3.5\ngini = 0.625\nsamples = 3\nvalue = [0, 1, 1, 0, 0, 2, 0, 0]"] ;
166 -> 168 ;
169 [label="gini = 0.4444\nsamples = 2\nvalue = [0, 0, 1, 0, 0, 2, 0, 0]"] ;
168 -> 169 ;
170 [label="gini = 0.0\nsamples = 1\nvalue = [0, 1, 0, 0, 0, 0, 0, 0]"] ;
168 -> 170 ;
171 [label="gini = 0.0\nsamples = 1\nvalue = [0, 0, 1, 0, 0, 0, 0, 0]"] ;
165 -> 171 ;
172 [label="gini = 0.0\nsamples = 2\nvalue = [0, 0, 0, 0, 0, 3, 0, 0]"] ;
164 -> 172 ;
173 [label="gini = 0.0\nsamples = 1\nvalue = [0, 0, 1, 0, 0, 0, 0, 0]"] ;
163 -> 173 ;
174 [label="X[1] <= 4.5\ngini = 0.62\nsamples = 12\nvalue = [0, 1, 1, 2, 11, 5, 0, 0]"] ;
162 -> 174 ;
175 [label="X[4] <= 4.5\ngini = 0.6667\nsamples = 4\nvalue = [0, 0, 0, 2, 2, 2, 0, 0]"] ;
174 -> 175 ;
176 [label="X[2] <= 7.5\ngini = 0.5\nsamples = 2\nvalue = [0, 0, 0, 2, 2, 0, 0, 0]"] ;
175 -> 176 ;
177 [label="gini = 0.0\nsamples = 1\nvalue = [0, 0, 0, 2, 0, 0, 0, 0]"] ;
176 -> 177 ;
178 [label="gini = 0.0\nsamples = 1\nvalue = [0, 0, 0, 0, 2, 0, 0, 0]"] ;
176 -> 178 ;
179 [label="gini = 0.0\nsamples = 2\nvalue = [0, 0, 0, 0, 0, 2, 0, 0]"] ;
175 -> 179 ;
180 [label="X[2] <= 8.5\ngini = 0.5306\nsamples = 8\nvalue = [0, 1, 1, 0, 9, 3, 0, 0]"] ;
174 -> 180 ;
181 [label="gini = 0.0\nsamples = 5\nvalue = [0, 0, 0, 0, 9, 0, 0, 0]"] ;
180 -> 181 ;
182 [label="X[0] <= 0.5\ngini = 0.56\nsamples = 3\nvalue = [0, 1, 1, 0, 0, 3, 0, 0]"] ;
180 -> 182 ;
183 [label="X[1] <= 5.5\ngini = 0.375\nsamples = 2\nvalue = [0, 0, 1, 0, 0, 3, 0, 0]"] ;
182 -> 183 ;
184 [label="gini = 0.0\nsamples = 1\nvalue = [0, 0, 1, 0, 0, 0, 0, 0]"] ;
183 -> 184 ;
185 [label="gini = 0.0\nsamples = 1\nvalue = [0, 0, 0, 0, 0, 3, 0, 0]"] ;
183 -> 185 ;
186 [label="gini = 0.0\nsamples = 1\nvalue = [0, 1, 0, 0, 0, 0, 0, 0]"] ;
182 -> 186 ;
187 [label="X[1] <= 3.5\ngini = 0.6994\nsamples = 276\nvalue = [3, 11, 26, 29, 167, 160, 35, 2]"] ;
29 -> 187 ;
188 [label="X[1] <= 2.5\ngini = 0.6212\nsamples = 152\nvalue = [0, 4, 9, 12, 105, 98, 7, 0]"] ;
187 -> 188 ;
189 [label="X[0] <= 0.5\ngini = 0.6142\nsamples = 108\nvalue = [0, 1, 6, 9, 83, 68, 7, 0]"] ;
188 -> 189 ;
190 [label="X[2] <= 7.5\ngini = 0.6224\nsamples = 105\nvalue = [0, 1, 6, 9, 75, 67, 7, 0]"] ;
189 -> 190 ;
191 [label="X[4] <= 5.5\ngini = 0.6249\nsamples = 100\nvalue = [0, 1, 6, 9, 74, 61, 7, 0]"] ;
190 -> 191 ;
192 [label="X[4] <= 2.5\ngini = 0.6292\nsamples = 95\nvalue = [0, 1, 6, 9, 71, 55, 7, 0]"] ;
191 -> 192 ;
193 [label="X[2] <= 3.5\ngini = 0.576\nsamples = 52\nvalue = [0, 0, 0, 4, 40, 36, 3, 0]"] ;
192 -> 193 ;
194 [label="X[1] <= 0.5\ngini = 0.5289\nsamples = 5\nvalue = [0, 0, 0, 2, 2, 7, 0, 0]"] ;
193 -> 194 ;
195 [label="X[3] <= 8.5\ngini = 0.6667\nsamples = 4\nvalue = [0, 0, 0, 2, 2, 2, 0, 0]"] ;
194 -> 195 ;
196 [label="X[2] <= 2.0\ngini = 0.64\nsamples = 3\nvalue = [0, 0, 0, 2, 2, 1, 0, 0]"] ;
195 -> 196 ;
197 [label="gini = 0.0\nsamples = 1\nvalue = [0, 0, 0, 0, 2, 0, 0, 0]"] ;
196 -> 197 ;
198 [label="X[4] <= 0.5\ngini = 0.4444\nsamples = 2\nvalue = [0, 0, 0, 2, 0, 1, 0, 0]"] ;
196 -> 198 ;
199 [label="gini = 0.0\nsamples = 1\nvalue = [0, 0, 0, 2, 0, 0, 0, 0]"] ;
198 -> 199 ;
200 [label="gini = 0.0\nsamples = 1\nvalue = [0, 0, 0, 0, 0, 1, 0, 0]"] ;
198 -> 200 ;
201 [label="gini = 0.0\nsamples = 1\nvalue = [0, 0, 0, 0, 0, 1, 0, 0]"] ;
195 -> 201 ;
202 [label="gini = 0.0\nsamples = 1\nvalue = [0, 0, 0, 0, 0, 5, 0, 0]"] ;
194 -> 202 ;
203 [label="X[4] <= 1.5\ngini = 0.5567\nsamples = 47\nvalue = [0, 0, 0, 2, 38, 29, 3, 0]"] ;
193 -> 203 ;
204 [label="X[4] <= 0.5\ngini = 0.5432\nsamples = 32\nvalue = [0, 0, 0, 1, 31, 19, 3, 0]"] ;
203 -> 204 ;
205 [label="X[1] <= 1.5\ngini = 0.5941\nsamples = 12\nvalue = [0, 0, 0, 0, 11, 7, 3, 0]"] ;
204 -> 205 ;
206 [label="X[2] <= 5.5\ngini = 0.6429\nsamples = 8\nvalue = [0, 0, 0, 0, 6, 5, 3, 0]"] ;
205 -> 206 ;
207 [label="X[2] <= 4.5\ngini = 0.6111\nsamples = 6\nvalue = [0, 0, 0, 0, 6, 4, 2, 0]"] ;
206 -> 207 ;
208 [label="gini = 0.0\nsamples = 1\nvalue = [0, 0, 0, 0, 1, 0, 0, 0]"] ;
207 -> 208 ;
209 [label="X[1] <= 0.5\ngini = 0.6281\nsamples = 5\nvalue = [0, 0, 0, 0, 5, 4, 2, 0]"] ;
207 -> 209 ;
210 [label="X[3] <= 7.0\ngini = 0.4938\nsamples = 4\nvalue = [0, 0, 0, 0, 5, 4, 0, 0]"] ;
209 -> 210 ;
211 [label="gini = 0.0\nsamples = 1\nvalue = [0, 0, 0, 0, 3, 0, 0, 0]"] ;
210 -> 211 ;
212 [label="gini = 0.4444\nsamples = 3\nvalue = [0, 0, 0, 0, 2, 4, 0, 0]"] ;
210 -> 212 ;
213 [label="gini = 0.0\nsamples = 1\nvalue = [0, 0, 0, 0, 0, 0, 2, 0]"] ;
209 -> 213 ;
214 [label="X[3] <= 7.5\ngini = 0.5\nsamples = 2\nvalue = [0, 0, 0, 0, 0, 1, 1, 0]"] ;
206 -> 214 ;
215 [label="gini = 0.0\nsamples = 1\nvalue = [0, 0, 0, 0, 0, 0, 1, 0]"] ;
214 -> 215 ;
216 [label="gini = 0.0\nsamples = 1\nvalue = [0, 0, 0, 0, 0, 1, 0, 0]"] ;
214 -> 216 ;
217 [label="X[3] <= 7.0\ngini = 0.4082\nsamples = 4\nvalue = [0, 0, 0, 0, 5, 2, 0, 0]"] ;
205 -> 217 ;
218 [label="gini = 0.0\nsamples = 1\nvalue = [0, 0, 0, 0, 1, 0, 0, 0]"] ;
217 -> 218 ;
219 [label="X[2] <= 5.5\ngini = 0.4444\nsamples = 3\nvalue = [0, 0, 0, 0, 4, 2, 0, 0]"] ;
217 -> 219 ;
220 [label="gini = 0.48\nsamples = 2\nvalue = [0, 0, 0, 0, 3, 2, 0, 0]"] ;
219 -> 220 ;
221 [label="gini = 0.0\nsamples = 1\nvalue = [0, 0, 0, 0, 1, 0, 0, 0]"] ;
219 -> 221 ;
222 [label="X[2] <= 6.5\ngini = 0.4995\nsamples = 20\nvalue = [0, 0, 0, 1, 20, 12, 0, 0]"] ;
204 -> 222 ;
223 [label="X[1] <= 1.5\ngini = 0.4787\nsamples = 19\nvalue = [0, 0, 0, 1, 20, 10, 0, 0]"] ;
222 -> 223 ;
224 [label="X[3] <= 6.5\ngini = 0.2188\nsamples = 8\nvalue = [0, 0, 0, 0, 14, 2, 0, 0]"] ;
223 -> 224 ;
225 [label="X[2] <= 5.5\ngini = 0.48\nsamples = 3\nvalue = [0, 0, 0, 0, 3, 2, 0, 0]"] ;
224 -> 225 ;
226 [label="gini = 0.0\nsamples = 1\nvalue = [0, 0, 0, 0, 1, 0, 0, 0]"] ;
225 -> 226 ;
227 [label="X[1] <= 0.5\ngini = 0.5\nsamples = 2\nvalue = [0, 0, 0, 0, 2, 2, 0, 0]"] ;
225 -> 227 ;
228 [label="gini = 0.0\nsamples = 1\nvalue = [0, 0, 0, 0, 0, 2, 0, 0]"] ;
227 -> 228 ;
229 [label="gini = 0.0\nsamples = 1\nvalue = [0, 0, 0, 0, 2, 0, 0, 0]"] ;
227 -> 229 ;
230 [label="gini = 0.0\nsamples = 5\nvalue = [0, 0, 0, 0, 11, 0, 0, 0]"] ;
224 -> 230 ;
231 [label="X[2] <= 5.5\ngini = 0.5511\nsamples = 11\nvalue = [0, 0, 0, 1, 6, 8, 0, 0]"] ;
223 -> 231 ;
232 [label="X[3] <= 7.5\ngini = 0.48\nsamples = 4\nvalue = [0, 0, 0, 0, 3, 2, 0, 0]"] ;
231 -> 232 ;
233 [label="gini = 0.0\nsamples = 1\nvalue = [0, 0, 0, 0, 0, 1, 0, 0]"] ;
232 -> 233 ;
234 [label="gini = 0.375\nsamples = 3\nvalue = [0, 0, 0, 0, 3, 1, 0, 0]"] ;
232 -> 234 ;
235 [label="X[3] <= 7.5\ngini = 0.54\nsamples = 7\nvalue = [0, 0, 0, 1, 3, 6, 0, 0]"] ;
231 -> 235 ;
236 [label="X[3] <= 6.5\ngini = 0.4938\nsamples = 6\nvalue = [0, 0, 0, 1, 2, 6, 0, 0]"] ;
235 -> 236 ;
237 [label="gini = 0.0\nsamples = 1\nvalue = [0, 0, 0, 0, 0, 1, 0, 0]"] ;
236 -> 237 ;
238 [label="gini = 0.5312\nsamples = 5\nvalue = [0, 0, 0, 1, 2, 5, 0, 0]"] ;
236 -> 238 ;
239 [label="gini = 0.0\nsamples = 1\nvalue = [0, 0, 0, 0, 1, 0, 0, 0]"] ;
235 -> 239 ;
240 [label="gini = 0.0\nsamples = 1\nvalue = [0, 0, 0, 0, 0, 2, 0, 0]"] ;
222 -> 240 ;
241 [label="X[2] <= 6.5\ngini = 0.537\nsamples = 15\nvalue = [0, 0, 0, 1, 7, 10, 0, 0]"] ;
203 -> 241 ;
242 [label="X[3] <= 6.5\ngini = 0.4592\nsamples = 12\nvalue = [0, 0, 0, 0, 5, 9, 0, 0]"] ;
241 -> 242 ;
243 [label="X[1] <= 1.5\ngini = 0.5\nsamples = 4\nvalue = [0, 0, 0, 0, 2, 2, 0, 0]"] ;
242 -> 243 ;
244 [label="X[1] <= 0.5\ngini = 0.4444\nsamples = 3\nvalue = [0, 0, 0, 0, 2, 1, 0, 0]"] ;
243 -> 244 ;
245 [label="gini = 0.5\nsamples = 2\nvalue = [0, 0, 0, 0, 1, 1, 0, 0]"] ;
244 -> 245 ;
246 [label="gini = 0.0\nsamples = 1\nvalue = [0, 0, 0, 0, 1, 0, 0, 0]"] ;
244 -> 246 ;
247 [label="gini = 0.0\nsamples = 1\nvalue = [0, 0, 0, 0, 0, 1, 0, 0]"] ;
243 -> 247 ;
248 [label="X[1] <= 1.5\ngini = 0.42\nsamples = 8\nvalue = [0, 0, 0, 0, 3, 7, 0, 0]"] ;
242 -> 248 ;
249 [label="X[3] <= 7.5\ngini = 0.2778\nsamples = 5\nvalue = [0, 0, 0, 0, 1, 5, 0, 0]"] ;
248 -> 249 ;
250 [label="X[1] <= 0.5\ngini = 0.32\nsamples = 4\nvalue = [0, 0, 0, 0, 1, 4, 0, 0]"] ;
249 -> 250 ;
251 [label="gini = 0.4444\nsamples = 2\nvalue = [0, 0, 0, 0, 1, 2, 0, 0]"] ;
250 -> 251 ;
252 [label="gini = 0.0\nsamples = 2\nvalue = [0, 0, 0, 0, 0, 2, 0, 0]"] ;
250 -> 252 ;
253 [label="gini = 0.0\nsamples = 1\nvalue = [0, 0, 0, 0, 0, 1, 0, 0]"] ;
249 -> 253 ;
254 [label="X[2] <= 5.5\ngini = 0.5\nsamples = 3\nvalue = [0, 0, 0, 0, 2, 2, 0, 0]"] ;
248 -> 254 ;
255 [label="gini = 0.4444\nsamples = 2\nvalue = [0, 0, 0, 0, 1, 2, 0, 0]"] ;
254 -> 255 ;
256 [label="gini = 0.0\nsamples = 1\nvalue = [0, 0, 0, 0, 1, 0, 0, 0]"] ;
254 -> 256 ;
257 [label="X[1] <= 1.0\ngini = 0.625\nsamples = 3\nvalue = [0, 0, 0, 1, 2, 1, 0, 0]"] ;
241 -> 257 ;
258 [label="gini = 0.0\nsamples = 1\nvalue = [0, 0, 0, 1, 0, 0, 0, 0]"] ;
257 -> 258 ;
259 [label="gini = 0.4444\nsamples = 2\nvalue = [0, 0, 0, 0, 2, 1, 0, 0]"] ;
257 -> 259 ;
260 [label="X[1] <= 1.5\ngini = 0.6786\nsamples = 43\nvalue = [0, 1, 6, 5, 31, 19, 4, 0]"] ;
192 -> 260 ;
261 [label="X[3] <= 8.5\ngini = 0.6994\nsamples = 30\nvalue = [0, 1, 2, 4, 17, 16, 4, 0]"] ;
260 -> 261 ;
262 [label="X[2] <= 6.5\ngini = 0.7063\nsamples = 29\nvalue = [0, 1, 2, 4, 15, 16, 4, 0]"] ;
261 -> 262 ;
263 [label="X[1] <= 0.5\ngini = 0.644\nsamples = 17\nvalue = [0, 0, 0, 2, 4, 11, 4, 0]"] ;
262 -> 263 ;
264 [label="X[3] <= 6.5\ngini = 0.6914\nsamples = 7\nvalue = [0, 0, 0, 2, 1, 2, 4, 0]"] ;
263 -> 264 ;
265 [label="gini = 0.0\nsamples = 1\nvalue = [0, 0, 0, 0, 0, 1, 0, 0]"] ;
264 -> 265 ;
266 [label="X[3] <= 7.5\ngini = 0.6562\nsamples = 6\nvalue = [0, 0, 0, 2, 1, 1, 4, 0]"] ;
264 -> 266 ;
267 [label="X[4] <= 4.0\ngini = 0.64\nsamples = 4\nvalue = [0, 0, 0, 2, 0, 1, 2, 0]"] ;
266 -> 267 ;
268 [label="X[2] <= 5.5\ngini = 0.4444\nsamples = 2\nvalue = [0, 0, 0, 1, 0, 0, 2, 0]"] ;
267 -> 268 ;
269 [label="gini = 0.0\nsamples = 1\nvalue = [0, 0, 0, 1, 0, 0, 0, 0]"] ;
268 -> 269 ;
270 [label="gini = 0.0\nsamples = 1\nvalue = [0, 0, 0, 0, 0, 0, 2, 0]"] ;
268 -> 270 ;
271 [label="X[2] <= 5.0\ngini = 0.5\nsamples = 2\nvalue = [0, 0, 0, 1, 0, 1, 0, 0]"] ;
267 -> 271 ;
272 [label="gini = 0.0\nsamples = 1\nvalue = [0, 0, 0, 0, 0, 1, 0, 0]"] ;
271 -> 272 ;
273 [label="gini = 0.0\nsamples = 1\nvalue = [0, 0, 0, 1, 0, 0, 0, 0]"] ;
271 -> 273 ;
274 [label="X[2] <= 5.5\ngini = 0.4444\nsamples = 2\nvalue = [0, 0, 0, 0, 1, 0, 2, 0]"] ;
266 -> 274 ;
275 [label="gini = 0.0\nsamples = 1\nvalue = [0, 0, 0, 0, 0, 0, 2, 0]"] ;
274 -> 275 ;
276 [label="gini = 0.0\nsamples = 1\nvalue = [0, 0, 0, 0, 1, 0, 0, 0]"] ;
274 -> 276 ;
277 [label="X[2] <= 5.5\ngini = 0.375\nsamples = 10\nvalue = [0, 0, 0, 0, 3, 9, 0, 0]"] ;
263 -> 277 ;
278 [label="gini = 0.0\nsamples = 2\nvalue = [0, 0, 0, 0, 0, 2, 0, 0]"] ;
277 -> 278 ;
279 [label="X[4] <= 3.5\ngini = 0.42\nsamples = 8\nvalue = [0, 0, 0, 0, 3, 7, 0, 0]"] ;
277 -> 279 ;
280 [label="gini = 0.5\nsamples = 2\nvalue = [0, 0, 0, 0, 1, 1, 0, 0]"] ;
279 -> 280 ;
281 [label="X[3] <= 6.5\ngini = 0.375\nsamples = 6\nvalue = [0, 0, 0, 0, 2, 6, 0, 0]"] ;
279 -> 281 ;
282 [label="gini = 0.0\nsamples = 3\nvalue = [0, 0, 0, 0, 0, 3, 0, 0]"] ;
281 -> 282 ;
283 [label="X[3] <= 7.5\ngini = 0.48\nsamples = 3\nvalue = [0, 0, 0, 0, 2, 3, 0, 0]"] ;
281 -> 283 ;
284 [label="gini = 0.4444\nsamples = 2\nvalue = [0, 0, 0, 0, 2, 1, 0, 0]"] ;
283 -> 284 ;
285 [label="gini = 0.0\nsamples = 1\nvalue = [0, 0, 0, 0, 0, 2, 0, 0]"] ;
283 -> 285 ;
286 [label="X[3] <= 7.5\ngini = 0.6485\nsamples = 12\nvalue = [0, 1, 2, 2, 11, 5, 0, 0]"] ;
262 -> 286 ;
287 [label="X[4] <= 3.5\ngini = 0.5124\nsamples = 7\nvalue = [0, 1, 0, 0, 7, 3, 0, 0]"] ;
286 -> 287 ;
288 [label="X[3] <= 6.5\ngini = 0.4444\nsamples = 2\nvalue = [0, 0, 0, 0, 1, 2, 0, 0]"] ;
287 -> 288 ;
289 [label="gini = 0.0\nsamples = 1\nvalue = [0, 0, 0, 0, 1, 0, 0, 0]"] ;
288 -> 289 ;
290 [label="gini = 0.0\nsamples = 1\nvalue = [0, 0, 0, 0, 0, 2, 0, 0]"] ;
288 -> 290 ;
291 [label="X[1] <= 0.5\ngini = 0.4062\nsamples = 5\nvalue = [0, 1, 0, 0, 6, 1, 0, 0]"] ;
287 -> 291 ;
292 [label="gini = 0.625\nsamples = 3\nvalue = [0, 1, 0, 0, 2, 1, 0, 0]"] ;
291 -> 292 ;
293 [label="gini = 0.0\nsamples = 2\nvalue = [0, 0, 0, 0, 4, 0, 0, 0]"] ;
291 -> 293 ;
294 [label="X[1] <= 0.5\ngini = 0.72\nsamples = 5\nvalue = [0, 0, 2, 2, 4, 2, 0, 0]"] ;
286 -> 294 ;
295 [label="gini = 0.0\nsamples = 2\nvalue = [0, 0, 0, 0, 4, 0, 0, 0]"] ;
294 -> 295 ;
296 [label="X[4] <= 4.5\ngini = 0.6667\nsamples = 3\nvalue = [0, 0, 2, 2, 0, 2, 0, 0]"] ;
294 -> 296 ;
297 [label="gini = 0.5\nsamples = 2\nvalue = [0, 0, 2, 0, 0, 2, 0, 0]"] ;
296 -> 297 ;
298 [label="gini = 0.0\nsamples = 1\nvalue = [0, 0, 0, 2, 0, 0, 0, 0]"] ;
296 -> 298 ;
299 [label="gini = 0.0\nsamples = 1\nvalue = [0, 0, 0, 0, 2, 0, 0, 0]"] ;
261 -> 299 ;
300 [label="X[2] <= 3.5\ngini = 0.5413\nsamples = 13\nvalue = [0, 0, 4, 1, 14, 3, 0, 0]"] ;
260 -> 300 ;
301 [label="gini = 0.0\nsamples = 1\nvalue = [0, 0, 0, 0, 3, 0, 0, 0]"] ;
300 -> 301 ;
302 [label="X[2] <= 5.5\ngini = 0.5928\nsamples = 12\nvalue = [0, 0, 4, 1, 11, 3, 0, 0]"] ;
300 -> 302 ;
303 [label="gini = 0.0\nsamples = 1\nvalue = [0, 0, 0, 0, 0, 1, 0, 0]"] ;
302 -> 303 ;
304 [label="X[2] <= 6.5\ngini = 0.5617\nsamples = 11\nvalue = [0, 0, 4, 1, 11, 2, 0, 0]"] ;
302 -> 304 ;
305 [label="X[3] <= 6.5\ngini = 0.625\nsamples = 6\nvalue = [0, 0, 2, 0, 4, 2, 0, 0]"] ;
304 -> 305 ;
306 [label="X[4] <= 3.5\ngini = 0.625\nsamples = 3\nvalue = [0, 0, 2, 0, 1, 1, 0, 0]"] ;
305 -> 306 ;
307 [label="gini = 0.0\nsamples = 1\nvalue = [0, 0, 2, 0, 0, 0, 0, 0]"] ;
306 -> 307 ;
308 [label="X[4] <= 4.5\ngini = 0.5\nsamples = 2\nvalue = [0, 0, 0, 0, 1, 1, 0, 0]"] ;
306 -> 308 ;
309 [label="gini = 0.0\nsamples = 1\nvalue = [0, 0, 0, 0, 1, 0, 0, 0]"] ;
308 -> 309 ;
310 [label="gini = 0.0\nsamples = 1\nvalue = [0, 0, 0, 0, 0, 1, 0, 0]"] ;
308 -> 310 ;
311 [label="X[4] <= 3.5\ngini = 0.375\nsamples = 3\nvalue = [0, 0, 0, 0, 3, 1, 0, 0]"] ;
305 -> 311 ;
312 [label="gini = 0.0\nsamples = 1\nvalue = [0, 0, 0, 0, 2, 0, 0, 0]"] ;
311 -> 312 ;
313 [label="X[4] <= 4.5\ngini = 0.5\nsamples = 2\nvalue = [0, 0, 0, 0, 1, 1, 0, 0]"] ;
311 -> 313 ;
314 [label="gini = 0.0\nsamples = 1\nvalue = [0, 0, 0, 0, 0, 1, 0, 0]"] ;
313 -> 314 ;
315 [label="gini = 0.0\nsamples = 1\nvalue = [0, 0, 0, 0, 1, 0, 0, 0]"] ;
313 -> 315 ;
316 [label="X[3] <= 7.5\ngini = 0.46\nsamples = 5\nvalue = [0, 0, 2, 1, 7, 0, 0, 0]"] ;
304 -> 316 ;
317 [label="X[4] <= 3.5\ngini = 0.2188\nsamples = 4\nvalue = [0, 0, 0, 1, 7, 0, 0, 0]"] ;
316 -> 317 ;
318 [label="gini = 0.0\nsamples = 2\nvalue = [0, 0, 0, 0, 6, 0, 0, 0]"] ;
317 -> 318 ;
319 [label="X[3] <= 6.5\ngini = 0.5\nsamples = 2\nvalue = [0, 0, 0, 1, 1, 0, 0, 0]"] ;
317 -> 319 ;
320 [label="gini = 0.0\nsamples = 1\nvalue = [0, 0, 0, 0, 1, 0, 0, 0]"] ;
319 -> 320 ;
321 [label="gini = 0.0\nsamples = 1\nvalue = [0, 0, 0, 1, 0, 0, 0, 0]"] ;
319 -> 321 ;
322 [label="gini = 0.0\nsamples = 1\nvalue = [0, 0, 2, 0, 0, 0, 0, 0]"] ;
316 -> 322 ;
323 [label="X[1] <= 1.5\ngini = 0.4444\nsamples = 5\nvalue = [0, 0, 0, 0, 3, 6, 0, 0]"] ;
191 -> 323 ;
324 [label="X[2] <= 6.5\ngini = 0.4688\nsamples = 4\nvalue = [0, 0, 0, 0, 3, 5, 0, 0]"] ;
323 -> 324 ;
325 [label="gini = 0.0\nsamples = 1\nvalue = [0, 0, 0, 0, 0, 2, 0, 0]"] ;
324 -> 325 ;
326 [label="X[1] <= 0.5\ngini = 0.5\nsamples = 3\nvalue = [0, 0, 0, 0, 3, 3, 0, 0]"] ;
324 -> 326 ;
327 [label="gini = 0.48\nsamples = 2\nvalue = [0, 0, 0, 0, 2, 3, 0, 0]"] ;
326 -> 327 ;
328 [label="gini = 0.0\nsamples = 1\nvalue = [0, 0, 0, 0, 1, 0, 0, 0]"] ;
326 -> 328 ;
329 [label="gini = 0.0\nsamples = 1\nvalue = [0, 0, 0, 0, 0, 1, 0, 0]"] ;
323 -> 329 ;
330 [label="X[4] <= 3.5\ngini = 0.2449\nsamples = 5\nvalue = [0, 0, 0, 0, 1, 6, 0, 0]"] ;
190 -> 330 ;
331 [label="gini = 0.0\nsamples = 1\nvalue = [0, 0, 0, 0, 1, 0, 0, 0]"] ;
330 -> 331 ;
332 [label="gini = 0.0\nsamples = 4\nvalue = [0, 0, 0, 0, 0, 6, 0, 0]"] ;
330 -> 332 ;
333 [label="X[2] <= 7.5\ngini = 0.1975\nsamples = 3\nvalue = [0, 0, 0, 0, 8, 1, 0, 0]"] ;
189 -> 333 ;
334 [label="gini = 0.0\nsamples = 1\nvalue = [0, 0, 0, 0, 0, 1, 0, 0]"] ;
333 -> 334 ;
335 [label="gini = 0.0\nsamples = 2\nvalue = [0, 0, 0, 0, 8, 0, 0, 0]"] ;
333 -> 335 ;
336 [label="X[4] <= 4.5\ngini = 0.6208\nsamples = 44\nvalue = [0, 3, 3, 3, 22, 30, 0, 0]"] ;
188 -> 336 ;
337 [label="X[4] <= 2.5\ngini = 0.6215\nsamples = 34\nvalue = [0, 3, 3, 3, 13, 26, 0, 0]"] ;
336 -> 337 ;
338 [label="X[4] <= 1.5\ngini = 0.6543\nsamples = 22\nvalue = [0, 1, 3, 2, 12, 14, 0, 0]"] ;
337 -> 338 ;
339 [label="X[4] <= 0.5\ngini = 0.635\nsamples = 20\nvalue = [0, 1, 3, 1, 10, 14, 0, 0]"] ;
338 -> 339 ;
340 [label="X[3] <= 6.5\ngini = 0.6173\nsamples = 6\nvalue = [0, 1, 0, 1, 2, 5, 0, 0]"] ;
339 -> 340 ;
341 [label="gini = 0.0\nsamples = 1\nvalue = [0, 0, 0, 0, 2, 0, 0, 0]"] ;
340 -> 341 ;
342 [label="X[3] <= 7.5\ngini = 0.449\nsamples = 5\nvalue = [0, 1, 0, 1, 0, 5, 0, 0]"] ;
340 -> 342 ;
343 [label="gini = 0.5\nsamples = 2\nvalue = [0, 0, 0, 1, 0, 1, 0, 0]"] ;
342 -> 343 ;
344 [label="X[2] <= 5.5\ngini = 0.32\nsamples = 3\nvalue = [0, 1, 0, 0, 0, 4, 0, 0]"] ;
342 -> 344 ;
345 [label="X[2] <= 4.5\ngini = 0.5\nsamples = 2\nvalue = [0, 1, 0, 0, 0, 1, 0, 0]"] ;
344 -> 345 ;
346 [label="gini = 0.0\nsamples = 1\nvalue = [0, 0, 0, 0, 0, 1, 0, 0]"] ;
345 -> 346 ;
347 [label="gini = 0.0\nsamples = 1\nvalue = [0, 1, 0, 0, 0, 0, 0, 0]"] ;
345 -> 347 ;
348 [label="gini = 0.0\nsamples = 1\nvalue = [0, 0, 0, 0, 0, 3, 0, 0]"] ;
344 -> 348 ;
349 [label="X[2] <= 5.5\ngini = 0.615\nsamples = 14\nvalue = [0, 0, 3, 0, 8, 9, 0, 0]"] ;
339 -> 349 ;
350 [label="X[3] <= 6.5\ngini = 0.5938\nsamples = 5\nvalue = [0, 0, 3, 0, 1, 4, 0, 0]"] ;
349 -> 350 ;
351 [label="gini = 0.0\nsamples = 1\nvalue = [0, 0, 3, 0, 0, 0, 0, 0]"] ;
350 -> 351 ;
352 [label="X[2] <= 3.5\ngini = 0.32\nsamples = 4\nvalue = [0, 0, 0, 0, 1, 4, 0, 0]"] ;
350 -> 352 ;
353 [label="gini = 0.0\nsamples = 1\nvalue = [0, 0, 0, 0, 1, 0, 0, 0]"] ;
352 -> 353 ;
354 [label="gini = 0.0\nsamples = 3\nvalue = [0, 0, 0, 0, 0, 4, 0, 0]"] ;
352 -> 354 ;
355 [label="X[2] <= 6.5\ngini = 0.4861\nsamples = 9\nvalue = [0, 0, 0, 0, 7, 5, 0, 0]"] ;
349 -> 355 ;
356 [label="X[3] <= 6.5\ngini = 0.4444\nsamples = 7\nvalue = [0, 0, 0, 0, 6, 3, 0, 0]"] ;
355 -> 356 ;
357 [label="gini = 0.0\nsamples = 2\nvalue = [0, 0, 0, 0, 3, 0, 0, 0]"] ;
356 -> 357 ;
358 [label="X[3] <= 7.5\ngini = 0.5\nsamples = 5\nvalue = [0, 0, 0, 0, 3, 3, 0, 0]"] ;
356 -> 358 ;
359 [label="gini = 0.4444\nsamples = 2\nvalue = [0, 0, 0, 0, 1, 2, 0, 0]"] ;
358 -> 359 ;
360 [label="gini = 0.4444\nsamples = 3\nvalue = [0, 0, 0, 0, 2, 1, 0, 0]"] ;
358 -> 360 ;
361 [label="gini = 0.4444\nsamples = 2\nvalue = [0, 0, 0, 0, 1, 2, 0, 0]"] ;
355 -> 361 ;
362 [label="X[2] <= 5.0\ngini = 0.4444\nsamples = 2\nvalue = [0, 0, 0, 1, 2, 0, 0, 0]"] ;
338 -> 362 ;
363 [label="gini = 0.0\nsamples = 1\nvalue = [0, 0, 0, 0, 2, 0, 0, 0]"] ;
362 -> 363 ;
364 [label="gini = 0.0\nsamples = 1\nvalue = [0, 0, 0, 1, 0, 0, 0, 0]"] ;
362 -> 364 ;
365 [label="X[2] <= 4.0\ngini = 0.4141\nsamples = 12\nvalue = [0, 2, 0, 1, 1, 12, 0, 0]"] ;
337 -> 365 ;
366 [label="gini = 0.0\nsamples = 1\nvalue = [0, 0, 0, 1, 0, 0, 0, 0]"] ;
365 -> 366 ;
367 [label="X[3] <= 7.5\ngini = 0.3378\nsamples = 11\nvalue = [0, 2, 0, 0, 1, 12, 0, 0]"] ;
365 -> 367 ;
368 [label="X[4] <= 3.5\ngini = 0.18\nsamples = 8\nvalue = [0, 0, 0, 0, 1, 9, 0, 0]"] ;
367 -> 368 ;
369 [label="gini = 0.0\nsamples = 4\nvalue = [0, 0, 0, 0, 0, 4, 0, 0]"] ;
368 -> 369 ;
370 [label="X[2] <= 6.5\ngini = 0.2778\nsamples = 4\nvalue = [0, 0, 0, 0, 1, 5, 0, 0]"] ;
368 -> 370 ;
371 [label="gini = 0.0\nsamples = 2\nvalue = [0, 0, 0, 0, 0, 4, 0, 0]"] ;
370 -> 371 ;
372 [label="X[2] <= 7.5\ngini = 0.5\nsamples = 2\nvalue = [0, 0, 0, 0, 1, 1, 0, 0]"] ;
370 -> 372 ;
373 [label="gini = 0.0\nsamples = 1\nvalue = [0, 0, 0, 0, 1, 0, 0, 0]"] ;
372 -> 373 ;
374 [label="gini = 0.0\nsamples = 1\nvalue = [0, 0, 0, 0, 0, 1, 0, 0]"] ;
372 -> 374 ;
375 [label="X[2] <= 6.5\ngini = 0.48\nsamples = 3\nvalue = [0, 2, 0, 0, 0, 3, 0, 0]"] ;
367 -> 375 ;
376 [label="gini = 0.0\nsamples = 1\nvalue = [0, 0, 0, 0, 0, 1, 0, 0]"] ;
375 -> 376 ;
377 [label="gini = 0.5\nsamples = 2\nvalue = [0, 2, 0, 0, 0, 2, 0, 0]"] ;
375 -> 377 ;
378 [label="X[3] <= 6.5\ngini = 0.426\nsamples = 10\nvalue = [0, 0, 0, 0, 9, 4, 0, 0]"] ;
336 -> 378 ;
379 [label="X[2] <= 6.5\ngini = 0.4628\nsamples = 8\nvalue = [0, 0, 0, 0, 7, 4, 0, 0]"] ;
378 -> 379 ;
380 [label="X[2] <= 5.5\ngini = 0.2778\nsamples = 3\nvalue = [0, 0, 0, 0, 5, 1, 0, 0]"] ;
379 -> 380 ;
381 [label="gini = 0.5\nsamples = 2\nvalue = [0, 0, 0, 0, 1, 1, 0, 0]"] ;
380 -> 381 ;
382 [label="gini = 0.0\nsamples = 1\nvalue = [0, 0, 0, 0, 4, 0, 0, 0]"] ;
380 -> 382 ;
383 [label="X[4] <= 5.5\ngini = 0.48\nsamples = 5\nvalue = [0, 0, 0, 0, 2, 3, 0, 0]"] ;
379 -> 383 ;
384 [label="gini = 0.0\nsamples = 1\nvalue = [0, 0, 0, 0, 0, 1, 0, 0]"] ;
383 -> 384 ;
385 [label="X[0] <= 0.5\ngini = 0.5\nsamples = 4\nvalue = [0, 0, 0, 0, 2, 2, 0, 0]"] ;
383 -> 385 ;
386 [label="gini = 0.0\nsamples = 1\nvalue = [0, 0, 0, 0, 1, 0, 0, 0]"] ;
385 -> 386 ;
387 [label="X[2] <= 8.5\ngini = 0.4444\nsamples = 3\nvalue = [0, 0, 0, 0, 1, 2, 0, 0]"] ;
385 -> 387 ;
388 [label="gini = 0.0\nsamples = 2\nvalue = [0, 0, 0, 0, 0, 2, 0, 0]"] ;
387 -> 388 ;
389 [label="gini = 0.0\nsamples = 1\nvalue = [0, 0, 0, 0, 1, 0, 0, 0]"] ;
387 -> 389 ;
390 [label="gini = 0.0\nsamples = 2\nvalue = [0, 0, 0, 0, 2, 0, 0, 0]"] ;
378 -> 390 ;
391 [label="X[4] <= 5.5\ngini = 0.7676\nsamples = 124\nvalue = [3, 7, 17, 17, 62, 62, 28, 2]"] ;
187 -> 391 ;
392 [label="X[2] <= 7.5\ngini = 0.7763\nsamples = 114\nvalue = [3, 7, 17, 15, 60, 47, 28, 2]"] ;
391 -> 392 ;
393 [label="X[3] <= 8.5\ngini = 0.7766\nsamples = 109\nvalue = [3, 7, 16, 15, 60, 41, 28, 2]"] ;
392 -> 393 ;
394 [label="X[3] <= 6.5\ngini = 0.7735\nsamples = 102\nvalue = [3, 7, 15, 13, 59, 36, 28, 2]"] ;
393 -> 394 ;
395 [label="X[4] <= 1.5\ngini = 0.7944\nsamples = 37\nvalue = [3, 0, 5, 6, 16, 17, 11, 2]"] ;
394 -> 395 ;
396 [label="X[1] <= 5.5\ngini = 0.8\nsamples = 8\nvalue = [3, 0, 2, 1, 1, 5, 1, 2]"] ;
395 -> 396 ;
397 [label="X[4] <= 0.5\ngini = 0.6942\nsamples = 6\nvalue = [3, 0, 0, 1, 1, 5, 1, 0]"] ;
396 -> 397 ;
398 [label="gini = 0.0\nsamples = 1\nvalue = [0, 0, 0, 0, 0, 2, 0, 0]"] ;
397 -> 398 ;
399 [label="X[1] <= 4.5\ngini = 0.7407\nsamples = 5\nvalue = [3, 0, 0, 1, 1, 3, 1, 0]"] ;
397 -> 399 ;
400 [label="X[2] <= 5.5\ngini = 0.56\nsamples = 3\nvalue = [0, 0, 0, 0, 1, 3, 1, 0]"] ;
399 -> 400 ;
401 [label="gini = 0.5\nsamples = 2\nvalue = [0, 0, 0, 0, 1, 0, 1, 0]"] ;
400 -> 401 ;
402 [label="gini = 0.0\nsamples = 1\nvalue = [0, 0, 0, 0, 0, 3, 0, 0]"] ;
400 -> 402 ;
403 [label="X[2] <= 5.5\ngini = 0.375\nsamples = 2\nvalue = [3, 0, 0, 1, 0, 0, 0, 0]"] ;
399 -> 403 ;
404 [label="gini = 0.0\nsamples = 1\nvalue = [0, 0, 0, 1, 0, 0, 0, 0]"] ;
403 -> 404 ;
405 [label="gini = 0.0\nsamples = 1\nvalue = [3, 0, 0, 0, 0, 0, 0, 0]"] ;
403 -> 405 ;
406 [label="X[2] <= 5.5\ngini = 0.5\nsamples = 2\nvalue = [0, 0, 2, 0, 0, 0, 0, 2]"] ;
396 -> 406 ;
407 [label="gini = 0.0\nsamples = 1\nvalue = [0, 0, 2, 0, 0, 0, 0, 0]"] ;
406 -> 407 ;
408 [label="gini = 0.0\nsamples = 1\nvalue = [0, 0, 0, 0, 0, 0, 0, 2]"] ;
406 -> 408 ;
409 [label="X[4] <= 3.5\ngini = 0.7516\nsamples = 29\nvalue = [0, 0, 3, 5, 15, 12, 10, 0]"] ;
395 -> 409 ;
410 [label="X[2] <= 4.5\ngini = 0.6505\nsamples = 12\nvalue = [0, 0, 3, 1, 9, 1, 3, 0]"] ;
409 -> 410 ;
411 [label="X[4] <= 2.5\ngini = 0.6939\nsamples = 4\nvalue = [0, 0, 1, 0, 2, 1, 3, 0]"] ;
410 -> 411 ;
412 [label="X[1] <= 4.5\ngini = 0.56\nsamples = 3\nvalue = [0, 0, 1, 0, 0, 1, 3, 0]"] ;
411 -> 412 ;
413 [label="gini = 0.375\nsamples = 2\nvalue = [0, 0, 0, 0, 0, 1, 3, 0]"] ;
412 -> 413 ;
414 [label="gini = 0.0\nsamples = 1\nvalue = [0, 0, 1, 0, 0, 0, 0, 0]"] ;
412 -> 414 ;
415 [label="gini = 0.0\nsamples = 1\nvalue = [0, 0, 0, 0, 2, 0, 0, 0]"] ;
411 -> 415 ;
416 [label="X[1] <= 5.5\ngini = 0.46\nsamples = 8\nvalue = [0, 0, 2, 1, 7, 0, 0, 0]"] ;
410 -> 416 ;
417 [label="X[4] <= 2.5\ngini = 0.4444\nsamples = 3\nvalue = [0, 0, 0, 1, 2, 0, 0, 0]"] ;
416 -> 417 ;
418 [label="gini = 0.0\nsamples = 2\nvalue = [0, 0, 0, 0, 2, 0, 0, 0]"] ;
417 -> 418 ;
419 [label="gini = 0.0\nsamples = 1\nvalue = [0, 0, 0, 1, 0, 0, 0, 0]"] ;
417 -> 419 ;
420 [label="X[2] <= 5.5\ngini = 0.4082\nsamples = 5\nvalue = [0, 0, 2, 0, 5, 0, 0, 0]"] ;
416 -> 420 ;
421 [label="X[4] <= 2.5\ngini = 0.4444\nsamples = 2\nvalue = [0, 0, 2, 0, 1, 0, 0, 0]"] ;
420 -> 421 ;
422 [label="gini = 0.0\nsamples = 1\nvalue = [0, 0, 2, 0, 0, 0, 0, 0]"] ;
421 -> 422 ;
423 [label="gini = 0.0\nsamples = 1\nvalue = [0, 0, 0, 0, 1, 0, 0, 0]"] ;
421 -> 423 ;
424 [label="gini = 0.0\nsamples = 3\nvalue = [0, 0, 0, 0, 4, 0, 0, 0]"] ;
420 -> 424 ;
425 [label="X[2] <= 6.5\ngini = 0.7168\nsamples = 17\nvalue = [0, 0, 0, 4, 6, 11, 7, 0]"] ;
409 -> 425 ;
426 [label="X[4] <= 4.5\ngini = 0.5813\nsamples = 11\nvalue = [0, 0, 0, 1, 2, 10, 4, 0]"] ;
425 -> 426 ;
427 [label="X[2] <= 5.5\ngini = 0.6116\nsamples = 7\nvalue = [0, 0, 0, 1, 1, 6, 3, 0]"] ;
426 -> 427 ;
428 [label="gini = 0.0\nsamples = 1\nvalue = [0, 0, 0, 0, 1, 0, 0, 0]"] ;
427 -> 428 ;
429 [label="X[1] <= 5.5\ngini = 0.54\nsamples = 6\nvalue = [0, 0, 0, 1, 0, 6, 3, 0]"] ;
427 -> 429 ;
430 [label="X[1] <= 4.5\ngini = 0.56\nsamples = 4\nvalue = [0, 0, 0, 1, 0, 1, 3, 0]"] ;
429 -> 430 ;
431 [label="gini = 0.0\nsamples = 1\nvalue = [0, 0, 0, 0, 0, 0, 2, 0]"] ;
430 -> 431 ;
432 [label="gini = 0.6667\nsamples = 3\nvalue = [0, 0, 0, 1, 0, 1, 1, 0]"] ;
430 -> 432 ;
433 [label="gini = 0.0\nsamples = 2\nvalue = [0, 0, 0, 0, 0, 5, 0, 0]"] ;
429 -> 433 ;
434 [label="X[2] <= 5.5\ngini = 0.5\nsamples = 4\nvalue = [0, 0, 0, 0, 1, 4, 1, 0]"] ;
426 -> 434 ;
435 [label="gini = 0.0\nsamples = 1\nvalue = [0, 0, 0, 0, 0, 2, 0, 0]"] ;
434 -> 435 ;
436 [label="X[1] <= 4.5\ngini = 0.625\nsamples = 3\nvalue = [0, 0, 0, 0, 1, 2, 1, 0]"] ;
434 -> 436 ;
437 [label="gini = 0.4444\nsamples = 2\nvalue = [0, 0, 0, 0, 1, 2, 0, 0]"] ;
436 -> 437 ;
438 [label="gini = 0.0\nsamples = 1\nvalue = [0, 0, 0, 0, 0, 0, 1, 0]"] ;
436 -> 438 ;
439 [label="X[4] <= 4.5\ngini = 0.7107\nsamples = 6\nvalue = [0, 0, 0, 3, 4, 1, 3, 0]"] ;
425 -> 439 ;
440 [label="X[1] <= 5.5\ngini = 0.4898\nsamples = 4\nvalue = [0, 0, 0, 3, 4, 0, 0, 0]"] ;
439 -> 440 ;
441 [label="X[1] <= 4.5\ngini = 0.4444\nsamples = 3\nvalue = [0, 0, 0, 2, 4, 0, 0, 0]"] ;
440 -> 441 ;
442 [label="gini = 0.5\nsamples = 2\nvalue = [0, 0, 0, 2, 2, 0, 0, 0]"] ;
441 -> 442 ;
443 [label="gini = 0.0\nsamples = 1\nvalue = [0, 0, 0, 0, 2, 0, 0, 0]"] ;
441 -> 443 ;
444 [label="gini = 0.0\nsamples = 1\nvalue = [0, 0, 0, 1, 0, 0, 0, 0]"] ;
440 -> 444 ;
445 [label="X[1] <= 5.0\ngini = 0.375\nsamples = 2\nvalue = [0, 0, 0, 0, 0, 1, 3, 0]"] ;
439 -> 445 ;
446 [label="gini = 0.0\nsamples = 1\nvalue = [0, 0, 0, 0, 0, 1, 0, 0]"] ;
445 -> 446 ;
447 [label="gini = 0.0\nsamples = 1\nvalue = [0, 0, 0, 0, 0, 0, 3, 0]"] ;
445 -> 447 ;
448 [label="X[4] <= 1.5\ngini = 0.7458\nsamples = 65\nvalue = [0, 7, 10, 7, 43, 19, 17, 0]"] ;
394 -> 448 ;
449 [label="X[3] <= 7.5\ngini = 0.7763\nsamples = 20\nvalue = [0, 7, 2, 2, 10, 7, 3, 0]"] ;
448 -> 449 ;
450 [label="X[4] <= 0.5\ngini = 0.7392\nsamples = 14\nvalue = [0, 1, 2, 2, 9, 4, 3, 0]"] ;
449 -> 450 ;
451 [label="X[1] <= 4.5\ngini = 0.7101\nsamples = 8\nvalue = [0, 0, 2, 2, 6, 2, 1, 0]"] ;
450 -> 451 ;
452 [label="X[2] <= 5.5\ngini = 0.625\nsamples = 3\nvalue = [0, 0, 0, 2, 0, 1, 1, 0]"] ;
451 -> 452 ;
453 [label="gini = 0.4444\nsamples = 2\nvalue = [0, 0, 0, 2, 0, 0, 1, 0]"] ;
452 -> 453 ;
454 [label="gini = 0.0\nsamples = 1\nvalue = [0, 0, 0, 0, 0, 1, 0, 0]"] ;
452 -> 454 ;
455 [label="X[2] <= 6.5\ngini = 0.4938\nsamples = 5\nvalue = [0, 0, 2, 0, 6, 1, 0, 0]"] ;
451 -> 455 ;
456 [label="X[2] <= 5.0\ngini = 0.2778\nsamples = 3\nvalue = [0, 0, 0, 0, 5, 1, 0, 0]"] ;
455 -> 456 ;
457 [label="gini = 0.0\nsamples = 1\nvalue = [0, 0, 0, 0, 4, 0, 0, 0]"] ;
456 -> 457 ;
458 [label="X[1] <= 5.5\ngini = 0.5\nsamples = 2\nvalue = [0, 0, 0, 0, 1, 1, 0, 0]"] ;
456 -> 458 ;
459 [label="gini = 0.0\nsamples = 1\nvalue = [0, 0, 0, 0, 1, 0, 0, 0]"] ;
458 -> 459 ;
460 [label="gini = 0.0\nsamples = 1\nvalue = [0, 0, 0, 0, 0, 1, 0, 0]"] ;
458 -> 460 ;
461 [label="gini = 0.4444\nsamples = 2\nvalue = [0, 0, 2, 0, 1, 0, 0, 0]"] ;
455 -> 461 ;
462 [label="X[2] <= 5.5\ngini = 0.7188\nsamples = 6\nvalue = [0, 1, 0, 0, 3, 2, 2, 0]"] ;
450 -> 462 ;
463 [label="gini = 0.0\nsamples = 2\nvalue = [0, 0, 0, 0, 2, 0, 0, 0]"] ;
462 -> 463 ;
464 [label="X[1] <= 4.5\ngini = 0.7222\nsamples = 4\nvalue = [0, 1, 0, 0, 1, 2, 2, 0]"] ;
462 -> 464 ;
465 [label="gini = 0.0\nsamples = 1\nvalue = [0, 0, 0, 0, 0, 2, 0, 0]"] ;
464 -> 465 ;
466 [label="X[1] <= 5.5\ngini = 0.625\nsamples = 3\nvalue = [0, 1, 0, 0, 1, 0, 2, 0]"] ;
464 -> 466 ;
467 [label="gini = 0.4444\nsamples = 2\nvalue = [0, 0, 0, 0, 1, 0, 2, 0]"] ;
466 -> 467 ;
468 [label="gini = 0.0\nsamples = 1\nvalue = [0, 1, 0, 0, 0, 0, 0, 0]"] ;
466 -> 468 ;
469 [label="X[1] <= 5.5\ngini = 0.54\nsamples = 6\nvalue = [0, 6, 0, 0, 1, 3, 0, 0]"] ;
449 -> 469 ;
470 [label="gini = 0.0\nsamples = 1\nvalue = [0, 0, 0, 0, 1, 0, 0, 0]"] ;
469 -> 470 ;
471 [label="X[2] <= 6.5\ngini = 0.4444\nsamples = 5\nvalue = [0, 6, 0, 0, 0, 3, 0, 0]"] ;
469 -> 471 ;
472 [label="X[2] <= 5.5\ngini = 0.2449\nsamples = 4\nvalue = [0, 6, 0, 0, 0, 1, 0, 0]"] ;
471 -> 472 ;
473 [label="gini = 0.0\nsamples = 2\nvalue = [0, 4, 0, 0, 0, 0, 0, 0]"] ;
472 -> 473 ;
474 [label="gini = 0.4444\nsamples = 2\nvalue = [0, 2, 0, 0, 0, 1, 0, 0]"] ;
472 -> 474 ;
475 [label="gini = 0.0\nsamples = 1\nvalue = [0, 0, 0, 0, 0, 2, 0, 0]"] ;
471 -> 475 ;
476 [label="X[1] <= 5.5\ngini = 0.7072\nsamples = 45\nvalue = [0, 0, 8, 5, 33, 12, 14, 0]"] ;
448 -> 476 ;
477 [label="X[2] <= 6.5\ngini = 0.749\nsamples = 34\nvalue = [0, 0, 6, 5, 20, 10, 12, 0]"] ;
476 -> 477 ;
478 [label="X[4] <= 4.5\ngini = 0.6971\nsamples = 25\nvalue = [0, 0, 3, 3, 16, 9, 4, 0]"] ;
477 -> 478 ;
479 [label="X[2] <= 4.5\ngini = 0.7044\nsamples = 21\nvalue = [0, 0, 3, 3, 14, 6, 4, 0]"] ;
478 -> 479 ;
480 [label="X[4] <= 2.5\ngini = 0.4444\nsamples = 3\nvalue = [0, 0, 0, 1, 2, 0, 0, 0]"] ;
479 -> 480 ;
481 [label="gini = 0.0\nsamples = 2\nvalue = [0, 0, 0, 0, 2, 0, 0, 0]"] ;
480 -> 481 ;
482 [label="gini = 0.0\nsamples = 1\nvalue = [0, 0, 0, 1, 0, 0, 0, 0]"] ;
480 -> 482 ;
483 [label="X[4] <= 2.5\ngini = 0.7133\nsamples = 18\nvalue = [0, 0, 3, 2, 12, 6, 4, 0]"] ;
479 -> 483 ;
484 [label="X[1] <= 4.5\ngini = 0.625\nsamples = 7\nvalue = [0, 0, 0, 0, 5, 5, 2, 0]"] ;
483 -> 484 ;
485 [label="X[3] <= 7.5\ngini = 0.625\nsamples = 3\nvalue = [0, 0, 0, 0, 1, 2, 1, 0]"] ;
484 -> 485 ;
486 [label="gini = 0.4444\nsamples = 2\nvalue = [0, 0, 0, 0, 0, 2, 1, 0]"] ;
485 -> 486 ;
487 [label="gini = 0.0\nsamples = 1\nvalue = [0, 0, 0, 0, 1, 0, 0, 0]"] ;
485 -> 487 ;
488 [label="X[2] <= 5.5\ngini = 0.5938\nsamples = 4\nvalue = [0, 0, 0, 0, 4, 3, 1, 0]"] ;
484 -> 488 ;
489 [label="gini = 0.6122\nsamples = 3\nvalue = [0, 0, 0, 0, 3, 3, 1, 0]"] ;
488 -> 489 ;
490 [label="gini = 0.0\nsamples = 1\nvalue = [0, 0, 0, 0, 1, 0, 0, 0]"] ;
488 -> 490 ;
491 [label="X[3] <= 7.5\ngini = 0.7022\nsamples = 11\nvalue = [0, 0, 3, 2, 7, 1, 2, 0]"] ;
483 -> 491 ;
492 [label="X[1] <= 4.5\ngini = 0.625\nsamples = 3\nvalue = [0, 0, 1, 2, 1, 0, 0, 0]"] ;
491 -> 492 ;
493 [label="gini = 0.0\nsamples = 1\nvalue = [0, 0, 0, 0, 1, 0, 0, 0]"] ;
492 -> 493 ;
494 [label="gini = 0.4444\nsamples = 2\nvalue = [0, 0, 1, 2, 0, 0, 0, 0]"] ;
492 -> 494 ;
495 [label="X[1] <= 4.5\ngini = 0.6281\nsamples = 8\nvalue = [0, 0, 2, 0, 6, 1, 2, 0]"] ;
491 -> 495 ;
496 [label="X[4] <= 3.5\ngini = 0.2778\nsamples = 4\nvalue = [0, 0, 0, 0, 5, 1, 0, 0]"] ;
495 -> 496 ;
497 [label="gini = 0.0\nsamples = 1\nvalue = [0, 0, 0, 0, 0, 1, 0, 0]"] ;
496 -> 497 ;
498 [label="gini = 0.0\nsamples = 3\nvalue = [0, 0, 0, 0, 5, 0, 0, 0]"] ;
496 -> 498 ;
499 [label="X[4] <= 3.5\ngini = 0.64\nsamples = 4\nvalue = [0, 0, 2, 0, 1, 0, 2, 0]"] ;
495 -> 499 ;
500 [label="X[2] <= 5.5\ngini = 0.5\nsamples = 2\nvalue = [0, 0, 1, 0, 1, 0, 0, 0]"] ;
499 -> 500 ;
501 [label="gini = 0.0\nsamples = 1\nvalue = [0, 0, 0, 0, 1, 0, 0, 0]"] ;
500 -> 501 ;
502 [label="gini = 0.0\nsamples = 1\nvalue = [0, 0, 1, 0, 0, 0, 0, 0]"] ;
500 -> 502 ;
503 [label="gini = 0.4444\nsamples = 2\nvalue = [0, 0, 1, 0, 0, 0, 2, 0]"] ;
499 -> 503 ;
504 [label="X[1] <= 4.5\ngini = 0.48\nsamples = 4\nvalue = [0, 0, 0, 0, 2, 3, 0, 0]"] ;
478 -> 504 ;
505 [label="X[3] <= 7.5\ngini = 0.5\nsamples = 2\nvalue = [0, 0, 0, 0, 1, 1, 0, 0]"] ;
504 -> 505 ;
506 [label="gini = 0.0\nsamples = 1\nvalue = [0, 0, 0, 0, 1, 0, 0, 0]"] ;
505 -> 506 ;
507 [label="gini = 0.0\nsamples = 1\nvalue = [0, 0, 0, 0, 0, 1, 0, 0]"] ;
505 -> 507 ;
508 [label="gini = 0.4444\nsamples = 2\nvalue = [0, 0, 0, 0, 1, 2, 0, 0]"] ;
504 -> 508 ;
509 [label="X[4] <= 2.5\ngini = 0.7099\nsamples = 9\nvalue = [0, 0, 3, 2, 4, 1, 8, 0]"] ;
477 -> 509 ;
510 [label="gini = 0.0\nsamples = 1\nvalue = [0, 0, 3, 0, 0, 0, 0, 0]"] ;
509 -> 510 ;
511 [label="X[0] <= 0.5\ngini = 0.6222\nsamples = 8\nvalue = [0, 0, 0, 2, 4, 1, 8, 0]"] ;
509 -> 511 ;
512 [label="X[1] <= 4.5\ngini = 0.602\nsamples = 7\nvalue = [0, 0, 0, 2, 3, 1, 8, 0]"] ;
511 -> 512 ;
513 [label="X[3] <= 7.5\ngini = 0.375\nsamples = 3\nvalue = [0, 0, 0, 1, 3, 0, 0, 0]"] ;
512 -> 513 ;
514 [label="X[4] <= 3.5\ngini = 0.4444\nsamples = 2\nvalue = [0, 0, 0, 1, 2, 0, 0, 0]"] ;
513 -> 514 ;
515 [label="gini = 0.0\nsamples = 1\nvalue = [0, 0, 0, 1, 0, 0, 0, 0]"] ;
514 -> 515 ;
516 [label="gini = 0.0\nsamples = 1\nvalue = [0, 0, 0, 0, 2, 0, 0, 0]"] ;
514 -> 516 ;
517 [label="gini = 0.0\nsamples = 1\nvalue = [0, 0, 0, 0, 1, 0, 0, 0]"] ;
513 -> 517 ;
518 [label="X[4] <= 3.5\ngini = 0.34\nsamples = 4\nvalue = [0, 0, 0, 1, 0, 1, 8, 0]"] ;
512 -> 518 ;
519 [label="gini = 0.0\nsamples = 1\nvalue = [0, 0, 0, 0, 0, 0, 3, 0]"] ;
518 -> 519 ;
520 [label="X[3] <= 7.5\ngini = 0.449\nsamples = 3\nvalue = [0, 0, 0, 1, 0, 1, 5, 0]"] ;
518 -> 520 ;
521 [label="X[4] <= 4.5\ngini = 0.5\nsamples = 2\nvalue = [0, 0, 0, 1, 0, 1, 0, 0]"] ;
520 -> 521 ;
522 [label="gini = 0.0\nsamples = 1\nvalue = [0, 0, 0, 0, 0, 1, 0, 0]"] ;
521 -> 522 ;
523 [label="gini = 0.0\nsamples = 1\nvalue = [0, 0, 0, 1, 0, 0, 0, 0]"] ;
521 -> 523 ;
524 [label="gini = 0.0\nsamples = 1\nvalue = [0, 0, 0, 0, 0, 0, 5, 0]"] ;
520 -> 524 ;
525 [label="gini = 0.0\nsamples = 1\nvalue = [0, 0, 0, 0, 1, 0, 0, 0]"] ;
511 -> 525 ;
526 [label="X[2] <= 6.5\ngini = 0.4986\nsamples = 11\nvalue = [0, 0, 2, 0, 13, 2, 2, 0]"] ;
476 -> 526 ;
527 [label="X[3] <= 7.5\ngini = 0.2604\nsamples = 8\nvalue = [0, 0, 0, 0, 11, 0, 2, 0]"] ;
526 -> 527 ;
528 [label="gini = 0.0\nsamples = 6\nvalue = [0, 0, 0, 0, 9, 0, 0, 0]"] ;
527 -> 528 ;
529 [label="X[2] <= 5.5\ngini = 0.5\nsamples = 2\nvalue = [0, 0, 0, 0, 2, 0, 2, 0]"] ;
527 -> 529 ;
530 [label="gini = 0.0\nsamples = 1\nvalue = [0, 0, 0, 0, 2, 0, 0, 0]"] ;
529 -> 530 ;
531 [label="gini = 0.0\nsamples = 1\nvalue = [0, 0, 0, 0, 0, 0, 2, 0]"] ;
529 -> 531 ;
532 [label="X[4] <= 3.0\ngini = 0.6667\nsamples = 3\nvalue = [0, 0, 2, 0, 2, 2, 0, 0]"] ;
526 -> 532 ;
533 [label="gini = 0.0\nsamples = 1\nvalue = [0, 0, 0, 0, 2, 0, 0, 0]"] ;
532 -> 533 ;
534 [label="X[4] <= 4.5\ngini = 0.5\nsamples = 2\nvalue = [0, 0, 2, 0, 0, 2, 0, 0]"] ;
532 -> 534 ;
535 [label="gini = 0.0\nsamples = 1\nvalue = [0, 0, 2, 0, 0, 0, 0, 0]"] ;
534 -> 535 ;
536 [label="gini = 0.0\nsamples = 1\nvalue = [0, 0, 0, 0, 0, 2, 0, 0]"] ;
534 -> 536 ;
537 [label="X[4] <= 3.5\ngini = 0.6173\nsamples = 7\nvalue = [0, 0, 1, 2, 1, 5, 0, 0]"] ;
393 -> 537 ;
538 [label="X[2] <= 3.5\ngini = 0.7222\nsamples = 5\nvalue = [0, 0, 1, 2, 1, 2, 0, 0]"] ;
537 -> 538 ;
539 [label="X[4] <= 0.5\ngini = 0.64\nsamples = 4\nvalue = [0, 0, 1, 2, 0, 2, 0, 0]"] ;
538 -> 539 ;
540 [label="gini = 0.0\nsamples = 2\nvalue = [0, 0, 0, 0, 0, 2, 0, 0]"] ;
539 -> 540 ;
541 [label="X[2] <= 2.5\ngini = 0.4444\nsamples = 2\nvalue = [0, 0, 1, 2, 0, 0, 0, 0]"] ;
539 -> 541 ;
542 [label="gini = 0.0\nsamples = 1\nvalue = [0, 0, 0, 2, 0, 0, 0, 0]"] ;
541 -> 542 ;
543 [label="gini = 0.0\nsamples = 1\nvalue = [0, 0, 1, 0, 0, 0, 0, 0]"] ;
541 -> 543 ;
544 [label="gini = 0.0\nsamples = 1\nvalue = [0, 0, 0, 0, 1, 0, 0, 0]"] ;
538 -> 544 ;
545 [label="gini = 0.0\nsamples = 2\nvalue = [0, 0, 0, 0, 0, 3, 0, 0]"] ;
537 -> 545 ;
546 [label="X[4] <= 2.5\ngini = 0.2449\nsamples = 5\nvalue = [0, 0, 1, 0, 0, 6, 0, 0]"] ;
392 -> 546 ;
547 [label="X[4] <= 1.5\ngini = 0.5\nsamples = 2\nvalue = [0, 0, 1, 0, 0, 1, 0, 0]"] ;
546 -> 547 ;
548 [label="gini = 0.0\nsamples = 1\nvalue = [0, 0, 0, 0, 0, 1, 0, 0]"] ;
547 -> 548 ;
549 [label="gini = 0.0\nsamples = 1\nvalue = [0, 0, 1, 0, 0, 0, 0, 0]"] ;
547 -> 549 ;
550 [label="gini = 0.0\nsamples = 3\nvalue = [0, 0, 0, 0, 0, 5, 0, 0]"] ;
546 -> 550 ;
551 [label="X[2] <= 6.5\ngini = 0.3546\nsamples = 10\nvalue = [0, 0, 0, 2, 2, 15, 0, 0]"] ;
391 -> 551 ;
552 [label="gini = 0.0\nsamples = 1\nvalue = [0, 0, 0, 0, 1, 0, 0, 0]"] ;
551 -> 552 ;
553 [label="X[2] <= 8.0\ngini = 0.2901\nsamples = 9\nvalue = [0, 0, 0, 2, 1, 15, 0, 0]"] ;
551 -> 553 ;
554 [label="X[3] <= 6.5\ngini = 0.2076\nsamples = 8\nvalue = [0, 0, 0, 2, 0, 15, 0, 0]"] ;
553 -> 554 ;
555 [label="X[1] <= 5.5\ngini = 0.2975\nsamples = 6\nvalue = [0, 0, 0, 2, 0, 9, 0, 0]"] ;
554 -> 555 ;
556 [label="gini = 0.0\nsamples = 3\nvalue = [0, 0, 0, 0, 0, 5, 0, 0]"] ;
555 -> 556 ;
557 [label="gini = 0.4444\nsamples = 3\nvalue = [0, 0, 0, 2, 0, 4, 0, 0]"] ;
555 -> 557 ;
558 [label="gini = 0.0\nsamples = 2\nvalue = [0, 0, 0, 0, 0, 6, 0, 0]"] ;
554 -> 558 ;
559 [label="gini = 0.0\nsamples = 1\nvalue = [0, 0, 0, 0, 1, 0, 0, 0]"] ;
553 -> 559 ;
560 [label="X[4] <= 7.5\ngini = 0.5706\nsamples = 33\nvalue = [0, 1, 4, 5, 11, 33, 0, 0]"] ;
28 -> 560 ;
561 [label="X[1] <= 4.5\ngini = 0.5408\nsamples = 26\nvalue = [0, 0, 4, 2, 10, 27, 0, 0]"] ;
560 -> 561 ;
562 [label="X[1] <= 0.5\ngini = 0.4076\nsamples = 23\nvalue = [0, 0, 1, 0, 9, 27, 0, 0]"] ;
561 -> 562 ;
563 [label="X[0] <= 0.5\ngini = 0.2449\nsamples = 7\nvalue = [0, 0, 0, 0, 2, 12, 0, 0]"] ;
562 -> 563 ;
564 [label="gini = 0.0\nsamples = 1\nvalue = [0, 0, 0, 0, 1, 0, 0, 0]"] ;
563 -> 564 ;
565 [label="X[3] <= 5.5\ngini = 0.142\nsamples = 6\nvalue = [0, 0, 0, 0, 1, 12, 0, 0]"] ;
563 -> 565 ;
566 [label="gini = 0.0\nsamples = 4\nvalue = [0, 0, 0, 0, 0, 10, 0, 0]"] ;
565 -> 566 ;
567 [label="gini = 0.4444\nsamples = 2\nvalue = [0, 0, 0, 0, 1, 2, 0, 0]"] ;
565 -> 567 ;
568 [label="X[3] <= 4.5\ngini = 0.4802\nsamples = 16\nvalue = [0, 0, 1, 0, 7, 15, 0, 0]"] ;
562 -> 568 ;
569 [label="gini = 0.0\nsamples = 1\nvalue = [0, 0, 0, 0, 2, 0, 0, 0]"] ;
568 -> 569 ;
570 [label="X[0] <= 0.5\ngini = 0.4308\nsamples = 15\nvalue = [0, 0, 1, 0, 5, 15, 0, 0]"] ;
568 -> 570 ;
571 [label="X[1] <= 2.0\ngini = 0.2449\nsamples = 4\nvalue = [0, 0, 0, 0, 1, 6, 0, 0]"] ;
570 -> 571 ;
572 [label="gini = 0.0\nsamples = 1\nvalue = [0, 0, 0, 0, 0, 3, 0, 0]"] ;
571 -> 572 ;
573 [label="X[2] <= 7.0\ngini = 0.375\nsamples = 3\nvalue = [0, 0, 0, 0, 1, 3, 0, 0]"] ;
571 -> 573 ;
574 [label="X[3] <= 6.5\ngini = 0.5\nsamples = 2\nvalue = [0, 0, 0, 0, 1, 1, 0, 0]"] ;
573 -> 574 ;
575 [label="gini = 0.0\nsamples = 1\nvalue = [0, 0, 0, 0, 1, 0, 0, 0]"] ;
574 -> 575 ;
576 [label="gini = 0.0\nsamples = 1\nvalue = [0, 0, 0, 0, 0, 1, 0, 0]"] ;
574 -> 576 ;
577 [label="gini = 0.0\nsamples = 1\nvalue = [0, 0, 0, 0, 0, 2, 0, 0]"] ;
573 -> 577 ;
578 [label="X[1] <= 1.5\ngini = 0.5\nsamples = 11\nvalue = [0, 0, 1, 0, 4, 9, 0, 0]"] ;
570 -> 578 ;
579 [label="gini = 0.0\nsamples = 1\nvalue = [0, 0, 0, 0, 0, 1, 0, 0]"] ;
578 -> 579 ;
580 [label="X[2] <= 7.5\ngini = 0.5207\nsamples = 10\nvalue = [0, 0, 1, 0, 4, 8, 0, 0]"] ;
578 -> 580 ;
581 [label="gini = 0.0\nsamples = 3\nvalue = [0, 0, 0, 0, 0, 5, 0, 0]"] ;
580 -> 581 ;
582 [label="X[2] <= 9.5\ngini = 0.5938\nsamples = 7\nvalue = [0, 0, 1, 0, 4, 3, 0, 0]"] ;
580 -> 582 ;
583 [label="X[1] <= 3.0\ngini = 0.4444\nsamples = 5\nvalue = [0, 0, 0, 0, 4, 2, 0, 0]"] ;
582 -> 583 ;
584 [label="X[3] <= 5.5\ngini = 0.32\nsamples = 4\nvalue = [0, 0, 0, 0, 4, 1, 0, 0]"] ;
583 -> 584 ;
585 [label="X[2] <= 8.5\ngini = 0.4444\nsamples = 3\nvalue = [0, 0, 0, 0, 2, 1, 0, 0]"] ;
584 -> 585 ;
586 [label="gini = 0.0\nsamples = 1\nvalue = [0, 0, 0, 0, 1, 0, 0, 0]"] ;
585 -> 586 ;
587 [label="gini = 0.5\nsamples = 2\nvalue = [0, 0, 0, 0, 1, 1, 0, 0]"] ;
585 -> 587 ;
588 [label="gini = 0.0\nsamples = 1\nvalue = [0, 0, 0, 0, 2, 0, 0, 0]"] ;
584 -> 588 ;
589 [label="gini = 0.0\nsamples = 1\nvalue = [0, 0, 0, 0, 0, 1, 0, 0]"] ;
583 -> 589 ;
590 [label="X[3] <= 5.5\ngini = 0.5\nsamples = 2\nvalue = [0, 0, 1, 0, 0, 1, 0, 0]"] ;
582 -> 590 ;
591 [label="gini = 0.0\nsamples = 1\nvalue = [0, 0, 1, 0, 0, 0, 0, 0]"] ;
590 -> 591 ;
592 [label="gini = 0.0\nsamples = 1\nvalue = [0, 0, 0, 0, 0, 1, 0, 0]"] ;
590 -> 592 ;
593 [label="X[0] <= 0.5\ngini = 0.6111\nsamples = 3\nvalue = [0, 0, 3, 2, 1, 0, 0, 0]"] ;
561 -> 593 ;
594 [label="X[3] <= 5.5\ngini = 0.375\nsamples = 2\nvalue = [0, 0, 3, 0, 1, 0, 0, 0]"] ;
593 -> 594 ;
595 [label="gini = 0.0\nsamples = 1\nvalue = [0, 0, 3, 0, 0, 0, 0, 0]"] ;
594 -> 595 ;
596 [label="gini = 0.0\nsamples = 1\nvalue = [0, 0, 0, 0, 1, 0, 0, 0]"] ;
594 -> 596 ;
597 [label="gini = 0.0\nsamples = 1\nvalue = [0, 0, 0, 2, 0, 0, 0, 0]"] ;
593 -> 597 ;
598 [label="X[1] <= 5.5\ngini = 0.6116\nsamples = 7\nvalue = [0, 1, 0, 3, 1, 6, 0, 0]"] ;
560 -> 598 ;
599 [label="X[1] <= 3.0\ngini = 0.2449\nsamples = 5\nvalue = [0, 0, 0, 0, 1, 6, 0, 0]"] ;
598 -> 599 ;
600 [label="gini = 0.0\nsamples = 2\nvalue = [0, 0, 0, 0, 0, 3, 0, 0]"] ;
599 -> 600 ;
601 [label="X[3] <= 5.5\ngini = 0.375\nsamples = 3\nvalue = [0, 0, 0, 0, 1, 3, 0, 0]"] ;
599 -> 601 ;
602 [label="X[1] <= 4.5\ngini = 0.5\nsamples = 2\nvalue = [0, 0, 0, 0, 1, 1, 0, 0]"] ;
601 -> 602 ;
603 [label="gini = 0.0\nsamples = 1\nvalue = [0, 0, 0, 0, 1, 0, 0, 0]"] ;
602 -> 603 ;
604 [label="gini = 0.0\nsamples = 1\nvalue = [0, 0, 0, 0, 0, 1, 0, 0]"] ;
602 -> 604 ;
605 [label="gini = 0.0\nsamples = 1\nvalue = [0, 0, 0, 0, 0, 2, 0, 0]"] ;
601 -> 605 ;
606 [label="X[0] <= 0.5\ngini = 0.375\nsamples = 2\nvalue = [0, 1, 0, 3, 0, 0, 0, 0]"] ;
598 -> 606 ;
607 [label="gini = 0.0\nsamples = 1\nvalue = [0, 1, 0, 0, 0, 0, 0, 0]"] ;
606 -> 607 ;
608 [label="gini = 0.0\nsamples = 1\nvalue = [0, 0, 0, 3, 0, 0, 0, 0]"] ;
606 -> 608 ;
}