digraph Tree {
node [shape=box] ;
0 [label="X[1] <= 4.5\ngini = 0.6573\nsamples = 466\nvalue = [3, 16, 45, 43, 291, 310, 27, 1]"] ;
1 [label="X[3] <= 4.5\ngini = 0.579\nsamples = 328\nvalue = [0, 5, 12, 20, 230, 250, 8, 0]"] ;
0 -> 1 [labeldistance=2.5, labelangle=45, headlabel="True"] ;
2 [label="X[1] <= 0.5\ngini = 0.5031\nsamples = 63\nvalue = [0, 1, 0, 3, 33, 63, 1, 0]"] ;
1 -> 2 ;
3 [label="X[4] <= 2.5\ngini = 0.4537\nsamples = 13\nvalue = [0, 0, 0, 0, 15, 8, 0, 0]"] ;
2 -> 3 ;
4 [label="X[4] <= 1.5\ngini = 0.1653\nsamples = 6\nvalue = [0, 0, 0, 0, 10, 1, 0, 0]"] ;
3 -> 4 ;
5 [label="gini = 0.0\nsamples = 2\nvalue = [0, 0, 0, 0, 5, 0, 0, 0]"] ;
4 -> 5 ;
6 [label="X[2] <= 6.5\ngini = 0.2778\nsamples = 4\nvalue = [0, 0, 0, 0, 5, 1, 0, 0]"] ;
4 -> 6 ;
7 [label="X[3] <= 3.5\ngini = 0.375\nsamples = 3\nvalue = [0, 0, 0, 0, 3, 1, 0, 0]"] ;
6 -> 7 ;
8 [label="gini = 0.4444\nsamples = 2\nvalue = [0, 0, 0, 0, 2, 1, 0, 0]"] ;
7 -> 8 ;
9 [label="gini = 0.0\nsamples = 1\nvalue = [0, 0, 0, 0, 1, 0, 0, 0]"] ;
7 -> 9 ;
10 [label="gini = 0.0\nsamples = 1\nvalue = [0, 0, 0, 0, 2, 0, 0, 0]"] ;
6 -> 10 ;
11 [label="X[2] <= 7.5\ngini = 0.4861\nsamples = 7\nvalue = [0, 0, 0, 0, 5, 7, 0, 0]"] ;
3 -> 11 ;
12 [label="X[4] <= 4.0\ngini = 0.32\nsamples = 4\nvalue = [0, 0, 0, 0, 4, 1, 0, 0]"] ;
11 -> 12 ;
13 [label="gini = 0.0\nsamples = 1\nvalue = [0, 0, 0, 0, 0, 1, 0, 0]"] ;
12 -> 13 ;
14 [label="gini = 0.0\nsamples = 3\nvalue = [0, 0, 0, 0, 4, 0, 0, 0]"] ;
12 -> 14 ;
15 [label="X[4] <= 4.5\ngini = 0.2449\nsamples = 3\nvalue = [0, 0, 0, 0, 1, 6, 0, 0]"] ;
11 -> 15 ;
16 [label="gini = 0.0\nsamples = 1\nvalue = [0, 0, 0, 0, 1, 0, 0, 0]"] ;
15 -> 16 ;
17 [label="gini = 0.0\nsamples = 2\nvalue = [0, 0, 0, 0, 0, 6, 0, 0]"] ;
15 -> 17 ;
18 [label="X[3] <= 2.5\ngini = 0.4477\nsamples = 50\nvalue = [0, 1, 0, 3, 18, 55, 1, 0]"] ;
2 -> 18 ;
19 [label="gini = 0.0\nsamples = 3\nvalue = [0, 0, 0, 0, 0, 6, 0, 0]"] ;
18 -> 19 ;
20 [label="X[1] <= 2.5\ngini = 0.4722\nsamples = 47\nvalue = [0, 1, 0, 3, 18, 49, 1, 0]"] ;
18 -> 20 ;
21 [label="X[0] <= 0.5\ngini = 0.5076\nsamples = 24\nvalue = [0, 0, 0, 2, 13, 24, 0, 0]"] ;
20 -> 21 ;
22 [label="X[1] <= 1.5\ngini = 0.4928\nsamples = 15\nvalue = [0, 0, 0, 0, 11, 14, 0, 0]"] ;
21 -> 22 ;
23 [label="X[2] <= 4.5\ngini = 0.497\nsamples = 7\nvalue = [0, 0, 0, 0, 7, 6, 0, 0]"] ;
22 -> 23 ;
24 [label="gini = 0.0\nsamples = 3\nvalue = [0, 0, 0, 0, 7, 0, 0, 0]"] ;
23 -> 24 ;
25 [label="gini = 0.0\nsamples = 4\nvalue = [0, 0, 0, 0, 0, 6, 0, 0]"] ;
23 -> 25 ;
26 [label="X[2] <= 5.5\ngini = 0.4444\nsamples = 8\nvalue = [0, 0, 0, 0, 4, 8, 0, 0]"] ;
22 -> 26 ;
27 [label="gini = 0.0\nsamples = 2\nvalue = [0, 0, 0, 0, 0, 4, 0, 0]"] ;
26 -> 27 ;
28 [label="X[3] <= 3.5\ngini = 0.5\nsamples = 6\nvalue = [0, 0, 0, 0, 4, 4, 0, 0]"] ;
26 -> 28 ;
29 [label="gini = 0.0\nsamples = 1\nvalue = [0, 0, 0, 0, 0, 1, 0, 0]"] ;
28 -> 29 ;
30 [label="X[4] <= 3.5\ngini = 0.4898\nsamples = 5\nvalue = [0, 0, 0, 0, 4, 3, 0, 0]"] ;
28 -> 30 ;
31 [label="X[4] <= 1.5\ngini = 0.32\nsamples = 4\nvalue = [0, 0, 0, 0, 4, 1, 0, 0]"] ;
30 -> 31 ;
32 [label="gini = 0.0\nsamples = 1\nvalue = [0, 0, 0, 0, 1, 0, 0, 0]"] ;
31 -> 32 ;
33 [label="X[2] <= 6.5\ngini = 0.375\nsamples = 3\nvalue = [0, 0, 0, 0, 3, 1, 0, 0]"] ;
31 -> 33 ;
34 [label="gini = 0.0\nsamples = 1\nvalue = [0, 0, 0, 0, 2, 0, 0, 0]"] ;
33 -> 34 ;
35 [label="X[2] <= 7.5\ngini = 0.5\nsamples = 2\nvalue = [0, 0, 0, 0, 1, 1, 0, 0]"] ;
33 -> 35 ;
36 [label="gini = 0.0\nsamples = 1\nvalue = [0, 0, 0, 0, 0, 1, 0, 0]"] ;
35 -> 36 ;
37 [label="gini = 0.0\nsamples = 1\nvalue = [0, 0, 0, 0, 1, 0, 0, 0]"] ;
35 -> 37 ;
38 [label="gini = 0.0\nsamples = 1\nvalue = [0, 0, 0, 0, 0, 2, 0, 0]"] ;
30 -> 38 ;
39 [label="X[4] <= 6.5\ngini = 0.449\nsamples = 9\nvalue = [0, 0, 0, 2, 2, 10, 0, 0]"] ;
21 -> 39 ;
40 [label="X[4] <= 5.5\ngini = 0.625\nsamples = 7\nvalue = [0, 0, 0, 2, 2, 4, 0, 0]"] ;
39 -> 40 ;
41 [label="X[3] <= 3.5\ngini = 0.4444\nsamples = 6\nvalue = [0, 0, 0, 0, 2, 4, 0, 0]"] ;
40 -> 41 ;
42 [label="gini = 0.0\nsamples = 1\nvalue = [0, 0, 0, 0, 0, 1, 0, 0]"] ;
41 -> 42 ;
43 [label="X[4] <= 4.5\ngini = 0.48\nsamples = 5\nvalue = [0, 0, 0, 0, 2, 3, 0, 0]"] ;
41 -> 43 ;
44 [label="gini = 0.0\nsamples = 1\nvalue = [0, 0, 0, 0, 0, 1, 0, 0]"] ;
43 -> 44 ;
45 [label="X[2] <= 8.0\ngini = 0.5\nsamples = 4\nvalue = [0, 0, 0, 0, 2, 2, 0, 0]"] ;
43 -> 45 ;
46 [label="gini = 0.4444\nsamples = 3\nvalue = [0, 0, 0, 0, 2, 1, 0, 0]"] ;
45 -> 46 ;
47 [label="gini = 0.0\nsamples = 1\nvalue = [0, 0, 0, 0, 0, 1, 0, 0]"] ;
45 -> 47 ;
48 [label="gini = 0.0\nsamples = 1\nvalue = [0, 0, 0, 2, 0, 0, 0, 0]"] ;
40 -> 48 ;
49 [label="gini = 0.0\nsamples = 2\nvalue = [0, 0, 0, 0, 0, 6, 0, 0]"] ;
39 -> 49 ;
50 [label="X[3] <= 3.5\ngini = 0.4004\nsamples = 23\nvalue = [0, 1, 0, 1, 5, 25, 1, 0]"] ;
20 -> 50 ;
51 [label="X[4] <= 3.5\ngini = 0.5124\nsamples = 8\nvalue = [0, 0, 0, 0, 3, 7, 1, 0]"] ;
50 -> 51 ;
52 [label="X[1] <= 3.5\ngini = 0.6122\nsamples = 5\nvalue = [0, 0, 0, 0, 3, 3, 1, 0]"] ;
51 -> 52 ;
53 [label="gini = 0.0\nsamples = 3\nvalue = [0, 0, 0, 0, 0, 3, 0, 0]"] ;
52 -> 53 ;
54 [label="gini = 0.375\nsamples = 2\nvalue = [0, 0, 0, 0, 3, 0, 1, 0]"] ;
52 -> 54 ;
55 [label="gini = 0.0\nsamples = 3\nvalue = [0, 0, 0, 0, 0, 4, 0, 0]"] ;
51 -> 55 ;
56 [label="X[0] <= 0.5\ngini = 0.3182\nsamples = 15\nvalue = [0, 1, 0, 1, 2, 18, 0, 0]"] ;
50 -> 56 ;
57 [label="X[2] <= 4.5\ngini = 0.3281\nsamples = 12\nvalue = [0, 1, 0, 1, 1, 13, 0, 0]"] ;
56 -> 57 ;
58 [label="X[4] <= 0.5\ngini = 0.6667\nsamples = 3\nvalue = [0, 1, 0, 1, 0, 1, 0, 0]"] ;
57 -> 58 ;
59 [label="gini = 0.0\nsamples = 1\nvalue = [0, 0, 0, 1, 0, 0, 0, 0]"] ;
58 -> 59 ;
60 [label="X[2] <= 3.5\ngini = 0.5\nsamples = 2\nvalue = [0, 1, 0, 0, 0, 1, 0, 0]"] ;
58 -> 60 ;
61 [label="gini = 0.0\nsamples = 1\nvalue = [0, 0, 0, 0, 0, 1, 0, 0]"] ;
60 -> 61 ;
62 [label="gini = 0.0\nsamples = 1\nvalue = [0, 1, 0, 0, 0, 0, 0, 0]"] ;
60 -> 62 ;
63 [label="X[4] <= 0.5\ngini = 0.142\nsamples = 9\nvalue = [0, 0, 0, 0, 1, 12, 0, 0]"] ;
57 -> 63 ;
64 [label="gini = 0.0\nsamples = 5\nvalue = [0, 0, 0, 0, 0, 8, 0, 0]"] ;
63 -> 64 ;
65 [label="X[2] <= 6.0\ngini = 0.32\nsamples = 4\nvalue = [0, 0, 0, 0, 1, 4, 0, 0]"] ;
63 -> 65 ;
66 [label="gini = 0.0\nsamples = 1\nvalue = [0, 0, 0, 0, 0, 2, 0, 0]"] ;
65 -> 66 ;
67 [label="X[4] <= 2.5\ngini = 0.4444\nsamples = 3\nvalue = [0, 0, 0, 0, 1, 2, 0, 0]"] ;
65 -> 67 ;
68 [label="gini = 0.5\nsamples = 2\nvalue = [0, 0, 0, 0, 1, 1, 0, 0]"] ;
67 -> 68 ;
69 [label="gini = 0.0\nsamples = 1\nvalue = [0, 0, 0, 0, 0, 1, 0, 0]"] ;
67 -> 69 ;
70 [label="X[4] <= 4.5\ngini = 0.2778\nsamples = 3\nvalue = [0, 0, 0, 0, 1, 5, 0, 0]"] ;
56 -> 70 ;
71 [label="gini = 0.0\nsamples = 1\nvalue = [0, 0, 0, 0, 1, 0, 0, 0]"] ;
70 -> 71 ;
72 [label="gini = 0.0\nsamples = 2\nvalue = [0, 0, 0, 0, 0, 5, 0, 0]"] ;
70 -> 72 ;
73 [label="X[3] <= 9.5\ngini = 0.5868\nsamples = 265\nvalue = [0, 4, 12, 17, 197, 187, 7, 0]"] ;
1 -> 73 ;
74 [label="X[4] <= 1.5\ngini = 0.5872\nsamples = 264\nvalue = [0, 4, 12, 17, 197, 184, 7, 0]"] ;
73 -> 74 ;
75 [label="X[4] <= 0.5\ngini = 0.6205\nsamples = 65\nvalue = [0, 3, 8, 2, 47, 28, 2, 0]"] ;
74 -> 75 ;
76 [label="X[1] <= 3.5\ngini = 0.6955\nsamples = 25\nvalue = [0, 3, 4, 1, 15, 10, 1, 0]"] ;
75 -> 76 ;
77 [label="X[1] <= 1.5\ngini = 0.6944\nsamples = 18\nvalue = [0, 3, 2, 0, 9, 9, 1, 0]"] ;
76 -> 77 ;
78 [label="X[1] <= 0.5\ngini = 0.6528\nsamples = 9\nvalue = [0, 0, 2, 0, 6, 3, 1, 0]"] ;
77 -> 78 ;
79 [label="X[2] <= 4.5\ngini = 0.62\nsamples = 7\nvalue = [0, 0, 2, 0, 5, 3, 0, 0]"] ;
78 -> 79 ;
80 [label="X[3] <= 7.0\ngini = 0.5\nsamples = 3\nvalue = [0, 0, 2, 0, 2, 0, 0, 0]"] ;
79 -> 80 ;
81 [label="gini = 0.0\nsamples = 1\nvalue = [0, 0, 2, 0, 0, 0, 0, 0]"] ;
80 -> 81 ;
82 [label="gini = 0.0\nsamples = 2\nvalue = [0, 0, 0, 0, 2, 0, 0, 0]"] ;
80 -> 82 ;
83 [label="X[3] <= 6.5\ngini = 0.5\nsamples = 4\nvalue = [0, 0, 0, 0, 3, 3, 0, 0]"] ;
79 -> 83 ;
84 [label="gini = 0.0\nsamples = 1\nvalue = [0, 0, 0, 0, 2, 0, 0, 0]"] ;
83 -> 84 ;
85 [label="X[3] <= 7.5\ngini = 0.375\nsamples = 3\nvalue = [0, 0, 0, 0, 1, 3, 0, 0]"] ;
83 -> 85 ;
86 [label="gini = 0.0\nsamples = 1\nvalue = [0, 0, 0, 0, 0, 1, 0, 0]"] ;
85 -> 86 ;
87 [label="gini = 0.4444\nsamples = 2\nvalue = [0, 0, 0, 0, 1, 2, 0, 0]"] ;
85 -> 87 ;
88 [label="X[2] <= 4.5\ngini = 0.5\nsamples = 2\nvalue = [0, 0, 0, 0, 1, 0, 1, 0]"] ;
78 -> 88 ;
89 [label="gini = 0.0\nsamples = 1\nvalue = [0, 0, 0, 0, 1, 0, 0, 0]"] ;
88 -> 89 ;
90 [label="gini = 0.0\nsamples = 1\nvalue = [0, 0, 0, 0, 0, 0, 1, 0]"] ;
88 -> 90 ;
91 [label="X[1] <= 2.5\ngini = 0.625\nsamples = 9\nvalue = [0, 3, 0, 0, 3, 6, 0, 0]"] ;
77 -> 91 ;
92 [label="gini = 0.0\nsamples = 2\nvalue = [0, 0, 0, 0, 0, 2, 0, 0]"] ;
91 -> 92 ;
93 [label="X[2] <= 5.5\ngini = 0.66\nsamples = 7\nvalue = [0, 3, 0, 0, 3, 4, 0, 0]"] ;
91 -> 93 ;
94 [label="X[2] <= 4.5\ngini = 0.6562\nsamples = 5\nvalue = [0, 3, 0, 0, 3, 2, 0, 0]"] ;
93 -> 94 ;
95 [label="X[3] <= 5.5\ngini = 0.5\nsamples = 3\nvalue = [0, 0, 0, 0, 2, 2, 0, 0]"] ;
94 -> 95 ;
96 [label="gini = 0.0\nsamples = 1\nvalue = [0, 0, 0, 0, 0, 1, 0, 0]"] ;
95 -> 96 ;
97 [label="X[3] <= 7.5\ngini = 0.4444\nsamples = 2\nvalue = [0, 0, 0, 0, 2, 1, 0, 0]"] ;
95 -> 97 ;
98 [label="gini = 0.0\nsamples = 1\nvalue = [0, 0, 0, 0, 2, 0, 0, 0]"] ;
97 -> 98 ;
99 [label="gini = 0.0\nsamples = 1\nvalue = [0, 0, 0, 0, 0, 1, 0, 0]"] ;
97 -> 99 ;
100 [label="X[3] <= 8.5\ngini = 0.375\nsamples = 2\nvalue = [0, 3, 0, 0, 1, 0, 0, 0]"] ;
94 -> 100 ;
101 [label="gini = 0.0\nsamples = 1\nvalue = [0, 0, 0, 0, 1, 0, 0, 0]"] ;
100 -> 101 ;
102 [label="gini = 0.0\nsamples = 1\nvalue = [0, 3, 0, 0, 0, 0, 0, 0]"] ;
100 -> 102 ;
103 [label="gini = 0.0\nsamples = 2\nvalue = [0, 0, 0, 0, 0, 2, 0, 0]"] ;
93 -> 103 ;
104 [label="X[2] <= 2.5\ngini = 0.58\nsamples = 7\nvalue = [0, 0, 2, 1, 6, 1, 0, 0]"] ;
76 -> 104 ;
105 [label="gini = 0.0\nsamples = 1\nvalue = [0, 0, 0, 0, 0, 1, 0, 0]"] ;
104 -> 105 ;
106 [label="X[2] <= 5.5\ngini = 0.4938\nsamples = 6\nvalue = [0, 0, 2, 1, 6, 0, 0, 0]"] ;
104 -> 106 ;
107 [label="X[2] <= 4.5\ngini = 0.4444\nsamples = 3\nvalue = [0, 0, 0, 1, 2, 0, 0, 0]"] ;
106 -> 107 ;
108 [label="gini = 0.0\nsamples = 1\nvalue = [0, 0, 0, 0, 1, 0, 0, 0]"] ;
107 -> 108 ;
109 [label="gini = 0.5\nsamples = 2\nvalue = [0, 0, 0, 1, 1, 0, 0, 0]"] ;
107 -> 109 ;
110 [label="X[3] <= 8.5\ngini = 0.4444\nsamples = 3\nvalue = [0, 0, 2, 0, 4, 0, 0, 0]"] ;
106 -> 110 ;
111 [label="gini = 0.5\nsamples = 2\nvalue = [0, 0, 2, 0, 2, 0, 0, 0]"] ;
110 -> 111 ;
112 [label="gini = 0.0\nsamples = 1\nvalue = [0, 0, 0, 0, 2, 0, 0, 0]"] ;
110 -> 112 ;
113 [label="X[1] <= 1.5\ngini = 0.5644\nsamples = 40\nvalue = [0, 0, 4, 1, 32, 18, 1, 0]"] ;
75 -> 113 ;
114 [label="X[3] <= 8.5\ngini = 0.32\nsamples = 14\nvalue = [0, 0, 0, 0, 16, 4, 0, 0]"] ;
113 -> 114 ;
115 [label="X[3] <= 6.5\ngini = 0.2778\nsamples = 12\nvalue = [0, 0, 0, 0, 15, 3, 0, 0]"] ;
114 -> 115 ;
116 [label="X[2] <= 5.5\ngini = 0.1975\nsamples = 6\nvalue = [0, 0, 0, 0, 8, 1, 0, 0]"] ;
115 -> 116 ;
117 [label="gini = 0.0\nsamples = 3\nvalue = [0, 0, 0, 0, 5, 0, 0, 0]"] ;
116 -> 117 ;
118 [label="X[2] <= 6.5\ngini = 0.375\nsamples = 3\nvalue = [0, 0, 0, 0, 3, 1, 0, 0]"] ;
116 -> 118 ;
119 [label="X[1] <= 0.5\ngini = 0.4444\nsamples = 2\nvalue = [0, 0, 0, 0, 2, 1, 0, 0]"] ;
118 -> 119 ;
120 [label="gini = 0.0\nsamples = 1\nvalue = [0, 0, 0, 0, 0, 1, 0, 0]"] ;
119 -> 120 ;
121 [label="gini = 0.0\nsamples = 1\nvalue = [0, 0, 0, 0, 2, 0, 0, 0]"] ;
119 -> 121 ;
122 [label="gini = 0.0\nsamples = 1\nvalue = [0, 0, 0, 0, 1, 0, 0, 0]"] ;
118 -> 122 ;
123 [label="X[2] <= 6.5\ngini = 0.3457\nsamples = 6\nvalue = [0, 0, 0, 0, 7, 2, 0, 0]"] ;
115 -> 123 ;
124 [label="X[1] <= 0.5\ngini = 0.2188\nsamples = 5\nvalue = [0, 0, 0, 0, 7, 1, 0, 0]"] ;
123 -> 124 ;
125 [label="gini = 0.0\nsamples = 3\nvalue = [0, 0, 0, 0, 5, 0, 0, 0]"] ;
124 -> 125 ;
126 [label="X[3] <= 7.5\ngini = 0.4444\nsamples = 2\nvalue = [0, 0, 0, 0, 2, 1, 0, 0]"] ;
124 -> 126 ;
127 [label="gini = 0.0\nsamples = 1\nvalue = [0, 0, 0, 0, 2, 0, 0, 0]"] ;
126 -> 127 ;
128 [label="gini = 0.0\nsamples = 1\nvalue = [0, 0, 0, 0, 0, 1, 0, 0]"] ;
126 -> 128 ;
129 [label="gini = 0.0\nsamples = 1\nvalue = [0, 0, 0, 0, 0, 1, 0, 0]"] ;
123 -> 129 ;
130 [label="X[2] <= 4.0\ngini = 0.5\nsamples = 2\nvalue = [0, 0, 0, 0, 1, 1, 0, 0]"] ;
114 -> 130 ;
131 [label="gini = 0.0\nsamples = 1\nvalue = [0, 0, 0, 0, 0, 1, 0, 0]"] ;
130 -> 131 ;
132 [label="gini = 0.0\nsamples = 1\nvalue = [0, 0, 0, 0, 1, 0, 0, 0]"] ;
130 -> 132 ;
133 [label="X[2] <= 3.5\ngini = 0.6373\nsamples = 26\nvalue = [0, 0, 4, 1, 16, 14, 1, 0]"] ;
113 -> 133 ;
134 [label="gini = 0.0\nsamples = 1\nvalue = [0, 0, 0, 0, 3, 0, 0, 0]"] ;
133 -> 134 ;
135 [label="X[1] <= 3.5\ngini = 0.6483\nsamples = 25\nvalue = [0, 0, 4, 1, 13, 14, 1, 0]"] ;
133 -> 135 ;
136 [label="X[1] <= 2.5\ngini = 0.6163\nsamples = 19\nvalue = [0, 0, 1, 1, 10, 10, 1, 0]"] ;
135 -> 136 ;
137 [label="X[2] <= 4.5\ngini = 0.6446\nsamples = 9\nvalue = [0, 0, 0, 1, 4, 5, 1, 0]"] ;
136 -> 137 ;
138 [label="gini = 0.0\nsamples = 1\nvalue = [0, 0, 0, 0, 0, 0, 1, 0]"] ;
137 -> 138 ;
139 [label="X[2] <= 5.5\ngini = 0.58\nsamples = 8\nvalue = [0, 0, 0, 1, 4, 5, 0, 0]"] ;
137 -> 139 ;
140 [label="gini = 0.0\nsamples = 1\nvalue = [0, 0, 0, 0, 0, 1, 0, 0]"] ;
139 -> 140 ;
141 [label="X[3] <= 5.5\ngini = 0.5926\nsamples = 7\nvalue = [0, 0, 0, 1, 4, 4, 0, 0]"] ;
139 -> 141 ;
142 [label="gini = 0.0\nsamples = 1\nvalue = [0, 0, 0, 0, 0, 2, 0, 0]"] ;
141 -> 142 ;
143 [label="X[3] <= 7.5\ngini = 0.5714\nsamples = 6\nvalue = [0, 0, 0, 1, 4, 2, 0, 0]"] ;
141 -> 143 ;
144 [label="X[3] <= 6.5\ngini = 0.64\nsamples = 5\nvalue = [0, 0, 0, 1, 2, 2, 0, 0]"] ;
143 -> 144 ;
145 [label="gini = 0.5\nsamples = 2\nvalue = [0, 0, 0, 0, 1, 1, 0, 0]"] ;
144 -> 145 ;
146 [label="gini = 0.6667\nsamples = 3\nvalue = [0, 0, 0, 1, 1, 1, 0, 0]"] ;
144 -> 146 ;
147 [label="gini = 0.0\nsamples = 1\nvalue = [0, 0, 0, 0, 2, 0, 0, 0]"] ;
143 -> 147 ;
148 [label="X[2] <= 5.5\ngini = 0.5694\nsamples = 10\nvalue = [0, 0, 1, 0, 6, 5, 0, 0]"] ;
136 -> 148 ;
149 [label="X[2] <= 4.5\ngini = 0.375\nsamples = 3\nvalue = [0, 0, 1, 0, 0, 3, 0, 0]"] ;
148 -> 149 ;
150 [label="gini = 0.0\nsamples = 1\nvalue = [0, 0, 0, 0, 0, 2, 0, 0]"] ;
149 -> 150 ;
151 [label="X[3] <= 7.0\ngini = 0.5\nsamples = 2\nvalue = [0, 0, 1, 0, 0, 1, 0, 0]"] ;
149 -> 151 ;
152 [label="gini = 0.0\nsamples = 1\nvalue = [0, 0, 1, 0, 0, 0, 0, 0]"] ;
151 -> 152 ;
153 [label="gini = 0.0\nsamples = 1\nvalue = [0, 0, 0, 0, 0, 1, 0, 0]"] ;
151 -> 153 ;
154 [label="X[2] <= 6.5\ngini = 0.375\nsamples = 7\nvalue = [0, 0, 0, 0, 6, 2, 0, 0]"] ;
148 -> 154 ;
155 [label="X[3] <= 6.5\ngini = 0.375\nsamples = 4\nvalue = [0, 0, 0, 0, 3, 1, 0, 0]"] ;
154 -> 155 ;
156 [label="gini = 0.0\nsamples = 2\nvalue = [0, 0, 0, 0, 2, 0, 0, 0]"] ;
155 -> 156 ;
157 [label="X[3] <= 7.5\ngini = 0.5\nsamples = 2\nvalue = [0, 0, 0, 0, 1, 1, 0, 0]"] ;
155 -> 157 ;
158 [label="gini = 0.0\nsamples = 1\nvalue = [0, 0, 0, 0, 0, 1, 0, 0]"] ;
157 -> 158 ;
159 [label="gini = 0.0\nsamples = 1\nvalue = [0, 0, 0, 0, 1, 0, 0, 0]"] ;
157 -> 159 ;
160 [label="X[3] <= 6.0\ngini = 0.375\nsamples = 3\nvalue = [0, 0, 0, 0, 3, 1, 0, 0]"] ;
154 -> 160 ;
161 [label="gini = 0.0\nsamples = 1\nvalue = [0, 0, 0, 0, 1, 0, 0, 0]"] ;
160 -> 161 ;
162 [label="gini = 0.4444\nsamples = 2\nvalue = [0, 0, 0, 0, 2, 1, 0, 0]"] ;
160 -> 162 ;
163 [label="X[2] <= 6.5\ngini = 0.66\nsamples = 6\nvalue = [0, 0, 3, 0, 3, 4, 0, 0]"] ;
135 -> 163 ;
164 [label="X[3] <= 6.5\ngini = 0.5938\nsamples = 5\nvalue = [0, 0, 1, 0, 3, 4, 0, 0]"] ;
163 -> 164 ;
165 [label="X[2] <= 5.5\ngini = 0.375\nsamples = 3\nvalue = [0, 0, 0, 0, 3, 1, 0, 0]"] ;
164 -> 165 ;
166 [label="gini = 0.5\nsamples = 2\nvalue = [0, 0, 0, 0, 1, 1, 0, 0]"] ;
165 -> 166 ;
167 [label="gini = 0.0\nsamples = 1\nvalue = [0, 0, 0, 0, 2, 0, 0, 0]"] ;
165 -> 167 ;
168 [label="X[3] <= 7.5\ngini = 0.375\nsamples = 2\nvalue = [0, 0, 1, 0, 0, 3, 0, 0]"] ;
164 -> 168 ;
169 [label="gini = 0.0\nsamples = 1\nvalue = [0, 0, 0, 0, 0, 3, 0, 0]"] ;
168 -> 169 ;
170 [label="gini = 0.0\nsamples = 1\nvalue = [0, 0, 1, 0, 0, 0, 0, 0]"] ;
168 -> 170 ;
171 [label="gini = 0.0\nsamples = 1\nvalue = [0, 0, 2, 0, 0, 0, 0, 0]"] ;
163 -> 171 ;
172 [label="X[2] <= 6.5\ngini = 0.5701\nsamples = 199\nvalue = [0, 1, 4, 15, 150, 156, 5, 0]"] ;
74 -> 172 ;
173 [label="X[4] <= 4.5\ngini = 0.547\nsamples = 93\nvalue = [0, 0, 2, 5, 55, 86, 4, 0]"] ;
172 -> 173 ;
174 [label="X[0] <= 0.5\ngini = 0.5735\nsamples = 72\nvalue = [0, 0, 2, 5, 45, 63, 4, 0]"] ;
173 -> 174 ;
175 [label="X[3] <= 5.5\ngini = 0.5717\nsamples = 71\nvalue = [0, 0, 2, 5, 43, 63, 4, 0]"] ;
174 -> 175 ;
176 [label="X[1] <= 3.5\ngini = 0.5331\nsamples = 13\nvalue = [0, 0, 1, 0, 12, 9, 0, 0]"] ;
175 -> 176 ;
177 [label="X[4] <= 2.5\ngini = 0.4082\nsamples = 8\nvalue = [0, 0, 0, 0, 10, 4, 0, 0]"] ;
176 -> 177 ;
178 [label="gini = 0.0\nsamples = 1\nvalue = [0, 0, 0, 0, 1, 0, 0, 0]"] ;
177 -> 178 ;
179 [label="X[1] <= 1.5\ngini = 0.426\nsamples = 7\nvalue = [0, 0, 0, 0, 9, 4, 0, 0]"] ;
177 -> 179 ;
180 [label="X[2] <= 5.5\ngini = 0.3457\nsamples = 5\nvalue = [0, 0, 0, 0, 7, 2, 0, 0]"] ;
179 -> 180 ;
181 [label="X[4] <= 3.5\ngini = 0.2449\nsamples = 3\nvalue = [0, 0, 0, 0, 6, 1, 0, 0]"] ;
180 -> 181 ;
182 [label="gini = 0.0\nsamples = 1\nvalue = [0, 0, 0, 0, 3, 0, 0, 0]"] ;
181 -> 182 ;
183 [label="X[1] <= 0.5\ngini = 0.375\nsamples = 2\nvalue = [0, 0, 0, 0, 3, 1, 0, 0]"] ;
181 -> 183 ;
184 [label="gini = 0.0\nsamples = 1\nvalue = [0, 0, 0, 0, 0, 1, 0, 0]"] ;
183 -> 184 ;
185 [label="gini = 0.0\nsamples = 1\nvalue = [0, 0, 0, 0, 3, 0, 0, 0]"] ;
183 -> 185 ;
186 [label="X[1] <= 0.5\ngini = 0.5\nsamples = 2\nvalue = [0, 0, 0, 0, 1, 1, 0, 0]"] ;
180 -> 186 ;
187 [label="gini = 0.0\nsamples = 1\nvalue = [0, 0, 0, 0, 1, 0, 0, 0]"] ;
186 -> 187 ;
188 [label="gini = 0.0\nsamples = 1\nvalue = [0, 0, 0, 0, 0, 1, 0, 0]"] ;
186 -> 188 ;
189 [label="gini = 0.5\nsamples = 2\nvalue = [0, 0, 0, 0, 2, 2, 0, 0]"] ;
179 -> 189 ;
190 [label="X[2] <= 4.5\ngini = 0.5312\nsamples = 5\nvalue = [0, 0, 1, 0, 2, 5, 0, 0]"] ;
176 -> 190 ;
191 [label="gini = 0.0\nsamples = 1\nvalue = [0, 0, 0, 0, 2, 0, 0, 0]"] ;
190 -> 191 ;
192 [label="X[2] <= 5.5\ngini = 0.2778\nsamples = 4\nvalue = [0, 0, 1, 0, 0, 5, 0, 0]"] ;
190 -> 192 ;
193 [label="gini = 0.0\nsamples = 1\nvalue = [0, 0, 0, 0, 0, 1, 0, 0]"] ;
192 -> 193 ;
194 [label="X[4] <= 3.0\ngini = 0.32\nsamples = 3\nvalue = [0, 0, 1, 0, 0, 4, 0, 0]"] ;
192 -> 194 ;
195 [label="gini = 0.5\nsamples = 2\nvalue = [0, 0, 1, 0, 0, 1, 0, 0]"] ;
194 -> 195 ;
196 [label="gini = 0.0\nsamples = 1\nvalue = [0, 0, 0, 0, 0, 3, 0, 0]"] ;
194 -> 196 ;
197 [label="X[3] <= 7.5\ngini = 0.5658\nsamples = 58\nvalue = [0, 0, 1, 5, 31, 54, 4, 0]"] ;
175 -> 197 ;
198 [label="X[1] <= 0.5\ngini = 0.5021\nsamples = 31\nvalue = [0, 0, 0, 1, 14, 33, 3, 0]"] ;
197 -> 198 ;
199 [label="X[4] <= 2.5\ngini = 0.5625\nsamples = 6\nvalue = [0, 0, 0, 1, 5, 1, 1, 0]"] ;
198 -> 199 ;
200 [label="X[3] <= 6.5\ngini = 0.2778\nsamples = 4\nvalue = [0, 0, 0, 0, 5, 1, 0, 0]"] ;
199 -> 200 ;
201 [label="gini = 0.0\nsamples = 2\nvalue = [0, 0, 0, 0, 4, 0, 0, 0]"] ;
200 -> 201 ;
202 [label="gini = 0.5\nsamples = 2\nvalue = [0, 0, 0, 0, 1, 1, 0, 0]"] ;
200 -> 202 ;
203 [label="X[2] <= 5.5\ngini = 0.5\nsamples = 2\nvalue = [0, 0, 0, 1, 0, 0, 1, 0]"] ;
199 -> 203 ;
204 [label="gini = 0.0\nsamples = 1\nvalue = [0, 0, 0, 1, 0, 0, 0, 0]"] ;
203 -> 204 ;
205 [label="gini = 0.0\nsamples = 1\nvalue = [0, 0, 0, 0, 0, 0, 1, 0]"] ;
203 -> 205 ;
206 [label="X[2] <= 3.5\ngini = 0.4002\nsamples = 25\nvalue = [0, 0, 0, 0, 9, 32, 2, 0]"] ;
198 -> 206 ;
207 [label="gini = 0.0\nsamples = 1\nvalue = [0, 0, 0, 0, 2, 0, 0, 0]"] ;
206 -> 207 ;
208 [label="X[4] <= 2.5\ngini = 0.3593\nsamples = 24\nvalue = [0, 0, 0, 0, 7, 32, 2, 0]"] ;
206 -> 208 ;
209 [label="X[3] <= 6.5\ngini = 0.5124\nsamples = 6\nvalue = [0, 0, 0, 0, 3, 7, 1, 0]"] ;
208 -> 209 ;
210 [label="X[2] <= 4.5\ngini = 0.48\nsamples = 2\nvalue = [0, 0, 0, 0, 3, 2, 0, 0]"] ;
209 -> 210 ;
211 [label="gini = 0.0\nsamples = 1\nvalue = [0, 0, 0, 0, 0, 2, 0, 0]"] ;
210 -> 211 ;
212 [label="gini = 0.0\nsamples = 1\nvalue = [0, 0, 0, 0, 3, 0, 0, 0]"] ;
210 -> 212 ;
213 [label="X[1] <= 2.5\ngini = 0.2778\nsamples = 4\nvalue = [0, 0, 0, 0, 0, 5, 1, 0]"] ;
209 -> 213 ;
214 [label="gini = 0.0\nsamples = 2\nvalue = [0, 0, 0, 0, 0, 4, 0, 0]"] ;
213 -> 214 ;
215 [label="gini = 0.5\nsamples = 2\nvalue = [0, 0, 0, 0, 0, 1, 1, 0]"] ;
213 -> 215 ;
216 [label="X[1] <= 3.5\ngini = 0.2867\nsamples = 18\nvalue = [0, 0, 0, 0, 4, 25, 1, 0]"] ;
208 -> 216 ;
217 [label="X[2] <= 5.5\ngini = 0.2268\nsamples = 14\nvalue = [0, 0, 0, 0, 3, 20, 0, 0]"] ;
216 -> 217 ;
218 [label="gini = 0.0\nsamples = 3\nvalue = [0, 0, 0, 0, 0, 4, 0, 0]"] ;
217 -> 218 ;
219 [label="X[4] <= 3.5\ngini = 0.2659\nsamples = 11\nvalue = [0, 0, 0, 0, 3, 16, 0, 0]"] ;
217 -> 219 ;
220 [label="X[3] <= 6.5\ngini = 0.4082\nsamples = 4\nvalue = [0, 0, 0, 0, 2, 5, 0, 0]"] ;
219 -> 220 ;
221 [label="gini = 0.375\nsamples = 2\nvalue = [0, 0, 0, 0, 1, 3, 0, 0]"] ;
220 -> 221 ;
222 [label="gini = 0.4444\nsamples = 2\nvalue = [0, 0, 0, 0, 1, 2, 0, 0]"] ;
220 -> 222 ;
223 [label="X[3] <= 6.5\ngini = 0.1528\nsamples = 7\nvalue = [0, 0, 0, 0, 1, 11, 0, 0]"] ;
219 -> 223 ;
224 [label="gini = 0.0\nsamples = 5\nvalue = [0, 0, 0, 0, 0, 10, 0, 0]"] ;
223 -> 224 ;
225 [label="gini = 0.5\nsamples = 2\nvalue = [0, 0, 0, 0, 1, 1, 0, 0]"] ;
223 -> 225 ;
226 [label="X[4] <= 3.5\ngini = 0.449\nsamples = 4\nvalue = [0, 0, 0, 0, 1, 5, 1, 0]"] ;
216 -> 226 ;
227 [label="gini = 0.0\nsamples = 1\nvalue = [0, 0, 0, 0, 0, 4, 0, 0]"] ;
226 -> 227 ;
228 [label="X[2] <= 5.5\ngini = 0.6667\nsamples = 3\nvalue = [0, 0, 0, 0, 1, 1, 1, 0]"] ;
226 -> 228 ;
229 [label="gini = 0.0\nsamples = 1\nvalue = [0, 0, 0, 0, 1, 0, 0, 0]"] ;
228 -> 229 ;
230 [label="gini = 0.5\nsamples = 2\nvalue = [0, 0, 0, 0, 0, 1, 1, 0]"] ;
228 -> 230 ;
231 [label="X[1] <= 1.5\ngini = 0.6136\nsamples = 27\nvalue = [0, 0, 1, 4, 17, 21, 1, 0]"] ;
197 -> 231 ;
232 [label="X[3] <= 8.5\ngini = 0.5562\nsamples = 10\nvalue = [0, 0, 1, 0, 3, 8, 1, 0]"] ;
231 -> 232 ;
233 [label="X[1] <= 0.5\ngini = 0.5833\nsamples = 9\nvalue = [0, 0, 1, 0, 3, 7, 1, 0]"] ;
232 -> 233 ;
234 [label="X[2] <= 5.5\ngini = 0.6122\nsamples = 6\nvalue = [0, 0, 0, 0, 3, 3, 1, 0]"] ;
233 -> 234 ;
235 [label="X[2] <= 4.5\ngini = 0.5\nsamples = 2\nvalue = [0, 0, 0, 0, 1, 0, 1, 0]"] ;
234 -> 235 ;
236 [label="gini = 0.0\nsamples = 1\nvalue = [0, 0, 0, 0, 1, 0, 0, 0]"] ;
235 -> 236 ;
237 [label="gini = 0.0\nsamples = 1\nvalue = [0, 0, 0, 0, 0, 0, 1, 0]"] ;
235 -> 237 ;
238 [label="X[4] <= 2.5\ngini = 0.48\nsamples = 4\nvalue = [0, 0, 0, 0, 2, 3, 0, 0]"] ;
234 -> 238 ;
239 [label="gini = 0.0\nsamples = 1\nvalue = [0, 0, 0, 0, 0, 1, 0, 0]"] ;
238 -> 239 ;
240 [label="X[4] <= 3.5\ngini = 0.5\nsamples = 3\nvalue = [0, 0, 0, 0, 2, 2, 0, 0]"] ;
238 -> 240 ;
241 [label="gini = 0.4444\nsamples = 2\nvalue = [0, 0, 0, 0, 2, 1, 0, 0]"] ;
240 -> 241 ;
242 [label="gini = 0.0\nsamples = 1\nvalue = [0, 0, 0, 0, 0, 1, 0, 0]"] ;
240 -> 242 ;
243 [label="X[4] <= 3.0\ngini = 0.32\nsamples = 3\nvalue = [0, 0, 1, 0, 0, 4, 0, 0]"] ;
233 -> 243 ;
244 [label="gini = 0.375\nsamples = 2\nvalue = [0, 0, 1, 0, 0, 3, 0, 0]"] ;
243 -> 244 ;
245 [label="gini = 0.0\nsamples = 1\nvalue = [0, 0, 0, 0, 0, 1, 0, 0]"] ;
243 -> 245 ;
246 [label="gini = 0.0\nsamples = 1\nvalue = [0, 0, 0, 0, 0, 1, 0, 0]"] ;
232 -> 246 ;
247 [label="X[3] <= 8.5\ngini = 0.6035\nsamples = 17\nvalue = [0, 0, 0, 4, 14, 13, 0, 0]"] ;
231 -> 247 ;
248 [label="X[1] <= 2.5\ngini = 0.6088\nsamples = 15\nvalue = [0, 0, 0, 4, 13, 12, 0, 0]"] ;
247 -> 248 ;
249 [label="X[4] <= 3.5\ngini = 0.64\nsamples = 5\nvalue = [0, 0, 0, 4, 4, 2, 0, 0]"] ;
248 -> 249 ;
250 [label="X[4] <= 2.5\ngini = 0.32\nsamples = 3\nvalue = [0, 0, 0, 0, 4, 1, 0, 0]"] ;
249 -> 250 ;
251 [label="gini = 0.4444\nsamples = 2\nvalue = [0, 0, 0, 0, 2, 1, 0, 0]"] ;
250 -> 251 ;
252 [label="gini = 0.0\nsamples = 1\nvalue = [0, 0, 0, 0, 2, 0, 0, 0]"] ;
250 -> 252 ;
253 [label="X[2] <= 5.5\ngini = 0.32\nsamples = 2\nvalue = [0, 0, 0, 4, 0, 1, 0, 0]"] ;
249 -> 253 ;
254 [label="gini = 0.0\nsamples = 1\nvalue = [0, 0, 0, 4, 0, 0, 0, 0]"] ;
253 -> 254 ;
255 [label="gini = 0.0\nsamples = 1\nvalue = [0, 0, 0, 0, 0, 1, 0, 0]"] ;
253 -> 255 ;
256 [label="X[4] <= 3.5\ngini = 0.4986\nsamples = 10\nvalue = [0, 0, 0, 0, 9, 10, 0, 0]"] ;
248 -> 256 ;
257 [label="X[4] <= 2.5\ngini = 0.4734\nsamples = 7\nvalue = [0, 0, 0, 0, 5, 8, 0, 0]"] ;
256 -> 257 ;
258 [label="X[2] <= 5.0\ngini = 0.4688\nsamples = 4\nvalue = [0, 0, 0, 0, 5, 3, 0, 0]"] ;
257 -> 258 ;
259 [label="gini = 0.0\nsamples = 1\nvalue = [0, 0, 0, 0, 3, 0, 0, 0]"] ;
258 -> 259 ;
260 [label="X[1] <= 3.5\ngini = 0.48\nsamples = 3\nvalue = [0, 0, 0, 0, 2, 3, 0, 0]"] ;
258 -> 260 ;
261 [label="gini = 0.0\nsamples = 2\nvalue = [0, 0, 0, 0, 0, 3, 0, 0]"] ;
260 -> 261 ;
262 [label="gini = 0.0\nsamples = 1\nvalue = [0, 0, 0, 0, 2, 0, 0, 0]"] ;
260 -> 262 ;
263 [label="gini = 0.0\nsamples = 3\nvalue = [0, 0, 0, 0, 0, 5, 0, 0]"] ;
257 -> 263 ;
264 [label="gini = 0.4444\nsamples = 3\nvalue = [0, 0, 0, 0, 4, 2, 0, 0]"] ;
256 -> 264 ;
265 [label="X[2] <= 4.5\ngini = 0.5\nsamples = 2\nvalue = [0, 0, 0, 0, 1, 1, 0, 0]"] ;
247 -> 265 ;
266 [label="gini = 0.0\nsamples = 1\nvalue = [0, 0, 0, 0, 0, 1, 0, 0]"] ;
265 -> 266 ;
267 [label="gini = 0.0\nsamples = 1\nvalue = [0, 0, 0, 0, 1, 0, 0, 0]"] ;
265 -> 267 ;
268 [label="gini = 0.0\nsamples = 1\nvalue = [0, 0, 0, 0, 2, 0, 0, 0]"] ;
174 -> 268 ;
269 [label="X[2] <= 5.5\ngini = 0.4224\nsamples = 21\nvalue = [0, 0, 0, 0, 10, 23, 0, 0]"] ;
173 -> 269 ;
270 [label="gini = 0.0\nsamples = 5\nvalue = [0, 0, 0, 0, 0, 8, 0, 0]"] ;
269 -> 270 ;
271 [label="X[1] <= 1.5\ngini = 0.48\nsamples = 16\nvalue = [0, 0, 0, 0, 10, 15, 0, 0]"] ;
269 -> 271 ;
272 [label="X[4] <= 5.5\ngini = 0.2188\nsamples = 5\nvalue = [0, 0, 0, 0, 1, 7, 0, 0]"] ;
271 -> 272 ;
273 [label="X[3] <= 7.0\ngini = 0.375\nsamples = 3\nvalue = [0, 0, 0, 0, 1, 3, 0, 0]"] ;
272 -> 273 ;
274 [label="gini = 0.0\nsamples = 2\nvalue = [0, 0, 0, 0, 0, 3, 0, 0]"] ;
273 -> 274 ;
275 [label="gini = 0.0\nsamples = 1\nvalue = [0, 0, 0, 0, 1, 0, 0, 0]"] ;
273 -> 275 ;
276 [label="gini = 0.0\nsamples = 2\nvalue = [0, 0, 0, 0, 0, 4, 0, 0]"] ;
272 -> 276 ;
277 [label="X[1] <= 2.5\ngini = 0.4983\nsamples = 11\nvalue = [0, 0, 0, 0, 9, 8, 0, 0]"] ;
271 -> 277 ;
278 [label="X[0] <= 0.5\ngini = 0.2778\nsamples = 4\nvalue = [0, 0, 0, 0, 5, 1, 0, 0]"] ;
277 -> 278 ;
279 [label="X[3] <= 6.5\ngini = 0.32\nsamples = 3\nvalue = [0, 0, 0, 0, 4, 1, 0, 0]"] ;
278 -> 279 ;
280 [label="gini = 0.4444\nsamples = 2\nvalue = [0, 0, 0, 0, 2, 1, 0, 0]"] ;
279 -> 280 ;
281 [label="gini = 0.0\nsamples = 1\nvalue = [0, 0, 0, 0, 2, 0, 0, 0]"] ;
279 -> 281 ;
282 [label="gini = 0.0\nsamples = 1\nvalue = [0, 0, 0, 0, 1, 0, 0, 0]"] ;
278 -> 282 ;
283 [label="X[4] <= 6.0\ngini = 0.4628\nsamples = 7\nvalue = [0, 0, 0, 0, 4, 7, 0, 0]"] ;
277 -> 283 ;
284 [label="X[0] <= 0.5\ngini = 0.4082\nsamples = 4\nvalue = [0, 0, 0, 0, 2, 5, 0, 0]"] ;
283 -> 284 ;
285 [label="X[3] <= 7.0\ngini = 0.5\nsamples = 3\nvalue = [0, 0, 0, 0, 2, 2, 0, 0]"] ;
284 -> 285 ;
286 [label="gini = 0.4444\nsamples = 2\nvalue = [0, 0, 0, 0, 1, 2, 0, 0]"] ;
285 -> 286 ;
287 [label="gini = 0.0\nsamples = 1\nvalue = [0, 0, 0, 0, 1, 0, 0, 0]"] ;
285 -> 287 ;
288 [label="gini = 0.0\nsamples = 1\nvalue = [0, 0, 0, 0, 0, 3, 0, 0]"] ;
284 -> 288 ;
289 [label="X[3] <= 6.5\ngini = 0.5\nsamples = 3\nvalue = [0, 0, 0, 0, 2, 2, 0, 0]"] ;
283 -> 289 ;
290 [label="gini = 0.0\nsamples = 2\nvalue = [0, 0, 0, 0, 2, 0, 0, 0]"] ;
289 -> 290 ;
291 [label="gini = 0.0\nsamples = 1\nvalue = [0, 0, 0, 0, 0, 2, 0, 0]"] ;
289 -> 291 ;
292 [label="X[4] <= 5.5\ngini = 0.5621\nsamples = 106\nvalue = [0, 1, 2, 10, 95, 70, 1, 0]"] ;
172 -> 292 ;
293 [label="X[0] <= 0.5\ngini = 0.5775\nsamples = 66\nvalue = [0, 1, 2, 10, 63, 35, 1, 0]"] ;
292 -> 293 ;
294 [label="X[2] <= 7.5\ngini = 0.6045\nsamples = 60\nvalue = [0, 1, 2, 10, 52, 35, 1, 0]"] ;
293 -> 294 ;
295 [label="X[3] <= 6.5\ngini = 0.6069\nsamples = 53\nvalue = [0, 1, 2, 10, 47, 27, 1, 0]"] ;
294 -> 295 ;
296 [label="X[4] <= 3.5\ngini = 0.4688\nsamples = 18\nvalue = [0, 0, 0, 4, 16, 3, 0, 0]"] ;
295 -> 296 ;
297 [label="X[4] <= 2.5\ngini = 0.5\nsamples = 6\nvalue = [0, 0, 0, 0, 3, 3, 0, 0]"] ;
296 -> 297 ;
298 [label="X[1] <= 0.5\ngini = 0.4444\nsamples = 3\nvalue = [0, 0, 0, 0, 2, 1, 0, 0]"] ;
297 -> 298 ;
299 [label="gini = 0.0\nsamples = 1\nvalue = [0, 0, 0, 0, 1, 0, 0, 0]"] ;
298 -> 299 ;
300 [label="X[3] <= 5.5\ngini = 0.5\nsamples = 2\nvalue = [0, 0, 0, 0, 1, 1, 0, 0]"] ;
298 -> 300 ;
301 [label="gini = 0.0\nsamples = 1\nvalue = [0, 0, 0, 0, 0, 1, 0, 0]"] ;
300 -> 301 ;
302 [label="gini = 0.0\nsamples = 1\nvalue = [0, 0, 0, 0, 1, 0, 0, 0]"] ;
300 -> 302 ;
303 [label="X[3] <= 5.5\ngini = 0.4444\nsamples = 3\nvalue = [0, 0, 0, 0, 1, 2, 0, 0]"] ;
297 -> 303 ;
304 [label="gini = 0.0\nsamples = 2\nvalue = [0, 0, 0, 0, 0, 2, 0, 0]"] ;
303 -> 304 ;
305 [label="gini = 0.0\nsamples = 1\nvalue = [0, 0, 0, 0, 1, 0, 0, 0]"] ;
303 -> 305 ;
306 [label="X[3] <= 5.5\ngini = 0.3599\nsamples = 12\nvalue = [0, 0, 0, 4, 13, 0, 0, 0]"] ;
296 -> 306 ;
307 [label="X[4] <= 4.5\ngini = 0.4444\nsamples = 5\nvalue = [0, 0, 0, 2, 4, 0, 0, 0]"] ;
306 -> 307 ;
308 [label="X[1] <= 2.5\ngini = 0.4444\nsamples = 2\nvalue = [0, 0, 0, 2, 1, 0, 0, 0]"] ;
307 -> 308 ;
309 [label="gini = 0.0\nsamples = 1\nvalue = [0, 0, 0, 0, 1, 0, 0, 0]"] ;
308 -> 309 ;
310 [label="gini = 0.0\nsamples = 1\nvalue = [0, 0, 0, 2, 0, 0, 0, 0]"] ;
308 -> 310 ;
311 [label="gini = 0.0\nsamples = 3\nvalue = [0, 0, 0, 0, 3, 0, 0, 0]"] ;
307 -> 311 ;
312 [label="X[4] <= 4.5\ngini = 0.2975\nsamples = 7\nvalue = [0, 0, 0, 2, 9, 0, 0, 0]"] ;
306 -> 312 ;
313 [label="X[1] <= 2.5\ngini = 0.4082\nsamples = 4\nvalue = [0, 0, 0, 2, 5, 0, 0, 0]"] ;
312 -> 313 ;
314 [label="gini = 0.0\nsamples = 2\nvalue = [0, 0, 0, 0, 4, 0, 0, 0]"] ;
313 -> 314 ;
315 [label="gini = 0.4444\nsamples = 2\nvalue = [0, 0, 0, 2, 1, 0, 0, 0]"] ;
313 -> 315 ;
316 [label="gini = 0.0\nsamples = 3\nvalue = [0, 0, 0, 0, 4, 0, 0, 0]"] ;
312 -> 316 ;
317 [label="X[3] <= 7.5\ngini = 0.6263\nsamples = 35\nvalue = [0, 1, 2, 6, 31, 24, 1, 0]"] ;
295 -> 317 ;
318 [label="X[1] <= 1.5\ngini = 0.561\nsamples = 22\nvalue = [0, 0, 0, 2, 20, 14, 1, 0]"] ;
317 -> 318 ;
319 [label="X[1] <= 0.5\ngini = 0.4766\nsamples = 10\nvalue = [0, 0, 0, 2, 11, 3, 0, 0]"] ;
318 -> 319 ;
320 [label="X[4] <= 2.5\ngini = 0.5694\nsamples = 8\nvalue = [0, 0, 0, 2, 7, 3, 0, 0]"] ;
319 -> 320 ;
321 [label="gini = 0.4444\nsamples = 3\nvalue = [0, 0, 0, 2, 1, 0, 0, 0]"] ;
320 -> 321 ;
322 [label="X[4] <= 4.5\ngini = 0.4444\nsamples = 5\nvalue = [0, 0, 0, 0, 6, 3, 0, 0]"] ;
320 -> 322 ;
323 [label="X[4] <= 3.5\ngini = 0.375\nsamples = 4\nvalue = [0, 0, 0, 0, 6, 2, 0, 0]"] ;
322 -> 323 ;
324 [label="gini = 0.5\nsamples = 2\nvalue = [0, 0, 0, 0, 1, 1, 0, 0]"] ;
323 -> 324 ;
325 [label="gini = 0.2778\nsamples = 2\nvalue = [0, 0, 0, 0, 5, 1, 0, 0]"] ;
323 -> 325 ;
326 [label="gini = 0.0\nsamples = 1\nvalue = [0, 0, 0, 0, 0, 1, 0, 0]"] ;
322 -> 326 ;
327 [label="gini = 0.0\nsamples = 2\nvalue = [0, 0, 0, 0, 4, 0, 0, 0]"] ;
319 -> 327 ;
328 [label="X[1] <= 3.5\ngini = 0.5397\nsamples = 12\nvalue = [0, 0, 0, 0, 9, 11, 1, 0]"] ;
318 -> 328 ;
329 [label="X[1] <= 2.5\ngini = 0.5\nsamples = 7\nvalue = [0, 0, 0, 0, 6, 6, 0, 0]"] ;
328 -> 329 ;
330 [label="X[4] <= 3.5\ngini = 0.4898\nsamples = 5\nvalue = [0, 0, 0, 0, 3, 4, 0, 0]"] ;
329 -> 330 ;
331 [label="X[4] <= 2.5\ngini = 0.4444\nsamples = 2\nvalue = [0, 0, 0, 0, 2, 1, 0, 0]"] ;
330 -> 331 ;
332 [label="gini = 0.0\nsamples = 1\nvalue = [0, 0, 0, 0, 0, 1, 0, 0]"] ;
331 -> 332 ;
333 [label="gini = 0.0\nsamples = 1\nvalue = [0, 0, 0, 0, 2, 0, 0, 0]"] ;
331 -> 333 ;
334 [label="X[4] <= 4.5\ngini = 0.375\nsamples = 3\nvalue = [0, 0, 0, 0, 1, 3, 0, 0]"] ;
330 -> 334 ;
335 [label="gini = 0.0\nsamples = 1\nvalue = [0, 0, 0, 0, 0, 2, 0, 0]"] ;
334 -> 335 ;
336 [label="gini = 0.5\nsamples = 2\nvalue = [0, 0, 0, 0, 1, 1, 0, 0]"] ;
334 -> 336 ;
337 [label="X[4] <= 4.5\ngini = 0.48\nsamples = 2\nvalue = [0, 0, 0, 0, 3, 2, 0, 0]"] ;
329 -> 337 ;
338 [label="gini = 0.0\nsamples = 1\nvalue = [0, 0, 0, 0, 3, 0, 0, 0]"] ;
337 -> 338 ;
339 [label="gini = 0.0\nsamples = 1\nvalue = [0, 0, 0, 0, 0, 2, 0, 0]"] ;
337 -> 339 ;
340 [label="X[4] <= 3.0\ngini = 0.5679\nsamples = 5\nvalue = [0, 0, 0, 0, 3, 5, 1, 0]"] ;
328 -> 340 ;
341 [label="gini = 0.449\nsamples = 4\nvalue = [0, 0, 0, 0, 1, 5, 1, 0]"] ;
340 -> 341 ;
342 [label="gini = 0.0\nsamples = 1\nvalue = [0, 0, 0, 0, 2, 0, 0, 0]"] ;
340 -> 342 ;
343 [label="X[4] <= 2.5\ngini = 0.6913\nsamples = 13\nvalue = [0, 1, 2, 4, 11, 10, 0, 0]"] ;
317 -> 343 ;
344 [label="gini = 0.0\nsamples = 1\nvalue = [0, 0, 0, 0, 6, 0, 0, 0]"] ;
343 -> 344 ;
345 [label="X[1] <= 0.5\ngini = 0.6983\nsamples = 12\nvalue = [0, 1, 2, 4, 5, 10, 0, 0]"] ;
343 -> 345 ;
346 [label="gini = 0.0\nsamples = 3\nvalue = [0, 0, 0, 0, 5, 0, 0, 0]"] ;
345 -> 346 ;
347 [label="X[1] <= 3.5\ngini = 0.5813\nsamples = 9\nvalue = [0, 1, 2, 4, 0, 10, 0, 0]"] ;
345 -> 347 ;
348 [label="X[1] <= 1.5\ngini = 0.5156\nsamples = 8\nvalue = [0, 1, 2, 2, 0, 10, 0, 0]"] ;
347 -> 348 ;
349 [label="X[4] <= 4.5\ngini = 0.6667\nsamples = 3\nvalue = [0, 0, 2, 2, 0, 2, 0, 0]"] ;
348 -> 349 ;
350 [label="gini = 0.5\nsamples = 2\nvalue = [0, 0, 2, 0, 0, 2, 0, 0]"] ;
349 -> 350 ;
351 [label="gini = 0.0\nsamples = 1\nvalue = [0, 0, 0, 2, 0, 0, 0, 0]"] ;
349 -> 351 ;
352 [label="X[4] <= 3.5\ngini = 0.1975\nsamples = 5\nvalue = [0, 1, 0, 0, 0, 8, 0, 0]"] ;
348 -> 352 ;
353 [label="gini = 0.32\nsamples = 2\nvalue = [0, 1, 0, 0, 0, 4, 0, 0]"] ;
352 -> 353 ;
354 [label="gini = 0.0\nsamples = 3\nvalue = [0, 0, 0, 0, 0, 4, 0, 0]"] ;
352 -> 354 ;
355 [label="gini = 0.0\nsamples = 1\nvalue = [0, 0, 0, 2, 0, 0, 0, 0]"] ;
347 -> 355 ;
356 [label="X[3] <= 6.5\ngini = 0.4734\nsamples = 7\nvalue = [0, 0, 0, 0, 5, 8, 0, 0]"] ;
294 -> 356 ;
357 [label="X[4] <= 4.5\ngini = 0.4444\nsamples = 6\nvalue = [0, 0, 0, 0, 4, 8, 0, 0]"] ;
356 -> 357 ;
358 [label="X[3] <= 5.5\ngini = 0.5\nsamples = 2\nvalue = [0, 0, 0, 0, 2, 2, 0, 0]"] ;
357 -> 358 ;
359 [label="gini = 0.0\nsamples = 1\nvalue = [0, 0, 0, 0, 0, 2, 0, 0]"] ;
358 -> 359 ;
360 [label="gini = 0.0\nsamples = 1\nvalue = [0, 0, 0, 0, 2, 0, 0, 0]"] ;
358 -> 360 ;
361 [label="X[1] <= 0.5\ngini = 0.375\nsamples = 4\nvalue = [0, 0, 0, 0, 2, 6, 0, 0]"] ;
357 -> 361 ;
362 [label="gini = 0.0\nsamples = 2\nvalue = [0, 0, 0, 0, 0, 6, 0, 0]"] ;
361 -> 362 ;
363 [label="gini = 0.0\nsamples = 2\nvalue = [0, 0, 0, 0, 2, 0, 0, 0]"] ;
361 -> 363 ;
364 [label="gini = 0.0\nsamples = 1\nvalue = [0, 0, 0, 0, 1, 0, 0, 0]"] ;
356 -> 364 ;
365 [label="gini = 0.0\nsamples = 6\nvalue = [0, 0, 0, 0, 11, 0, 0, 0]"] ;
293 -> 365 ;
366 [label="X[2] <= 7.5\ngini = 0.499\nsamples = 40\nvalue = [0, 0, 0, 0, 32, 35, 0, 0]"] ;
292 -> 366 ;
367 [label="X[3] <= 6.5\ngini = 0.4628\nsamples = 15\nvalue = [0, 0, 0, 0, 8, 14, 0, 0]"] ;
366 -> 367 ;
368 [label="X[0] <= 0.5\ngini = 0.48\nsamples = 13\nvalue = [0, 0, 0, 0, 8, 12, 0, 0]"] ;
367 -> 368 ;
369 [label="X[1] <= 3.0\ngini = 0.2188\nsamples = 6\nvalue = [0, 0, 0, 0, 7, 1, 0, 0]"] ;
368 -> 369 ;
370 [label="gini = 0.0\nsamples = 5\nvalue = [0, 0, 0, 0, 7, 0, 0, 0]"] ;
369 -> 370 ;
371 [label="gini = 0.0\nsamples = 1\nvalue = [0, 0, 0, 0, 0, 1, 0, 0]"] ;
369 -> 371 ;
372 [label="X[4] <= 6.5\ngini = 0.1528\nsamples = 7\nvalue = [0, 0, 0, 0, 1, 11, 0, 0]"] ;
368 -> 372 ;
373 [label="X[3] <= 5.5\ngini = 0.32\nsamples = 4\nvalue = [0, 0, 0, 0, 1, 4, 0, 0]"] ;
372 -> 373 ;
374 [label="X[1] <= 2.0\ngini = 0.5\nsamples = 2\nvalue = [0, 0, 0, 0, 1, 1, 0, 0]"] ;
373 -> 374 ;
375 [label="gini = 0.0\nsamples = 1\nvalue = [0, 0, 0, 0, 0, 1, 0, 0]"] ;
374 -> 375 ;
376 [label="gini = 0.0\nsamples = 1\nvalue = [0, 0, 0, 0, 1, 0, 0, 0]"] ;
374 -> 376 ;
377 [label="gini = 0.0\nsamples = 2\nvalue = [0, 0, 0, 0, 0, 3, 0, 0]"] ;
373 -> 377 ;
378 [label="gini = 0.0\nsamples = 3\nvalue = [0, 0, 0, 0, 0, 7, 0, 0]"] ;
372 -> 378 ;
379 [label="gini = 0.0\nsamples = 2\nvalue = [0, 0, 0, 0, 0, 2, 0, 0]"] ;
367 -> 379 ;
380 [label="X[2] <= 9.5\ngini = 0.4978\nsamples = 25\nvalue = [0, 0, 0, 0, 24, 21, 0, 0]"] ;
366 -> 380 ;
381 [label="X[4] <= 6.5\ngini = 0.4997\nsamples = 23\nvalue = [0, 0, 0, 0, 20, 19, 0, 0]"] ;
380 -> 381 ;
382 [label="X[2] <= 8.5\ngini = 0.4592\nsamples = 8\nvalue = [0, 0, 0, 0, 9, 5, 0, 0]"] ;
381 -> 382 ;
383 [label="X[3] <= 5.5\ngini = 0.5\nsamples = 5\nvalue = [0, 0, 0, 0, 5, 5, 0, 0]"] ;
382 -> 383 ;
384 [label="gini = 0.0\nsamples = 1\nvalue = [0, 0, 0, 0, 0, 3, 0, 0]"] ;
383 -> 384 ;
385 [label="X[3] <= 6.5\ngini = 0.4082\nsamples = 4\nvalue = [0, 0, 0, 0, 5, 2, 0, 0]"] ;
383 -> 385 ;
386 [label="gini = 0.0\nsamples = 2\nvalue = [0, 0, 0, 0, 3, 0, 0, 0]"] ;
385 -> 386 ;
387 [label="X[0] <= 0.5\ngini = 0.5\nsamples = 2\nvalue = [0, 0, 0, 0, 2, 2, 0, 0]"] ;
385 -> 387 ;
388 [label="gini = 0.0\nsamples = 1\nvalue = [0, 0, 0, 0, 0, 2, 0, 0]"] ;
387 -> 388 ;
389 [label="gini = 0.0\nsamples = 1\nvalue = [0, 0, 0, 0, 2, 0, 0, 0]"] ;
387 -> 389 ;
390 [label="gini = 0.0\nsamples = 3\nvalue = [0, 0, 0, 0, 4, 0, 0, 0]"] ;
382 -> 390 ;
391 [label="X[1] <= 2.5\ngini = 0.4928\nsamples = 15\nvalue = [0, 0, 0, 0, 11, 14, 0, 0]"] ;
381 -> 391 ;
392 [label="X[1] <= 1.5\ngini = 0.4688\nsamples = 8\nvalue = [0, 0, 0, 0, 10, 6, 0, 0]"] ;
391 -> 392 ;
393 [label="X[3] <= 5.5\ngini = 0.4688\nsamples = 4\nvalue = [0, 0, 0, 0, 3, 5, 0, 0]"] ;
392 -> 393 ;
394 [label="X[1] <= 0.5\ngini = 0.4444\nsamples = 2\nvalue = [0, 0, 0, 0, 1, 2, 0, 0]"] ;
393 -> 394 ;
395 [label="gini = 0.0\nsamples = 1\nvalue = [0, 0, 0, 0, 0, 2, 0, 0]"] ;
394 -> 395 ;
396 [label="gini = 0.0\nsamples = 1\nvalue = [0, 0, 0, 0, 1, 0, 0, 0]"] ;
394 -> 396 ;
397 [label="X[1] <= 0.5\ngini = 0.48\nsamples = 2\nvalue = [0, 0, 0, 0, 2, 3, 0, 0]"] ;
393 -> 397 ;
398 [label="gini = 0.0\nsamples = 1\nvalue = [0, 0, 0, 0, 2, 0, 0, 0]"] ;
397 -> 398 ;
399 [label="gini = 0.0\nsamples = 1\nvalue = [0, 0, 0, 0, 0, 3, 0, 0]"] ;
397 -> 399 ;
400 [label="X[2] <= 8.5\ngini = 0.2188\nsamples = 4\nvalue = [0, 0, 0, 0, 7, 1, 0, 0]"] ;
392 -> 400 ;
401 [label="gini = 0.0\nsamples = 2\nvalue = [0, 0, 0, 0, 6, 0, 0, 0]"] ;
400 -> 401 ;
402 [label="X[3] <= 5.5\ngini = 0.5\nsamples = 2\nvalue = [0, 0, 0, 0, 1, 1, 0, 0]"] ;
400 -> 402 ;
403 [label="gini = 0.0\nsamples = 1\nvalue = [0, 0, 0, 0, 0, 1, 0, 0]"] ;
402 -> 403 ;
404 [label="gini = 0.0\nsamples = 1\nvalue = [0, 0, 0, 0, 1, 0, 0, 0]"] ;
402 -> 404 ;
405 [label="X[2] <= 8.5\ngini = 0.1975\nsamples = 7\nvalue = [0, 0, 0, 0, 1, 8, 0, 0]"] ;
391 -> 405 ;
406 [label="X[0] <= 0.5\ngini = 0.375\nsamples = 3\nvalue = [0, 0, 0, 0, 1, 3, 0, 0]"] ;
405 -> 406 ;
407 [label="gini = 0.0\nsamples = 1\nvalue = [0, 0, 0, 0, 0, 1, 0, 0]"] ;
406 -> 407 ;
408 [label="X[3] <= 5.5\ngini = 0.4444\nsamples = 2\nvalue = [0, 0, 0, 0, 1, 2, 0, 0]"] ;
406 -> 408 ;
409 [label="gini = 0.0\nsamples = 1\nvalue = [0, 0, 0, 0, 1, 0, 0, 0]"] ;
408 -> 409 ;
410 [label="gini = 0.0\nsamples = 1\nvalue = [0, 0, 0, 0, 0, 2, 0, 0]"] ;
408 -> 410 ;
411 [label="gini = 0.0\nsamples = 4\nvalue = [0, 0, 0, 0, 0, 5, 0, 0]"] ;
405 -> 411 ;
412 [label="X[1] <= 2.5\ngini = 0.4444\nsamples = 2\nvalue = [0, 0, 0, 0, 4, 2, 0, 0]"] ;
380 -> 412 ;
413 [label="gini = 0.0\nsamples = 1\nvalue = [0, 0, 0, 0, 0, 2, 0, 0]"] ;
412 -> 413 ;
414 [label="gini = 0.0\nsamples = 1\nvalue = [0, 0, 0, 0, 4, 0, 0, 0]"] ;
412 -> 414 ;
415 [label="gini = 0.0\nsamples = 1\nvalue = [0, 0, 0, 0, 0, 3, 0, 0]"] ;
73 -> 415 ;
416 [label="X[2] <= 4.5\ngini = 0.7882\nsamples = 138\nvalue = [3, 11, 33, 23, 61, 60, 19, 1]"] ;
0 -> 416 [labeldistance=2.5, labelangle=-45, headlabel="False"] ;
417 [label="X[4] <= 4.0\ngini = 0.6743\nsamples = 16\nvalue = [0, 0, 8, 0, 14, 2, 7, 0]"] ;
416 -> 417 ;
418 [label="X[2] <= 3.5\ngini = 0.6611\nsamples = 15\nvalue = [0, 0, 6, 0, 14, 2, 7, 0]"] ;
417 -> 418 ;
419 [label="X[3] <= 5.5\ngini = 0.4062\nsamples = 4\nvalue = [0, 0, 1, 0, 6, 1, 0, 0]"] ;
418 -> 419 ;
420 [label="X[4] <= 0.5\ngini = 0.2449\nsamples = 3\nvalue = [0, 0, 0, 0, 6, 1, 0, 0]"] ;
419 -> 420 ;
421 [label="X[1] <= 5.5\ngini = 0.32\nsamples = 2\nvalue = [0, 0, 0, 0, 4, 1, 0, 0]"] ;
420 -> 421 ;
422 [label="gini = 0.0\nsamples = 1\nvalue = [0, 0, 0, 0, 4, 0, 0, 0]"] ;
421 -> 422 ;
423 [label="gini = 0.0\nsamples = 1\nvalue = [0, 0, 0, 0, 0, 1, 0, 0]"] ;
421 -> 423 ;
424 [label="gini = 0.0\nsamples = 1\nvalue = [0, 0, 0, 0, 2, 0, 0, 0]"] ;
420 -> 424 ;
425 [label="gini = 0.0\nsamples = 1\nvalue = [0, 0, 1, 0, 0, 0, 0, 0]"] ;
419 -> 425 ;
426 [label="X[1] <= 5.5\ngini = 0.6848\nsamples = 11\nvalue = [0, 0, 5, 0, 8, 1, 7, 0]"] ;
418 -> 426 ;
427 [label="X[4] <= 1.5\ngini = 0.6429\nsamples = 8\nvalue = [0, 0, 2, 0, 7, 1, 4, 0]"] ;
426 -> 427 ;
428 [label="X[4] <= 0.5\ngini = 0.5714\nsamples = 4\nvalue = [0, 0, 0, 0, 2, 1, 4, 0]"] ;
427 -> 428 ;
429 [label="X[3] <= 5.5\ngini = 0.625\nsamples = 3\nvalue = [0, 0, 0, 0, 2, 1, 1, 0]"] ;
428 -> 429 ;
430 [label="X[3] <= 2.5\ngini = 0.5\nsamples = 2\nvalue = [0, 0, 0, 0, 0, 1, 1, 0]"] ;
429 -> 430 ;
431 [label="gini = 0.0\nsamples = 1\nvalue = [0, 0, 0, 0, 0, 1, 0, 0]"] ;
430 -> 431 ;
432 [label="gini = 0.0\nsamples = 1\nvalue = [0, 0, 0, 0, 0, 0, 1, 0]"] ;
430 -> 432 ;
433 [label="gini = 0.0\nsamples = 1\nvalue = [0, 0, 0, 0, 2, 0, 0, 0]"] ;
429 -> 433 ;
434 [label="gini = 0.0\nsamples = 1\nvalue = [0, 0, 0, 0, 0, 0, 3, 0]"] ;
428 -> 434 ;
435 [label="X[4] <= 2.5\ngini = 0.4082\nsamples = 4\nvalue = [0, 0, 2, 0, 5, 0, 0, 0]"] ;
427 -> 435 ;
436 [label="X[3] <= 7.0\ngini = 0.4444\nsamples = 2\nvalue = [0, 0, 2, 0, 1, 0, 0, 0]"] ;
435 -> 436 ;
437 [label="gini = 0.0\nsamples = 1\nvalue = [0, 0, 2, 0, 0, 0, 0, 0]"] ;
436 -> 437 ;
438 [label="gini = 0.0\nsamples = 1\nvalue = [0, 0, 0, 0, 1, 0, 0, 0]"] ;
436 -> 438 ;
439 [label="gini = 0.0\nsamples = 2\nvalue = [0, 0, 0, 0, 4, 0, 0, 0]"] ;
435 -> 439 ;
440 [label="X[3] <= 7.0\ngini = 0.6122\nsamples = 3\nvalue = [0, 0, 3, 0, 1, 0, 3, 0]"] ;
426 -> 440 ;
441 [label="X[4] <= 0.5\ngini = 0.375\nsamples = 2\nvalue = [0, 0, 3, 0, 1, 0, 0, 0]"] ;
440 -> 441 ;
442 [label="gini = 0.0\nsamples = 1\nvalue = [0, 0, 0, 0, 1, 0, 0, 0]"] ;
441 -> 442 ;
443 [label="gini = 0.0\nsamples = 1\nvalue = [0, 0, 3, 0, 0, 0, 0, 0]"] ;
441 -> 443 ;
444 [label="gini = 0.0\nsamples = 1\nvalue = [0, 0, 0, 0, 0, 0, 3, 0]"] ;
440 -> 444 ;
445 [label="gini = 0.0\nsamples = 1\nvalue = [0, 0, 2, 0, 0, 0, 0, 0]"] ;
417 -> 445 ;
446 [label="X[2] <= 6.5\ngini = 0.7839\nsamples = 122\nvalue = [3, 11, 25, 23, 47, 58, 12, 1]"] ;
416 -> 446 ;
447 [label="X[1] <= 5.5\ngini = 0.8009\nsamples = 67\nvalue = [3, 10, 18, 7, 25, 27, 6, 1]"] ;
446 -> 447 ;
448 [label="X[4] <= 0.5\ngini = 0.7412\nsamples = 28\nvalue = [2, 1, 4, 3, 10, 17, 4, 0]"] ;
447 -> 448 ;
449 [label="X[3] <= 6.5\ngini = 0.32\nsamples = 4\nvalue = [0, 0, 0, 0, 4, 1, 0, 0]"] ;
448 -> 449 ;
450 [label="gini = 0.0\nsamples = 1\nvalue = [0, 0, 0, 0, 0, 1, 0, 0]"] ;
449 -> 450 ;
451 [label="gini = 0.0\nsamples = 3\nvalue = [0, 0, 0, 0, 4, 0, 0, 0]"] ;
449 -> 451 ;
452 [label="X[0] <= 0.5\ngini = 0.7392\nsamples = 24\nvalue = [2, 1, 4, 3, 6, 16, 4, 0]"] ;
448 -> 452 ;
453 [label="X[3] <= 5.5\ngini = 0.718\nsamples = 23\nvalue = [2, 1, 2, 3, 6, 16, 4, 0]"] ;
452 -> 453 ;
454 [label="gini = 0.0\nsamples = 3\nvalue = [0, 0, 0, 0, 0, 3, 0, 0]"] ;
453 -> 454 ;
455 [label="X[2] <= 5.5\ngini = 0.7513\nsamples = 20\nvalue = [2, 1, 2, 3, 6, 13, 4, 0]"] ;
453 -> 455 ;
456 [label="X[4] <= 1.5\ngini = 0.5917\nsamples = 7\nvalue = [0, 0, 0, 0, 4, 7, 2, 0]"] ;
455 -> 456 ;
457 [label="X[3] <= 6.5\ngini = 0.4444\nsamples = 2\nvalue = [0, 0, 0, 0, 2, 4, 0, 0]"] ;
456 -> 457 ;
458 [label="gini = 0.0\nsamples = 1\nvalue = [0, 0, 0, 0, 0, 4, 0, 0]"] ;
457 -> 458 ;
459 [label="gini = 0.0\nsamples = 1\nvalue = [0, 0, 0, 0, 2, 0, 0, 0]"] ;
457 -> 459 ;
460 [label="X[3] <= 8.5\ngini = 0.6531\nsamples = 5\nvalue = [0, 0, 0, 0, 2, 3, 2, 0]"] ;
456 -> 460 ;
461 [label="X[3] <= 7.5\ngini = 0.6667\nsamples = 4\nvalue = [0, 0, 0, 0, 2, 2, 2, 0]"] ;
460 -> 461 ;
462 [label="gini = 0.64\nsamples = 3\nvalue = [0, 0, 0, 0, 1, 2, 2, 0]"] ;
461 -> 462 ;
463 [label="gini = 0.0\nsamples = 1\nvalue = [0, 0, 0, 0, 1, 0, 0, 0]"] ;
461 -> 463 ;
464 [label="gini = 0.0\nsamples = 1\nvalue = [0, 0, 0, 0, 0, 1, 0, 0]"] ;
460 -> 464 ;
465 [label="X[3] <= 6.5\ngini = 0.8086\nsamples = 13\nvalue = [2, 1, 2, 3, 2, 6, 2, 0]"] ;
455 -> 465 ;
466 [label="X[4] <= 2.0\ngini = 0.78\nsamples = 7\nvalue = [2, 0, 0, 3, 1, 2, 2, 0]"] ;
465 -> 466 ;
467 [label="gini = 0.0\nsamples = 1\nvalue = [2, 0, 0, 0, 0, 0, 0, 0]"] ;
466 -> 467 ;
468 [label="X[4] <= 3.5\ngini = 0.7188\nsamples = 6\nvalue = [0, 0, 0, 3, 1, 2, 2, 0]"] ;
466 -> 468 ;
469 [label="gini = 0.0\nsamples = 1\nvalue = [0, 0, 0, 2, 0, 0, 0, 0]"] ;
468 -> 469 ;
470 [label="X[4] <= 5.5\ngini = 0.7222\nsamples = 5\nvalue = [0, 0, 0, 1, 1, 2, 2, 0]"] ;
468 -> 470 ;
471 [label="X[4] <= 4.5\ngini = 0.64\nsamples = 4\nvalue = [0, 0, 0, 1, 0, 2, 2, 0]"] ;
470 -> 471 ;
472 [label="gini = 0.625\nsamples = 3\nvalue = [0, 0, 0, 1, 0, 2, 1, 0]"] ;
471 -> 472 ;
473 [label="gini = 0.0\nsamples = 1\nvalue = [0, 0, 0, 0, 0, 0, 1, 0]"] ;
471 -> 473 ;
474 [label="gini = 0.0\nsamples = 1\nvalue = [0, 0, 0, 0, 1, 0, 0, 0]"] ;
470 -> 474 ;
475 [label="X[4] <= 1.5\ngini = 0.6562\nsamples = 6\nvalue = [0, 1, 2, 0, 1, 4, 0, 0]"] ;
465 -> 475 ;
476 [label="gini = 0.0\nsamples = 1\nvalue = [0, 0, 0, 0, 1, 0, 0, 0]"] ;
475 -> 476 ;
477 [label="X[4] <= 2.5\ngini = 0.5714\nsamples = 5\nvalue = [0, 1, 2, 0, 0, 4, 0, 0]"] ;
475 -> 477 ;
478 [label="gini = 0.0\nsamples = 1\nvalue = [0, 0, 1, 0, 0, 0, 0, 0]"] ;
477 -> 478 ;
479 [label="X[4] <= 4.0\ngini = 0.5\nsamples = 4\nvalue = [0, 1, 1, 0, 0, 4, 0, 0]"] ;
477 -> 479 ;
480 [label="X[3] <= 7.5\ngini = 0.625\nsamples = 3\nvalue = [0, 1, 1, 0, 0, 2, 0, 0]"] ;
479 -> 480 ;
481 [label="gini = 0.0\nsamples = 1\nvalue = [0, 0, 0, 0, 0, 2, 0, 0]"] ;
480 -> 481 ;
482 [label="gini = 0.5\nsamples = 2\nvalue = [0, 1, 1, 0, 0, 0, 0, 0]"] ;
480 -> 482 ;
483 [label="gini = 0.0\nsamples = 1\nvalue = [0, 0, 0, 0, 0, 2, 0, 0]"] ;
479 -> 483 ;
484 [label="gini = 0.0\nsamples = 1\nvalue = [0, 0, 2, 0, 0, 0, 0, 0]"] ;
452 -> 484 ;
485 [label="X[2] <= 5.5\ngini = 0.801\nsamples = 39\nvalue = [1, 9, 14, 4, 15, 10, 2, 1]"] ;
447 -> 485 ;
486 [label="X[4] <= 2.5\ngini = 0.6806\nsamples = 9\nvalue = [0, 1, 4, 0, 2, 5, 0, 0]"] ;
485 -> 486 ;
487 [label="X[4] <= 0.5\ngini = 0.6667\nsamples = 7\nvalue = [0, 1, 4, 0, 1, 3, 0, 0]"] ;
486 -> 487 ;
488 [label="gini = 0.0\nsamples = 1\nvalue = [0, 0, 1, 0, 0, 0, 0, 0]"] ;
487 -> 488 ;
489 [label="X[3] <= 4.5\ngini = 0.6875\nsamples = 6\nvalue = [0, 1, 3, 0, 1, 3, 0, 0]"] ;
487 -> 489 ;
490 [label="gini = 0.0\nsamples = 1\nvalue = [0, 0, 0, 0, 0, 2, 0, 0]"] ;
489 -> 490 ;
491 [label="X[4] <= 1.5\ngini = 0.6667\nsamples = 5\nvalue = [0, 1, 3, 0, 1, 1, 0, 0]"] ;
489 -> 491 ;
492 [label="X[3] <= 6.0\ngini = 0.6667\nsamples = 3\nvalue = [0, 1, 1, 0, 0, 1, 0, 0]"] ;
491 -> 492 ;
493 [label="gini = 0.0\nsamples = 1\nvalue = [0, 0, 1, 0, 0, 0, 0, 0]"] ;
492 -> 493 ;
494 [label="X[3] <= 7.5\ngini = 0.5\nsamples = 2\nvalue = [0, 1, 0, 0, 0, 1, 0, 0]"] ;
492 -> 494 ;
495 [label="gini = 0.0\nsamples = 1\nvalue = [0, 0, 0, 0, 0, 1, 0, 0]"] ;
494 -> 495 ;
496 [label="gini = 0.0\nsamples = 1\nvalue = [0, 1, 0, 0, 0, 0, 0, 0]"] ;
494 -> 496 ;
497 [label="X[3] <= 5.5\ngini = 0.4444\nsamples = 2\nvalue = [0, 0, 2, 0, 1, 0, 0, 0]"] ;
491 -> 497 ;
498 [label="gini = 0.0\nsamples = 1\nvalue = [0, 0, 0, 0, 1, 0, 0, 0]"] ;
497 -> 498 ;
499 [label="gini = 0.0\nsamples = 1\nvalue = [0, 0, 2, 0, 0, 0, 0, 0]"] ;
497 -> 499 ;
500 [label="X[3] <= 5.0\ngini = 0.4444\nsamples = 2\nvalue = [0, 0, 0, 0, 1, 2, 0, 0]"] ;
486 -> 500 ;
501 [label="gini = 0.0\nsamples = 1\nvalue = [0, 0, 0, 0, 0, 2, 0, 0]"] ;
500 -> 501 ;
502 [label="gini = 0.0\nsamples = 1\nvalue = [0, 0, 0, 0, 1, 0, 0, 0]"] ;
500 -> 502 ;
503 [label="X[3] <= 5.5\ngini = 0.8037\nsamples = 30\nvalue = [1, 8, 10, 4, 13, 5, 2, 1]"] ;
485 -> 503 ;
504 [label="X[4] <= 1.5\ngini = 0.5703\nsamples = 9\nvalue = [1, 1, 10, 0, 2, 2, 0, 0]"] ;
503 -> 504 ;
505 [label="gini = 0.0\nsamples = 2\nvalue = [0, 0, 7, 0, 0, 0, 0, 0]"] ;
504 -> 505 ;
506 [label="X[4] <= 4.5\ngini = 0.7654\nsamples = 7\nvalue = [1, 1, 3, 0, 2, 2, 0, 0]"] ;
504 -> 506 ;
507 [label="X[3] <= 4.5\ngini = 0.7222\nsamples = 5\nvalue = [1, 1, 2, 0, 2, 0, 0, 0]"] ;
506 -> 507 ;
508 [label="gini = 0.0\nsamples = 1\nvalue = [0, 0, 1, 0, 0, 0, 0, 0]"] ;
507 -> 508 ;
509 [label="X[4] <= 2.5\ngini = 0.72\nsamples = 4\nvalue = [1, 1, 1, 0, 2, 0, 0, 0]"] ;
507 -> 509 ;
510 [label="gini = 0.4444\nsamples = 2\nvalue = [1, 0, 0, 0, 2, 0, 0, 0]"] ;
509 -> 510 ;
511 [label="X[4] <= 3.5\ngini = 0.5\nsamples = 2\nvalue = [0, 1, 1, 0, 0, 0, 0, 0]"] ;
509 -> 511 ;
512 [label="gini = 0.0\nsamples = 1\nvalue = [0, 0, 1, 0, 0, 0, 0, 0]"] ;
511 -> 512 ;
513 [label="gini = 0.0\nsamples = 1\nvalue = [0, 1, 0, 0, 0, 0, 0, 0]"] ;
511 -> 513 ;
514 [label="gini = 0.4444\nsamples = 2\nvalue = [0, 0, 1, 0, 0, 2, 0, 0]"] ;
506 -> 514 ;
515 [label="X[4] <= 1.5\ngini = 0.7449\nsamples = 21\nvalue = [0, 7, 0, 4, 11, 3, 2, 1]"] ;
503 -> 515 ;
516 [label="X[3] <= 6.5\ngini = 0.6562\nsamples = 6\nvalue = [0, 4, 0, 1, 0, 2, 0, 1]"] ;
515 -> 516 ;
517 [label="gini = 0.0\nsamples = 1\nvalue = [0, 0, 0, 0, 0, 0, 0, 1]"] ;
516 -> 517 ;
518 [label="X[4] <= 0.5\ngini = 0.5714\nsamples = 5\nvalue = [0, 4, 0, 1, 0, 2, 0, 0]"] ;
516 -> 518 ;
519 [label="X[3] <= 7.5\ngini = 0.48\nsamples = 3\nvalue = [0, 3, 0, 0, 0, 2, 0, 0]"] ;
518 -> 519 ;
520 [label="gini = 0.0\nsamples = 1\nvalue = [0, 0, 0, 0, 0, 1, 0, 0]"] ;
519 -> 520 ;
521 [label="gini = 0.375\nsamples = 2\nvalue = [0, 3, 0, 0, 0, 1, 0, 0]"] ;
519 -> 521 ;
522 [label="gini = 0.5\nsamples = 2\nvalue = [0, 1, 0, 1, 0, 0, 0, 0]"] ;
518 -> 522 ;
523 [label="X[3] <= 7.5\ngini = 0.64\nsamples = 15\nvalue = [0, 3, 0, 3, 11, 1, 2, 0]"] ;
515 -> 523 ;
524 [label="X[4] <= 3.5\ngini = 0.5067\nsamples = 12\nvalue = [0, 0, 0, 3, 10, 1, 1, 0]"] ;
523 -> 524 ;
525 [label="X[4] <= 2.5\ngini = 0.5714\nsamples = 5\nvalue = [0, 0, 0, 2, 4, 0, 1, 0]"] ;
524 -> 525 ;
526 [label="X[3] <= 6.5\ngini = 0.4444\nsamples = 4\nvalue = [0, 0, 0, 2, 4, 0, 0, 0]"] ;
525 -> 526 ;
527 [label="gini = 0.5\nsamples = 3\nvalue = [0, 0, 0, 2, 2, 0, 0, 0]"] ;
526 -> 527 ;
528 [label="gini = 0.0\nsamples = 1\nvalue = [0, 0, 0, 0, 2, 0, 0, 0]"] ;
526 -> 528 ;
529 [label="gini = 0.0\nsamples = 1\nvalue = [0, 0, 0, 0, 0, 0, 1, 0]"] ;
525 -> 529 ;
530 [label="X[3] <= 6.5\ngini = 0.4062\nsamples = 7\nvalue = [0, 0, 0, 1, 6, 1, 0, 0]"] ;
524 -> 530 ;
531 [label="X[0] <= 0.5\ngini = 0.6667\nsamples = 3\nvalue = [0, 0, 0, 1, 1, 1, 0, 0]"] ;
530 -> 531 ;
532 [label="X[4] <= 5.5\ngini = 0.5\nsamples = 2\nvalue = [0, 0, 0, 0, 1, 1, 0, 0]"] ;
531 -> 532 ;
533 [label="gini = 0.0\nsamples = 1\nvalue = [0, 0, 0, 0, 0, 1, 0, 0]"] ;
532 -> 533 ;
534 [label="gini = 0.0\nsamples = 1\nvalue = [0, 0, 0, 0, 1, 0, 0, 0]"] ;
532 -> 534 ;
535 [label="gini = 0.0\nsamples = 1\nvalue = [0, 0, 0, 1, 0, 0, 0, 0]"] ;
531 -> 535 ;
536 [label="gini = 0.0\nsamples = 4\nvalue = [0, 0, 0, 0, 5, 0, 0, 0]"] ;
530 -> 536 ;
537 [label="X[4] <= 3.5\ngini = 0.56\nsamples = 3\nvalue = [0, 3, 0, 0, 1, 0, 1, 0]"] ;
523 -> 537 ;
538 [label="gini = 0.375\nsamples = 2\nvalue = [0, 3, 0, 0, 1, 0, 0, 0]"] ;
537 -> 538 ;
539 [label="gini = 0.0\nsamples = 1\nvalue = [0, 0, 0, 0, 0, 0, 1, 0]"] ;
537 -> 539 ;
540 [label="X[4] <= 4.5\ngini = 0.7406\nsamples = 55\nvalue = [0, 1, 7, 16, 22, 31, 6, 0]"] ;
446 -> 540 ;
541 [label="X[4] <= 0.5\ngini = 0.6821\nsamples = 26\nvalue = [0, 0, 5, 7, 17, 7, 0, 0]"] ;
540 -> 541 ;
542 [label="X[1] <= 5.5\ngini = 0.4444\nsamples = 2\nvalue = [0, 0, 0, 4, 2, 0, 0, 0]"] ;
541 -> 542 ;
543 [label="gini = 0.0\nsamples = 1\nvalue = [0, 0, 0, 0, 2, 0, 0, 0]"] ;
542 -> 543 ;
544 [label="gini = 0.0\nsamples = 1\nvalue = [0, 0, 0, 4, 0, 0, 0, 0]"] ;
542 -> 544 ;
545 [label="X[2] <= 7.5\ngini = 0.6578\nsamples = 24\nvalue = [0, 0, 5, 3, 15, 7, 0, 0]"] ;
541 -> 545 ;
546 [label="X[3] <= 7.5\ngini = 0.6782\nsamples = 15\nvalue = [0, 0, 4, 3, 8, 2, 0, 0]"] ;
545 -> 546 ;
547 [label="X[4] <= 2.5\ngini = 0.5816\nsamples = 12\nvalue = [0, 0, 3, 3, 8, 0, 0, 0]"] ;
546 -> 547 ;
548 [label="X[1] <= 5.5\ngini = 0.4444\nsamples = 5\nvalue = [0, 0, 2, 0, 4, 0, 0, 0]"] ;
547 -> 548 ;
549 [label="X[3] <= 6.0\ngini = 0.5\nsamples = 4\nvalue = [0, 0, 2, 0, 2, 0, 0, 0]"] ;
548 -> 549 ;
550 [label="X[4] <= 1.5\ngini = 0.5\nsamples = 2\nvalue = [0, 0, 1, 0, 1, 0, 0, 0]"] ;
549 -> 550 ;
551 [label="gini = 0.0\nsamples = 1\nvalue = [0, 0, 1, 0, 0, 0, 0, 0]"] ;
550 -> 551 ;
552 [label="gini = 0.0\nsamples = 1\nvalue = [0, 0, 0, 0, 1, 0, 0, 0]"] ;
550 -> 552 ;
553 [label="X[4] <= 1.5\ngini = 0.5\nsamples = 2\nvalue = [0, 0, 1, 0, 1, 0, 0, 0]"] ;
549 -> 553 ;
554 [label="gini = 0.0\nsamples = 1\nvalue = [0, 0, 0, 0, 1, 0, 0, 0]"] ;
553 -> 554 ;
555 [label="gini = 0.0\nsamples = 1\nvalue = [0, 0, 1, 0, 0, 0, 0, 0]"] ;
553 -> 555 ;
556 [label="gini = 0.0\nsamples = 1\nvalue = [0, 0, 0, 0, 2, 0, 0, 0]"] ;
548 -> 556 ;
557 [label="X[3] <= 5.5\ngini = 0.5938\nsamples = 7\nvalue = [0, 0, 1, 3, 4, 0, 0, 0]"] ;
547 -> 557 ;
558 [label="X[1] <= 5.5\ngini = 0.6111\nsamples = 5\nvalue = [0, 0, 1, 3, 2, 0, 0, 0]"] ;
557 -> 558 ;
559 [label="X[4] <= 3.5\ngini = 0.4444\nsamples = 3\nvalue = [0, 0, 1, 0, 2, 0, 0, 0]"] ;
558 -> 559 ;
560 [label="gini = 0.5\nsamples = 2\nvalue = [0, 0, 1, 0, 1, 0, 0, 0]"] ;
559 -> 560 ;
561 [label="gini = 0.0\nsamples = 1\nvalue = [0, 0, 0, 0, 1, 0, 0, 0]"] ;
559 -> 561 ;
562 [label="gini = 0.0\nsamples = 2\nvalue = [0, 0, 0, 3, 0, 0, 0, 0]"] ;
558 -> 562 ;
563 [label="gini = 0.0\nsamples = 2\nvalue = [0, 0, 0, 0, 2, 0, 0, 0]"] ;
557 -> 563 ;
564 [label="X[4] <= 2.5\ngini = 0.4444\nsamples = 3\nvalue = [0, 0, 1, 0, 0, 2, 0, 0]"] ;
546 -> 564 ;
565 [label="gini = 0.0\nsamples = 1\nvalue = [0, 0, 0, 0, 0, 1, 0, 0]"] ;
564 -> 565 ;
566 [label="gini = 0.5\nsamples = 2\nvalue = [0, 0, 1, 0, 0, 1, 0, 0]"] ;
564 -> 566 ;
567 [label="X[1] <= 5.5\ngini = 0.5562\nsamples = 9\nvalue = [0, 0, 1, 0, 7, 5, 0, 0]"] ;
545 -> 567 ;
568 [label="X[4] <= 1.5\ngini = 0.4082\nsamples = 5\nvalue = [0, 0, 0, 0, 5, 2, 0, 0]"] ;
567 -> 568 ;
569 [label="gini = 0.0\nsamples = 1\nvalue = [0, 0, 0, 0, 0, 1, 0, 0]"] ;
568 -> 569 ;
570 [label="X[3] <= 6.5\ngini = 0.2778\nsamples = 4\nvalue = [0, 0, 0, 0, 5, 1, 0, 0]"] ;
568 -> 570 ;
571 [label="gini = 0.0\nsamples = 2\nvalue = [0, 0, 0, 0, 3, 0, 0, 0]"] ;
570 -> 571 ;
572 [label="gini = 0.4444\nsamples = 2\nvalue = [0, 0, 0, 0, 2, 1, 0, 0]"] ;
570 -> 572 ;
573 [label="X[4] <= 2.5\ngini = 0.6111\nsamples = 4\nvalue = [0, 0, 1, 0, 2, 3, 0, 0]"] ;
567 -> 573 ;
574 [label="gini = 0.0\nsamples = 1\nvalue = [0, 0, 1, 0, 0, 0, 0, 0]"] ;
573 -> 574 ;
575 [label="X[4] <= 3.5\ngini = 0.48\nsamples = 3\nvalue = [0, 0, 0, 0, 2, 3, 0, 0]"] ;
573 -> 575 ;
576 [label="gini = 0.0\nsamples = 1\nvalue = [0, 0, 0, 0, 0, 1, 0, 0]"] ;
575 -> 576 ;
577 [label="gini = 0.5\nsamples = 2\nvalue = [0, 0, 0, 0, 2, 2, 0, 0]"] ;
575 -> 577 ;
578 [label="X[4] <= 6.5\ngini = 0.6727\nsamples = 29\nvalue = [0, 1, 2, 9, 5, 24, 6, 0]"] ;
540 -> 578 ;
579 [label="X[3] <= 7.5\ngini = 0.6034\nsamples = 23\nvalue = [0, 1, 1, 5, 4, 22, 4, 0]"] ;
578 -> 579 ;
580 [label="X[0] <= 0.5\ngini = 0.5665\nsamples = 22\nvalue = [0, 1, 1, 5, 4, 22, 2, 0]"] ;
579 -> 580 ;
581 [label="X[3] <= 4.0\ngini = 0.3424\nsamples = 15\nvalue = [0, 0, 1, 3, 0, 20, 1, 0]"] ;
580 -> 581 ;
582 [label="gini = 0.0\nsamples = 1\nvalue = [0, 0, 0, 1, 0, 0, 0, 0]"] ;
581 -> 582 ;
583 [label="X[1] <= 5.5\ngini = 0.2951\nsamples = 14\nvalue = [0, 0, 1, 2, 0, 20, 1, 0]"] ;
581 -> 583 ;
584 [label="X[2] <= 8.5\ngini = 0.46\nsamples = 7\nvalue = [0, 0, 1, 2, 0, 7, 0, 0]"] ;
583 -> 584 ;
585 [label="X[4] <= 5.5\ngini = 0.3457\nsamples = 6\nvalue = [0, 0, 0, 2, 0, 7, 0, 0]"] ;
584 -> 585 ;
586 [label="X[3] <= 6.5\ngini = 0.4444\nsamples = 4\nvalue = [0, 0, 0, 2, 0, 4, 0, 0]"] ;
585 -> 586 ;
587 [label="X[2] <= 7.5\ngini = 0.32\nsamples = 3\nvalue = [0, 0, 0, 1, 0, 4, 0, 0]"] ;
586 -> 587 ;
588 [label="gini = 0.0\nsamples = 1\nvalue = [0, 0, 0, 0, 0, 2, 0, 0]"] ;
587 -> 588 ;
589 [label="gini = 0.4444\nsamples = 2\nvalue = [0, 0, 0, 1, 0, 2, 0, 0]"] ;
587 -> 589 ;
590 [label="gini = 0.0\nsamples = 1\nvalue = [0, 0, 0, 1, 0, 0, 0, 0]"] ;
586 -> 590 ;
591 [label="gini = 0.0\nsamples = 2\nvalue = [0, 0, 0, 0, 0, 3, 0, 0]"] ;
585 -> 591 ;
592 [label="gini = 0.0\nsamples = 1\nvalue = [0, 0, 1, 0, 0, 0, 0, 0]"] ;
584 -> 592 ;
593 [label="X[2] <= 7.5\ngini = 0.1327\nsamples = 7\nvalue = [0, 0, 0, 0, 0, 13, 1, 0]"] ;
583 -> 593 ;
594 [label="X[3] <= 6.5\ngini = 0.2449\nsamples = 5\nvalue = [0, 0, 0, 0, 0, 6, 1, 0]"] ;
593 -> 594 ;
595 [label="X[4] <= 5.5\ngini = 0.32\nsamples = 3\nvalue = [0, 0, 0, 0, 0, 4, 1, 0]"] ;
594 -> 595 ;
596 [label="gini = 0.0\nsamples = 1\nvalue = [0, 0, 0, 0, 0, 0, 1, 0]"] ;
595 -> 596 ;
597 [label="gini = 0.0\nsamples = 2\nvalue = [0, 0, 0, 0, 0, 4, 0, 0]"] ;
595 -> 597 ;
598 [label="gini = 0.0\nsamples = 2\nvalue = [0, 0, 0, 0, 0, 2, 0, 0]"] ;
594 -> 598 ;
599 [label="gini = 0.0\nsamples = 2\nvalue = [0, 0, 0, 0, 0, 7, 0, 0]"] ;
593 -> 599 ;
600 [label="X[1] <= 5.5\ngini = 0.74\nsamples = 7\nvalue = [0, 1, 0, 2, 4, 2, 1, 0]"] ;
580 -> 600 ;
601 [label="X[2] <= 8.5\ngini = 0.5\nsamples = 2\nvalue = [0, 1, 0, 0, 0, 0, 1, 0]"] ;
600 -> 601 ;
602 [label="gini = 0.0\nsamples = 1\nvalue = [0, 0, 0, 0, 0, 0, 1, 0]"] ;
601 -> 602 ;
603 [label="gini = 0.0\nsamples = 1\nvalue = [0, 1, 0, 0, 0, 0, 0, 0]"] ;
601 -> 603 ;
604 [label="X[3] <= 4.5\ngini = 0.625\nsamples = 5\nvalue = [0, 0, 0, 2, 4, 2, 0, 0]"] ;
600 -> 604 ;
605 [label="gini = 0.0\nsamples = 2\nvalue = [0, 0, 0, 0, 0, 2, 0, 0]"] ;
604 -> 605 ;
606 [label="X[3] <= 5.5\ngini = 0.4444\nsamples = 3\nvalue = [0, 0, 0, 2, 4, 0, 0, 0]"] ;
604 -> 606 ;
607 [label="gini = 0.4444\nsamples = 2\nvalue = [0, 0, 0, 2, 1, 0, 0, 0]"] ;
606 -> 607 ;
608 [label="gini = 0.0\nsamples = 1\nvalue = [0, 0, 0, 0, 3, 0, 0, 0]"] ;
606 -> 608 ;
609 [label="gini = 0.0\nsamples = 1\nvalue = [0, 0, 0, 0, 0, 0, 2, 0]"] ;
579 -> 609 ;
610 [label="X[3] <= 4.5\ngini = 0.74\nsamples = 6\nvalue = [0, 0, 1, 4, 1, 2, 2, 0]"] ;
578 -> 610 ;
611 [label="gini = 0.4444\nsamples = 2\nvalue = [0, 0, 0, 0, 1, 0, 2, 0]"] ;
610 -> 611 ;
612 [label="X[3] <= 5.5\ngini = 0.5714\nsamples = 4\nvalue = [0, 0, 1, 4, 0, 2, 0, 0]"] ;
610 -> 612 ;
613 [label="X[2] <= 8.5\ngini = 0.625\nsamples = 3\nvalue = [0, 0, 1, 1, 0, 2, 0, 0]"] ;
612 -> 613 ;
614 [label="gini = 0.0\nsamples = 1\nvalue = [0, 0, 1, 0, 0, 0, 0, 0]"] ;
613 -> 614 ;
615 [label="X[4] <= 7.5\ngini = 0.4444\nsamples = 2\nvalue = [0, 0, 0, 1, 0, 2, 0, 0]"] ;
613 -> 615 ;
616 [label="gini = 0.0\nsamples = 1\nvalue = [0, 0, 0, 1, 0, 0, 0, 0]"] ;
615 -> 616 ;
617 [label="gini = 0.0\nsamples = 1\nvalue = [0, 0, 0, 0, 0, 2, 0, 0]"] ;
615 -> 617 ;
618 [label="gini = 0.0\nsamples = 1\nvalue = [0, 0, 0, 3, 0, 0, 0, 0]"] ;
612 -> 618 ;
}